tree
version=v2
num_class=1
num_tree_per_iteration=1
label_index=0
max_feature_idx=107
objective=regression
feature_names=Column_0 Column_1 Column_2 Column_3 Column_4 Column_5 Column_6 Column_7 Column_8 Column_9 Column_10 Column_11 Column_12 Column_13 Column_14 Column_15 Column_16 Column_17 Column_18 Column_19 Column_20 Column_21 Column_22 Column_23 Column_24 Column_25 Column_26 Column_27 Column_28 Column_29 Column_30 Column_31 Column_32 Column_33 Column_34 Column_35 Column_36 Column_37 Column_38 Column_39 Column_40 Column_41 Column_42 Column_43 Column_44 Column_45 Column_46 Column_47 Column_48 Column_49 Column_50 Column_51 Column_52 Column_53 Column_54 Column_55 Column_56 Column_57 Column_58 Column_59 Column_60 Column_61 Column_62 Column_63 Column_64 Column_65 Column_66 Column_67 Column_68 Column_69 Column_70 Column_71 Column_72 Column_73 Column_74 Column_75 Column_76 Column_77 Column_78 Column_79 Column_80 Column_81 Column_82 Column_83 Column_84 Column_85 Column_86 Column_87 Column_88 Column_89 Column_90 Column_91 Column_92 Column_93 Column_94 Column_95 Column_96 Column_97 Column_98 Column_99 Column_100 Column_101 Column_102 Column_103 Column_104 Column_105 Column_106 Column_107
feature_infos=[0:1] [0:0.99999999999999978] [0:1] [0:0.99999999999999989] [0:1] [0:1] [0:1.0000000000000002] [0:1] [0:1] [0:1] [0:0.99999999999999978] [0:1] [0:0.99999999999999989] [0:1] [0:1] [0:1.0000000000000002] [0:1] [0:1] [0:1] [0:0.99999999999999978] [0:1] [0:0.99999999999999989] [0:1] [0:1] [0:1.0000000000000002] [0:1] [0:1] [0:1] [0:0.99999999999999978] [0:1] [0:0.99999999999999989] [0:1] [0:1] [0:1] [0:1] [0:1] [0:1] [0:0.99999999999999978] [0:1] [0:0.99999999999999989] [0:1] [0:1] [0:1] [0:1] [0:1] [0:1] [0:0.99999999999999978] [0:1] [0:0.99999999999999989] [0:1] [0:1] [0:1] [0:1] [0:1] [0:1] [0:0.99999999999999978] [0:1] [0:0.99999999999999989] [0:1] [0:1] [0:1] [0:1] [0:1] [0:1] [0:1] [0:1] [0:1] [0:1] [0:1] [0:1] [0:1] [0:1] [0:1] [0:1] [0:1] [0:1] [0:1] [0:1] [0:1] [0:1] [0:1] [0:1] [0:1] [0:1] [0:1] [0:1] [0:1] [0:1] [0:1] [0:1] [0:1] [0:0.99999999999999989] [0:1] [0:1] [0:1] [0:1] [0:1] [0:1] [0:1] [0:1] [0:0.99999999999999989] [0:1] [0:1] [0:1] [0:1] [0:1] [0:1] [0:1]
tree_sizes=2442 2505 2513 2503 2500 2495 2500 2501 2503 2502 2504 2516 2496 2513 2496 2509 2497 2499 2506 2496 2513 2480 2504 2514 2488 2510 2497 2493 2494 2509 2505 2505 2493 2492 2497 2510 2490 2492 2503 2499 2499 2504 2501 2504 2494 2500 2505 2493 2502 2505 2512 2499 2513 2508 2509 2499 2502 2504 2502 2509 2495 2507 2504 2502 2507 2499 2488 2491 2491 2498 2493 2503 2489 2503 2505 2496 2497 2511 2502 2515 2492 2502 2500 2500 2500 2486 2496 2501 2503 2512 2502 2490 2502 2501 2487 2502 2509 2502 2500 2502 2503 2498 2497 2504 2512 2500 2502 2488 2507 2519 2512 2483 2519 2498 2504 2522 2508 2499 2497 2508 2512 2510 2517 2514 2504 2511 2500 2507 2500 2508 2507 2513 2503 2493 2500 2505 2511 2511 2506 2507 2511 2527 2515 2502 2511 2500 2504 2525 2514 2508 2522 2513 2506 2509 2499 2506 2517 2500 2508 2498 2511 2512 2499 2502 2501 2505 2498 2516 2497 2523 2502 2502 2506 2504 2513 2504 2499 2518 2491 2495 2494 2502 2518 2504 2518 2502 2517 2534 2520 2524 2526 2510 2515 2516 2503 2513 2505 2506 2507 2497 2520 2524 2501 2514 2511 2506 2511 2502 2516 2507 2520 2507 2508 2521 2480 2532 2497 2484 2483 2478 2522 2484 2511 2504 2513 2510 2493 2483 2503 2494 2518 2486 2522 2512 2505 2505 2521 2481 2514 2500 2517 2518 2504 2504 2515 2514 2482 2519 2481 2520 2491 2509 2486 2510 2517 2486 2483 2507 2500 2475 2500 2478 2532 2517 2508 2518 2504 2525 2502 2500 2527 2498 2531 2500 2514 2525 2517 2504 2534 2532 2533 2513 2505 2532 2535 2534 2521 2548 2519 2537 2522 2538 2539 2541 2529 2530 2528 2528 2508 2511 2519 2535 2522 2524 2530 2531 2519 2518 2538 2496 2517 2523 2530 2529 2543 2548 2523 2537 2537 2519 2527 2534 2531 2532 2543 2545 2520 2525 2537 2538 2514 2534 2506 2544 2526 2527 2526 2530 2544 2533 2516 2541 2535 2529 2530 2535 2528 2525 2552 2528 2505 2541 2532 2546 2514 2543 2527 2521 2544 2535 2505 2516 2526 2519 2527 2514 2531 2513 2539 2531 2515 2517 2542 2515 2534 2514 2520 2527 2492 2533 2542 2520 2485 2522 2519 2550 2154 2515 2535 2517 2227 2536 2532 2562 2225 2516 2516 2543 2501 2539 2548 2558 2522 2555 2534 1771 2497 2535 2549 2549 2520 2541 2511 1766 2529 2541 1692 2549 2522 2538 2531 2545 2531 2152 2528 2524 2526 2541 2544 2150 2522 2526 2523 2542 2527 2527 1920 2547 2534 2546 2520 2528 2524 2371 2518 2525 2550 2533 2541 2547 2541 2532 2378 2551 2549 2543 2527 2556 2387 2559 2535 2297 2528 2549 2529 2466 2559 2162 2518 2536 2317 2532 2503 2152 2537 2382 2528 2223 2554 2551 2555 2153 2542 2548 2553 2538 2525 2381 2511 2148 2329 2524 2545 2549 2528 2228 2546 2539 2546 2547 2525 2331 2540 2558 2537 2535 2305 2526 2541 2541 2539 2544 2211 2546 2538 2523 2555 2536 2554 2065 2549 2540 2540 2539 2456 2526 2298 2515 2549 2553 2540 2469 2539 2545 2531 2559 2543 2537 2546 2287 2535 2540 2531 2516 2478 2231 2529 2452 2557 2552 2547 2535 2549 2530 1598 2378 2552 2462 2547 2540 2461 2530 2380 2541 2544 2526 2391 2377 2547 2387 2382 2532 2376 2552 2519 2378 2121 2550 2382 2529 2548 2558 2523 2546 2546 2544 2529 1995 2550 2070 2540 2521 2528 2540 2543 2514 2549 2528 2550 2556 2513 2533 2540 2538 1446 2525 2452 2541 2542 2541 2506 2239 1443 2514 2514 2547 2219 2515 2547 2448 2523 2518 2529 2081 2454 2543 2500 2545 2241 1843 2519 2538 2524 1453 2555 2540 2549 2522 2554 2543 1673 2539 1770 2537 1997 2449 2527 2511 2546 2538 2543 1826 2528 2521 2076 2541 2536 2540 1451 2555 2536 2546 2523 2541 2524 1846 2509 2554 1994 1450 2464 2244 2519 2469 2525 2540 2454 2539 2533 2519 2547 2535 2520 2520 1761 2535 2559 2517 2525 2524 2542 2521 1768 2551 2549 2523 2549 2528 2528 2536

Tree=0
num_leaves=31
num_cat=0
split_feature=107 107 107 107 107 107 89 107 8 30 26 107 40 107 17 29 107 26 53 40 17 89 107 77 98 98 89 17 98 35
split_gain=291310 87722.7 54469.8 18648.2 11246 8605.46 5743.68 6174.72 3316.67 3280.18 2593.63 2375.4 2231.51 1930.54 1902.86 3703.78 1831.59 1575.96 1522.75 1513.97 1426.07 1407.18 1342.59 1332.65 1282.63 1225.18 1183.23 1174.86 952.873 936.349
threshold=0.095528455284552866 0.16869918699186995 0.055894308943089444 0.1239837398373984 0.078252032520325226 0.029471544715447159 0.14837398373983743 0.27032520325203263 0.099593495934959378 0.72435897435897445 0.095528455284552866 0.043699186991869927 0.25000000000000006 0.14024390243902443 0.10365853658536588 0.69117647058823917 0.1158536585365854 0.22154471544715451 0.090447154471544736 0.25000000000000006 0.10772357723577237 0.1239837398373984 0.064024390243902454 0.32142857142857145 0.076219512195121977 0.067073170731707335 0.029471544715447159 0.053861788617886187 0.037601626016260173 0.12703252032520329
decision_type=2 2 2 2 2 2 2 2 2 2 2 2 2 2 2 2 2 2 2 2 2 2 2 2 2 2 2 2 2 2
left_child=2 3 5 16 10 26 8 9 18 -8 22 27 -11 14 -5 -16 20 21 -3 -10 24 -12 -4 -6 -2 -25 -1 -7 -13 -15
right_child=1 6 4 13 23 11 7 -9 19 12 17 28 -14 29 15 -17 -18 -19 -20 -21 -22 -23 -24 25 -26 -27 -28 -29 -30 -31
leaf_value=19.020466964466401 19.16347626901463 19.247874615115883 19.112326237767114 19.237948424968156 19.187342777341033 19.06283734306923 19.398231319098283 19.593603180577176 19.482531757909445 19.580174612827065 19.139847327724965 19.076571165815572 19.439674616825158 19.284160330925772 19.265806690988843 19.414174616641759 19.234748144364726 19.216126230765919 19.361947344347975 19.373917039872712 19.217493043940454 19.216474618149757 19.129280167545879 19.140914453484672 19.199684400352862 19.166521463067077 19.053605911346995 19.087374614601046 19.102017382588755 19.324615793054498
leaf_count=183 121 25 709 168 223 381 97 28 21 20 579 174 26 175 106 20 204 31 22 33 369 25 1369 246 511 777 262 400 954 85
internal_value=0 10.4173 -3.35141 7.8329 -1.0864 -7.16074 27.1301 30.6617 21.1508 28.0027 -2.22859 -6.23762 34.9575 12.6349 10.8794 13.8171 5.62516 -0.459848 15.0084 26.497 5.06859 -0.816749 -2.76909 1.40058 4.15657 0.917728 -11.1208 -7.5782 -5.30943 14.62
internal_count=8344 2031 6313 1759 3959 2354 272 171 101 143 2713 1909 46 554 294 126 1205 635 47 54 1001 604 2078 1246 632 1023 445 781 1128 260
shrinkage=1


Tree=1
num_leaves=31
num_cat=0
split_feature=107 107 107 107 107 107 89 107 8 30 26 107 40 107 17 29 26 107 98 53 40 17 74 98 98 17 59 71 98 35
split_gain=285513 85977 53385.8 18277.1 11022.2 8434.21 5629.38 6051.84 3250.67 3214.9 2552.1 2328.12 2187.1 1892.13 1864.99 3630.08 1799.35 1795.14 1696.67 1492.45 1483.84 1397.69 1310.48 1257.11 1173.97 1151.48 1042.12 1396.09 933.911 917.716
threshold=0.095528455284552866 0.16869918699186995 0.055894308943089444 0.1239837398373984 0.078252032520325226 0.029471544715447159 0.14837398373983743 0.27032520325203263 0.099593495934959378 0.72435897435897445 0.076219512195121977 0.043699186991869927 0.25000000000000006 0.14024390243902443 0.10365853658536588 0.69117647058823917 0.22154471544715451 0.1158536585365854 0.055894308943089444 0.090447154471544736 0.25000000000000006 0.10772357723577237 0.42187500000000006 0.076219512195121977 0.045731707317073184 0.053861788617886187 0.36428571428571438 0.055894308943089444 0.037601626016260173 0.12703252032520329
decision_type=2 2 2 2 2 2 2 2 2 2 2 2 2 2 2 2 2 2 2 2 2 2 2 2 2 2 2 2 2 2
left_child=2 3 5 17 10 24 8 9 19 -8 -4 25 -11 14 -5 -16 18 21 -12 -3 -10 23 -6 -2 -1 -7 27 -20 -13 -15
right_child=1 6 4 13 22 11 7 -9 20 12 16 28 -14 29 15 -17 -18 -19 26 -21 -22 -23 -24 -25 -26 -27 -28 -29 -30 -31
leaf_value=-0.11781614175820647 0.012166889893614558 0.095721254491806032 -0.030470712212995996 0.085894324041548245 -0.0080997827682527199 -0.08746564515580342 0.24457438596745129 0.43799252441951203 0.32803182056971958 0.42469825458526617 -0.037311474522739127 -0.073869160948128537 0.28560325604218706 0.1316441093649183 0.11347400759750942 0.26035825437307358 0.064290350464082532 0.082726047757793866 0.092006143111558192 0.20865325158292597 0.22050325742273622 0.065643497722016442 0.018653915605033482 0.048012940684759926 -0.075922475776566967 -0.063173746698349714 -0.011893490742094472 0.0048037256045292505 -0.048677406694810348 0.1716950209596578
leaf_count=363 121 25 1549 168 223 381 97 28 21 20 228 174 26 175 106 20 31 204 21 22 33 369 1023 511 82 400 738 146 954 85
internal_value=0 10.3131 -3.31789 7.75457 -1.07553 -7.08914 26.8588 30.3551 20.9393 27.7226 -2.20631 -6.17524 34.6079 12.5086 10.7706 13.6789 -1.08745 5.56891 -1.29311 14.8583 26.232 5.01791 1.38657 4.115 -11.0096 -7.50242 -0.678887 1.57693 -5.25634 14.4738
internal_count=8344 2031 6313 1759 3959 2354 272 171 101 143 2713 1909 46 554 294 126 1164 1205 1133 47 54 1001 1246 632 445 781 905 167 1128 260
shrinkage=0.01


Tree=2
num_leaves=31
num_cat=0
split_feature=107 107 107 107 107 107 89 107 8 30 26 107 40 107 76 107 71 53 40 17 99 107 77 98 98 89 17 98 32 71
split_gain=279831 84266.1 52323.4 17913.4 10802.8 8266.37 5517.36 5931.41 3185.98 3150.93 2505.11 2281.79 2143.58 1854.47 1850.28 1759.42 1547.69 1462.75 1454.31 1369.88 1337.33 1312.46 1301.14 1232.09 1199.36 1153.17 1128.57 1014.15 936.215 1982.61
threshold=0.095528455284552866 0.16869918699186995 0.055894308943089444 0.1239837398373984 0.078252032520325226 0.029471544715447159 0.14837398373983743 0.27032520325203263 0.099593495934959378 0.72435897435897445 0.095528455284552866 0.043699186991869927 0.25000000000000006 0.14024390243902443 0.11363636363636365 0.1158536585365854 0.16463414634146348 0.090447154471544736 0.25000000000000006 0.10772357723577237 0.3625000000000001 0.064024390243902454 0.32142857142857145 0.076219512195121977 0.067073170731707335 0.029471544715447159 0.053861788617886187 0.055894308943089444 0.29285714285714287 0.076219512195121977
decision_type=2 2 2 2 2 2 2 2 2 2 2 2 2 2 2 2 2 2 2 2 2 2 2 2 2 2 2 2 2 2
left_child=2 3 5 15 10 25 8 9 17 -8 21 26 -11 14 -5 19 27 -3 -10 23 -16 -4 -6 -2 -24 -1 -7 -12 29 -29
right_child=1 6 4 13 22 11 7 -9 18 12 16 -13 -14 -15 20 -17 -18 -19 -20 -21 -22 -23 24 -25 -26 -27 -28 28 -30 -31
leaf_value=-0.1282570514490044 0.012045221587350545 0.094764043664932254 -0.038197660609365185 0.19708097378412884 0.035614193367851155 -0.086590985616576174 0.24212864669327883 0.43361260754721509 0.3247515097118559 0.42045127487182621 -0.035387777548248525 -0.052037734600863132 0.28274722796220048 0.1432902995198965 0.14424349983533225 0.081898786209377586 0.077949455922300168 0.20656672125512901 0.21829822313604932 0.064987063714805338 0.088681052993966017 -0.021435079372728105 -0.010287330881124591 0.047532812226308535 0.015048463010112905 -0.095541728524391661 -0.062542007008381195 0.11689162632077933 -0.0063487209993640667 -0.0066861644789979269
leaf_count=183 121 25 709 21 223 381 97 28 21 20 107 1128 26 260 54 204 22 22 33 369 219 1369 246 511 777 262 400 20 449 37
internal_value=0 10.2099 -3.28472 7.67702 -1.06478 -7.01825 26.5902 30.0515 20.7299 27.4454 -2.18424 -6.11349 34.2619 12.3835 10.6629 5.51322 -0.445943 14.7097 25.9697 4.96773 9.96714 -2.71544 1.37271 4.07385 0.895598 -10.8995 -7.4274 -0.7417 -0.150224 3.66745
internal_count=8344 2031 6313 1759 3959 2354 272 171 101 143 2713 1909 46 554 294 1205 635 47 54 1001 273 2078 1246 632 1023 445 781 613 506 57
shrinkage=0.01


Tree=3
num_leaves=31
num_cat=0
split_feature=107 107 107 107 107 107 89 107 8 30 26 107 40 107 17 29 26 107 98 53 100 17 74 98 98 17 59 71 98 35
split_gain=274262 82589.2 51282.2 17556.9 10587.9 8101.87 5407.56 5813.37 3122.58 3088.22 2468.04 2236.39 2100.92 1817.57 1822.33 3546.83 1749.28 1724.4 1641.28 1433.64 1425.87 1342.61 1278.06 1207.57 1144.18 1106.11 1016.12 1367.28 915.326 899.454
threshold=0.095528455284552866 0.16869918699186995 0.055894308943089444 0.1239837398373984 0.078252032520325226 0.029471544715447159 0.14837398373983743 0.27032520325203263 0.099593495934959378 0.72435897435897445 0.076219512195121977 0.043699186991869927 0.25000000000000006 0.14024390243902443 0.10365853658536588 0.69117647058823917 0.22154471544715451 0.1158536585365854 0.055894308943089444 0.090447154471544736 0.54411764705882359 0.10772357723577237 0.42187500000000006 0.076219512195121977 0.045731707317073184 0.053861788617886187 0.36428571428571438 0.055894308943089444 0.037601626016260173 0.12703252032520329
decision_type=2 2 2 2 2 2 2 2 2 2 2 2 2 2 2 2 2 2 2 2 2 2 2 2 2 2 2 2 2 2
left_child=2 3 5 17 10 24 8 9 19 -8 -4 25 -11 14 -5 -16 18 21 -12 -3 -10 23 -6 -2 -1 -7 27 -20 -13 -15
right_child=1 6 4 13 22 11 7 -9 20 12 16 28 -14 29 15 -17 -18 -19 26 -21 -22 -23 -24 -25 -26 -27 -28 -29 -30 -31
leaf_value=-0.11552664662688232 0.011924768346400301 0.093816398859024056 -0.029892028320155042 0.084001851759496204 -0.00810230402701906 -0.085725076367535943 0.239707364642743 0.42927647522517609 0.32409853458404542 0.41624676513671871 -0.036628158829714125 -0.072610091257455017 0.27991975160745475 0.1288947654758181 0.11126504194624019 0.25645522832870482 0.063490521965488309 0.081079800041282887 0.091113201273339134 0.20450105883858422 0.21768870574148264 0.06433719251214004 0.018318388276639688 0.047057482818334773 -0.074167936524239989 -0.061916587779857216 -0.011648453356430622 0.0048152738064527511 -0.047670253782398392 0.16854516705344705
leaf_count=363 121 25 1549 168 223 381 97 28 20 20 228 174 26 175 106 20 31 204 21 22 34 369 1023 511 82 400 738 146 954 85
internal_value=0 10.1078 -3.25187 7.60025 -1.05413 -6.94806 26.3243 29.751 20.5226 27.171 -2.1624 -6.05236 33.9192 12.2596 10.5563 13.4311 -1.06213 5.45809 -1.2649 14.5626 25.71 4.91805 1.35898 4.03311 -10.7905 -7.35312 -0.66079 1.56671 -5.15174 14.1857
internal_count=8344 2031 6313 1759 3959 2354 272 171 101 143 2713 1909 46 554 294 126 1164 1205 1133 47 54 1001 1246 632 445 781 905 167 1128 260
shrinkage=0.01


Tree=4
num_leaves=31
num_cat=0
split_feature=107 107 107 107 107 107 89 107 8 30 26 107 40 50 81 49 89 71 40 53 107 107 77 98 107 89 17 8 98 32
split_gain=268804 80945.7 50261.7 17207.5 10377.2 7940.64 5299.95 5697.69 3060.44 3026.77 2419.6 2191.88 2059.11 1784.43 3064.18 1717.57 1695.32 1508.7 1418.15 1405.11 1385.44 1283.02 1270.38 1174.09 1149.95 1123.88 1084.1 1010.66 984.645 1004.59
threshold=0.095528455284552866 0.16869918699186995 0.055894308943089444 0.1239837398373984 0.078252032520325226 0.029471544715447159 0.14837398373983743 0.27032520325203263 0.099593495934959378 0.72435897435897445 0.095528455284552866 0.043699186991869927 0.25000000000000006 0.27857142857142864 0.64473684210526316 0.29545454545454547 0.080284552845528476 0.16463414634146348 0.25000000000000006 0.090447154471544736 0.14024390243902443 0.064024390243902454 0.32142857142857145 0.067073170731707335 0.1158536585365854 0.029471544715447159 0.053861788617886187 0.18089430894308947 0.064024390243902454 0.29285714285714287
decision_type=2 2 2 2 2 2 2 2 2 2 2 2 2 2 2 2 2 2 2 2 2 2 2 2 2 2 2 2 2 2
left_child=2 3 5 15 10 25 8 9 19 -8 21 26 -11 14 -5 24 -15 28 -10 -3 -18 -4 -6 -24 27 -1 -7 -2 -12 -30
right_child=1 6 4 13 22 11 7 -9 18 12 17 -13 -14 16 -16 -17 20 -19 -20 -21 -22 -23 23 -25 -26 -27 -28 -29 29 -31
leaf_value=-0.12584181290180957 0.053820202630178067 0.092878236961364741 -0.037546978883847712 0.12611544869501484 0.03508079091663318 -0.084867827689710254 0.2373102866988821 0.42498371737343926 0.31876971471877324 0.41208428573608402 -0.025869950234659555 -0.051002184280148112 0.27712055059579704 0.060134248278357769 0.2431451650460561 0.041538247587888134 0.10213495194195556 0.077040142322128469 0.21364814330964829 0.20245604347098958 0.14043514953872371 -0.02097347681929675 -0.01029997820655505 0.014767499891525685 0.094654931248845275 -0.093544699473462944 -0.06129742175787687 0.095438107091989077 0.042973371741234091 -0.0043845529512137821
leaf_count=183 452 25 709 88 223 381 97 28 21 20 194 1128 26 55 30 575 208 22 33 22 173 1369 246 777 111 262 400 67 51 368
internal_value=0 10.0068 -3.21935 7.52425 -1.04359 -6.87858 26.061 29.4535 20.3174 26.8992 -2.14078 -5.99183 33.58 12.137 15.5869 5.40351 11.2034 -0.432403 25.4529 14.417 11.9526 -2.66282 1.34539 0.873954 6.54409 -10.6826 -7.27959 5.91928 -0.724412 0.137978
internal_count=8344 2031 6313 1759 3959 2354 272 171 101 143 2713 1909 46 554 118 1205 436 635 54 47 381 2078 1246 1023 630 445 781 519 613 419
shrinkage=0.01


Tree=5
num_leaves=31
num_cat=0
split_feature=107 107 107 107 107 107 98 107 62 40 26 107 17 50 81 26 49 89 76 98 107 74 107 107 98 57 107 17 59 71
split_gain=263455 79334.8 49261.5 16865.1 10170.7 7782.62 5217.51 4455.45 3488.4 3581.31 2386.75 2148.26 1944.58 1748.92 3003.2 1701.86 1683.39 1661.58 1619.48 1593.16 1357.87 1246.44 1161.85 1127.06 1115.15 1109.31 1224.52 1062.52 990.808 1342.32
threshold=0.095528455284552866 0.16869918699186995 0.055894308943089444 0.1239837398373984 0.078252032520325226 0.029471544715447159 0.19715447154471549 0.27032520325203263 0.067073170731707335 0.25000000000000006 0.076219512195121977 0.043699186991869927 0.14837398373983743 0.27857142857142864 0.64473684210526316 0.22154471544715451 0.29545454545454547 0.080284552845528476 0.25000000000000006 0.055894308943089444 0.14024390243902443 0.42187500000000006 0.20528455284552852 0.1158536585365854 0.045731707317073184 0.78846153846153855 0.20121951219512199 0.053861788617886187 0.36428571428571438 0.055894308943089444
decision_type=2 2 2 2 2 2 2 2 2 2 2 2 2 2 2 2 2 2 2 2 2 2 2 2 2 2 2 2 2 2
left_child=2 3 5 16 10 24 8 12 -3 18 -4 27 22 14 -5 19 23 -15 -10 -12 -19 -6 -8 -2 -1 26 -11 -7 29 -21
right_child=1 6 4 13 21 11 7 -9 9 25 15 -13 -14 17 -16 -17 -18 20 -20 28 -22 -23 -24 -25 -26 -27 -28 -29 -30 -31
leaf_value=-0.11328201207411848 0.058600912870469583 0.10718298420310021 -0.029324418722601997 0.1248542968810282 -0.0081026920733029521 -0.084019145565083025 0.20098302510476881 0.41936173302786695 0.37686225346156527 0.19657192683801419 -0.035998722448446707 -0.050492162561929191 0.35017135143280032 0.059532905789938841 0.24071371253331503 0.062726634260146852 0.041122864790843885 0.1011136008383563 0.25774151573181153 0.090328322833492652 0.1390307989096366 0.017989084818641695 0.28827980740865072 0.093708383381903709 -0.072451422316272093 0.15273955139620551 0.29201424729824066 -0.06068444766253233 -0.011399208249645383 0.0048216678778806778
leaf_count=363 519 23 1549 88 223 381 31 28 21 41 228 1128 24 55 30 31 575 208 25 21 173 1023 30 111 82 29 20 400 738 146
internal_value=0 9.9067 -3.18716 7.44901 -1.03315 -6.8098 25.8004 30.9957 22.1082 24.0344 -2.11937 -5.93191 27.3917 12.0157 15.431 -1.03737 5.34947 11.0913 31.2123 -1.23738 11.8331 1.33194 24.3916 6.47865 -10.5758 20.3658 22.7864 -7.2068 -0.642183 1.5574
internal_count=8344 2031 6313 1759 3959 2354 272 113 159 136 2713 1909 85 554 118 1164 1205 436 46 1133 381 1246 61 630 445 90 61 781 905 167
shrinkage=0.01


Tree=6
num_leaves=31
num_cat=0
split_feature=107 107 107 107 107 107 89 107 8 30 26 107 41 50 81 71 49 89 98 100 53 107 77 98 107 89 59 71 17 8
split_gain=258212 77756.1 48281.2 16529.5 9968.26 7627.75 5127.21 5474.41 2948.06 2940.93 2339.26 2105.51 2033.7 1714.12 2943.44 1686.65 1649.89 1628.52 1581.92 1376.89 1357.62 1330.84 1240.36 1149.36 1104.64 1095.33 1078.87 1145.36 1041.38 990.551
threshold=0.095528455284552866 0.16869918699186995 0.055894308943089444 0.1239837398373984 0.078252032520325226 0.029471544715447159 0.14837398373983743 0.27032520325203263 0.099593495934959378 0.72435897435897445 0.076219512195121977 0.043699186991869927 0.4071428571428572 0.27857142857142864 0.64473684210526316 0.18089430894308947 0.29545454545454547 0.080284552845528476 0.055894308943089444 0.54411764705882359 0.090447154471544736 0.14024390243902443 0.32142857142857145 0.067073170731707335 0.1158536585365854 0.029471544715447159 0.36428571428571438 0.055894308943089444 0.053861788617886187 0.18089430894308947
decision_type=2 2 2 2 2 2 2 2 2 2 2 2 2 2 2 2 2 2 2 2 2 2 2 2 2 2 2 2 2 2
left_child=2 3 5 16 10 25 8 9 20 -8 -4 28 -11 14 -5 18 24 -15 -12 -10 -3 -19 -6 -24 29 -1 27 -20 -7 -2
right_child=1 6 4 13 22 11 7 -9 19 12 15 -13 -14 17 -16 -17 -18 21 26 -21 -22 -23 23 -25 -26 -27 -28 -29 -30 -31
leaf_value=-0.12347288881820408 0.05269599104085855 0.090603548812866211 -0.029031174647543047 0.12360575214578687 0.034555942561861647 -0.083178956605630905 0.23252466427911189 0.41665864842278616 0.3151728653907776 0.38792484796964205 -0.035367185277579656 -0.049987239963143859 0.2537963676452637 0.058937577155503365 0.23830657696723939 0.080770429506897931 0.040711636529279796 0.10010246705192213 0.083816670951518138 0.21060634554309005 0.19831374363465742 0.1376404912649207 -0.01031004901339368 0.014491982484186016 0.092771297102575909 -0.0915886406145478 -0.011259223809259681 0.0066493116431181731 -0.06007760498151183 0.093897714579283295
leaf_count=183 452 25 1549 88 223 381 97 28 20 26 229 1128 20 55 30 20 575 208 22 34 22 173 246 777 111 262 740 153 400 67
internal_value=0 9.80764 -3.15528 7.37452 -1.02282 -6.7417 25.5424 28.8791 19.8931 26.3754 -2.09817 -5.87259 32.9608 11.8955 15.2767 -1.02699 5.29598 10.9804 -1.18615 24.9335 14.1021 11.7147 1.31862 0.852786 6.41386 -10.4701 -0.59787 1.63504 -7.13473 5.80149
internal_count=8344 2031 6313 1759 3959 2354 272 171 101 143 2713 1909 46 554 118 1164 1205 436 1144 54 47 381 1246 1023 630 445 915 175 781 519
shrinkage=0.01


Tree=7
num_leaves=31
num_cat=0
split_feature=107 107 107 107 107 107 98 107 62 40 26 107 17 50 81 107 89 76 71 107 17 107 77 98 107 98 98 57 107 17
split_gain=253074 76208.7 47320.4 16200.5 9769.89 7475.95 5031.98 4282.24 3362.57 3481.99 2305.03 2063.61 1891.56 1680.01 2884.86 1627.89 1596.11 1583.19 1447.45 1304.36 1295.61 1250.92 1215.67 1182.91 1132.25 1126.48 1086.85 1075.55 1195.11 1020.66
threshold=0.095528455284552866 0.16869918699186995 0.055894308943089444 0.1239837398373984 0.078252032520325226 0.029471544715447159 0.19715447154471549 0.27032520325203263 0.067073170731707335 0.25000000000000006 0.095528455284552866 0.043699186991869927 0.14837398373983743 0.27857142857142864 0.64473684210526316 0.1158536585365854 0.080284552845528476 0.25000000000000006 0.16463414634146348 0.14024390243902443 0.10772357723577237 0.064024390243902454 0.32142857142857145 0.076219512195121977 0.20528455284552852 0.067073170731707335 0.045731707317073184 0.78846153846153855 0.20121951219512199 0.053861788617886187
decision_type=2 2 2 2 2 2 2 2 2 2 2 2 2 2 2 2 2 2 2 2 2 2 2 2 2 2 2 2 2 2
left_child=2 3 5 15 10 26 8 12 -3 17 21 29 24 14 -5 20 -15 -10 -12 -18 23 -4 -6 -2 -8 -24 -1 28 -11 -7
right_child=1 6 4 13 22 11 7 -9 9 27 18 -13 -14 16 -16 -17 19 -19 -20 -21 -22 -23 25 -25 -26 -27 -28 -29 -30 -31
leaf_value=-0.11108134682759765 0.010375146525950472 0.10478417738624242 -0.03664858380419285 0.12236969500356777 0.034210382822917718 -0.082347169532550599 0.19658640200091945 0.41114762680871147 0.37030806723095128 0.19226867175683743 -0.0069577710757101931 -0.04948736846975401 0.34376589814821878 0.058348200852220707 0.23592351015408836 0.078176864378300362 0.099101441646926108 0.25252950935363772 0.075597812560471628 0.13626408426489445 0.062072128478266042 -0.020283738665114015 -0.010206948562366208 0.045147331945029498 0.28276394303639729 0.014347063063271104 -0.07077213918290487 0.14921013503239072 0.28655770587921142 -0.059476828339695934
leaf_count=363 121 23 709 88 223 381 31 28 21 41 613 1128 24 55 30 204 208 25 22 173 369 1369 246 511 30 777 82 29 20 400
internal_value=0 9.70956 -3.12373 7.30077 -1.01259 -6.67428 25.287 30.389 21.661 23.5522 -2.07719 -5.81387 26.8559 11.7766 15.1239 5.24302 10.8706 30.6298 -0.409758 11.5976 4.71831 -2.58673 1.30543 3.849 23.8969 0.844258 -10.3654 19.9347 22.3183 -7.06338
internal_count=8344 2031 6313 1759 3959 2354 272 113 159 136 2713 1909 85 554 118 1205 436 46 635 381 1001 2078 1246 632 61 1023 445 90 61 781
shrinkage=0.01


Tree=8
num_leaves=31
num_cat=0
split_feature=107 107 107 107 107 107 89 107 30 8 98 107 41 26 50 81 49 89 100 53 107 35 74 80 107 89 17 8 98 25
split_gain=248038 74692.2 46378.7 15878.1 9575.47 7327.18 4960.23 5259.79 2857.47 2839.71 2277.49 2022.55 1983.22 1848.82 1646.58 2827.46 1613.89 1564.35 1336.44 1311.74 1278.4 1254.62 1209.62 1075.7 1063.9 1024.18 1000.34 963.432 897.111 857.063
threshold=0.095528455284552866 0.16869918699186995 0.055894308943089444 0.1239837398373984 0.078252032520325226 0.029471544715447159 0.14837398373983743 0.27032520325203263 0.72435897435897445 0.099593495934959378 0.061991869918699198 0.043699186991869927 0.4071428571428572 0.078252032520325226 0.27857142857142864 0.64473684210526316 0.29545454545454547 0.080284552845528476 0.54411764705882359 0.090447154471544736 0.14024390243902443 0.055894308943089444 0.42187500000000006 0.029471544715447159 0.1158536585365854 0.1239837398373984 0.053861788617886187 0.18089430894308947 0.037601626016260173 0.7934782608695653
decision_type=2 2 2 2 2 2 2 2 2 2 2 2 2 2 2 2 2 2 2 2 2 2 2 2 2 2 2 2 2 2
left_child=2 3 5 16 10 23 9 8 -8 19 -4 26 -10 -12 15 -5 24 -16 -11 -3 -19 -15 -6 -1 27 -23 -7 -2 -13 -22
right_child=1 6 4 14 22 11 7 -9 12 18 13 28 -14 21 17 -17 -18 20 -20 -21 29 25 -24 -25 -26 -27 -28 -29 -30 -31
leaf_value=-0.12229782976602253 0.05170673888143712 0.088381398963928229 -0.031566352402668994 0.12114599746228619 -0.0081795708016563426 -0.081523694339699623 0.22783588512656613 0.40849632842200145 0.38112027314993052 0.30910824918746949 -0.022124644976532135 -0.069874299809165388 0.24866708993911743 0.063973350515910271 0.057764719784259795 0.23356427653630576 0.039792115889003749 0.098110427125446639 0.2060891628090073 0.19425610271367158 0.12051052794837562 -0.0063505312759557257 0.017524009533117245 -0.090334515917475197 0.091061816489374309 0.047831333025887206 -0.058882059784233567 0.092340543670440797 -0.045183862834169183 0.1693267781126733
leaf_count=171 452 25 1111 88 223 381 97 28 26 20 925 174 20 29 55 30 575 208 34 22 122 611 1023 274 111 37 400 67 954 51
internal_value=0 9.61246 -3.09249 7.22776 -1.00247 -6.60754 25.0341 28.3161 25.8619 19.4776 -2.05642 -5.75573 32.3532 -1.29341 11.6588 14.9727 5.19059 10.7619 24.4244 13.794 11.4816 -0.037694 1.29238 -10.2617 6.29621 -0.325681 -6.99275 5.69523 -4.89925 13.4901
internal_count=8344 2031 6313 1759 3959 2354 272 171 143 101 2713 1909 46 1602 554 118 1205 436 54 47 381 677 1246 445 630 648 781 519 1128 173
shrinkage=0.01


Tree=9
num_leaves=31
num_cat=0
split_feature=107 107 107 107 107 107 89 107 30 8 26 107 40 107 76 49 26 40 89 53 99 107 77 98 98 107 17 8 98 35
split_gain=243102 73205.8 45455.8 15562.2 9384.92 7181.37 4861.52 5155.12 2800.61 2783.2 2232.89 1982.3 1965.86 1614.21 1791.74 1581.77 1410.64 1327.61 1311.24 1285.64 1281.09 1221.19 1186.91 1102.75 1059.74 1042.73 980.438 944.259 879.258 859.295
threshold=0.095528455284552866 0.16869918699186995 0.055894308943089444 0.1239837398373984 0.078252032520325226 0.029471544715447159 0.14837398373983743 0.27032520325203263 0.72435897435897445 0.099593495934959378 0.095528455284552866 0.043699186991869927 0.25000000000000006 0.14024390243902443 0.11363636363636365 0.29545454545454547 0.22154471544715451 0.25000000000000006 0.1239837398373984 0.090447154471544736 0.3625000000000001 0.064024390243902454 0.32142857142857145 0.067073170731707335 0.045731707317073184 0.1158536585365854 0.053861788617886187 0.18089430894308947 0.037601626016260173 0.12703252032520329
decision_type=2 2 2 2 2 2 2 2 2 2 2 2 2 2 2 2 2 2 2 2 2 2 2 2 2 2 2 2 2 2
left_child=2 3 5 15 10 24 9 8 -8 19 21 26 -10 14 -5 25 18 -11 -12 -3 -16 -4 -6 -24 -1 27 -7 -2 -13 -15
right_child=1 6 4 13 22 11 7 -9 12 17 16 28 -14 29 20 -17 -18 -19 -20 -21 -22 -23 23 -25 -26 -27 -28 -29 -30 -31
leaf_value=-0.10892542093704882 0.051189672335718583 0.087497587847709668 -0.036026001783831328 0.18837917228539783 0.033698802913785519 -0.080708461376469282 0.22555752449428912 0.40441136019570489 0.39483308124542232 0.303958398274013 -0.010385451894993403 -0.069175559018535171 0.26296087099955634 0.12090366009473801 0.13614770102280158 0.039394194564288075 0.061842631245813059 0.20224782519268267 0.063583571639657027 0.19231354236602782 0.081766115229695902 -0.019856753545133651 -0.010214292897683819 0.014079627636124883 -0.069122092438543711 0.090151198253975273 -0.05829323979318142 0.09141713801159787 -0.044732024467841136 0.1596588095075944
leaf_count=363 452 25 709 21 223 381 97 28 20 21 579 174 26 175 54 575 31 33 25 22 219 1369 246 777 82 111 400 67 954 85
internal_value=0 9.51634 -3.06157 7.15549 -0.992443 -6.54146 24.7838 28.0329 25.6033 19.2828 -2.03586 -5.69817 32.0297 11.5422 9.93698 5.13868 -0.394719 24.1802 -0.732382 13.656 9.25229 -2.53736 1.27945 0.823769 -10.1591 6.23325 -6.92282 5.63828 -4.85026 13.3574
internal_count=8344 2031 6313 1759 3959 2354 272 171 143 101 2713 1909 46 554 294 1205 635 54 604 47 273 2078 1246 1023 445 630 781 519 1128 260
shrinkage=0.01


Tree=10
num_leaves=31
num_cat=0
split_feature=107 107 107 107 107 107 98 107 62 40 98 107 17 26 50 81 107 102 89 35 107 44 74 107 89 57 107 89 17 49
split_gain=238264 71749 44551.2 15252.5 9198.16 7038.46 4782.92 4033.31 3186.58 3331.61 2220.11 1942.85 1821.4 1788.91 1605.01 2769.36 1566.52 1566.08 1527.52 1231.83 1227.3 1216.92 1179.73 1101.03 1050.63 1037.39 1164.94 986.136 960.927 917.305
threshold=0.095528455284552866 0.16869918699186995 0.055894308943089444 0.1239837398373984 0.078252032520325226 0.029471544715447159 0.19715447154471549 0.27032520325203263 0.067073170731707335 0.25000000000000006 0.061991869918699198 0.043699186991869927 0.14837398373983743 0.078252032520325226 0.27857142857142864 0.64473684210526316 0.10772357723577237 0.55333333333333345 0.080284552845528476 0.055894308943089444 0.14024390243902443 0.066056910569105717 0.42187500000000006 0.20528455284552852 0.029471544715447159 0.78846153846153855 0.20121951219512199 0.1239837398373984 0.053861788617886187 0.34090909090909099
decision_type=2 2 2 2 2 2 2 2 2 2 2 2 2 2 2 2 2 2 2 2 2 2 2 2 2 2 2 2 2 2
left_child=2 3 5 16 10 24 8 12 -3 17 -4 28 23 -12 15 -5 21 -10 -16 -15 -20 -2 -6 -8 -1 26 -11 -21 -7 -18
right_child=1 6 4 14 22 11 7 -9 9 25 13 -13 -14 19 18 -17 29 -19 20 27 -22 -23 -24 -25 -26 -27 -28 -29 -30 -31
leaf_value=-0.11896019769985168 0.015428811430342889 0.10114808769329735 -0.031017656293324626 0.11870005411857909 -0.0081743388033300775 -0.079901376376001865 0.18998189787710867 0.39919429779052734 0.35859220851551404 0.18592114576479282 -0.021662004774808886 -0.048017544925529905 0.33461118261019385 0.063493653800466968 0.05614891271699559 0.2299575047492981 0.074590000646689178 0.24178522308667499 0.096156341336094422 -0.0061588843338459777 0.13220450238340853 0.047847958867258004 0.017209623326362635 0.27496304512023928 -0.087733379551813803 0.14379416942596435 0.2790124425888062 0.047007163247546634 -0.057710308204591276 0.049047737175295522
leaf_count=183 152 23 1111 88 223 381 31 28 22 41 925 1128 24 29 55 30 309 24 208 611 173 486 1023 30 262 29 20 37 400 258
internal_value=0 9.42118 -3.03095 7.08393 -0.982518 -6.47605 24.5359 29.5101 21.0008 22.8419 -2.0155 -5.64119 26.0812 -1.26216 11.4268 14.6986 5.0873 29.7649 10.5413 -0.0269568 11.2525 4.01243 1.26666 23.1776 -10.0575 19.3034 21.6443 -0.312317 -6.85359 6.29676
internal_count=8344 2031 6313 1759 3959 2354 272 113 159 136 2713 1909 85 1602 554 118 1205 46 436 677 381 638 1246 61 445 90 61 648 781 567
shrinkage=0.01


Tree=11
num_leaves=31
num_cat=0
split_feature=107 107 107 107 107 107 89 107 30 8 98 41 107 26 50 81 107 89 100 53 17 35 107 77 98 98 80 89 17 98
split_gain=233523 70321.2 43664.6 14948.9 9015.12 6898.4 4698.19 4954.37 2727.5 2678.41 2175.93 1924.8 1904.19 1753.31 1573.07 2714.25 1541.53 1497.12 1286.05 1244.86 1243.23 1207.32 1202.88 1158.83 1153.33 1079.51 1038.13 966.512 941.805 861.761
threshold=0.095528455284552866 0.16869918699186995 0.055894308943089444 0.1239837398373984 0.078252032520325226 0.029471544715447159 0.14837398373983743 0.27032520325203263 0.72435897435897445 0.099593495934959378 0.061991869918699198 0.4071428571428572 0.043699186991869927 0.078252032520325226 0.27857142857142864 0.64473684210526316 0.1158536585365854 0.080284552845528476 0.54411764705882359 0.090447154471544736 0.10772357723577237 0.055894308943089444 0.14024390243902443 0.32142857142857145 0.076219512195121977 0.067073170731707335 0.029471544715447159 0.1239837398373984 0.053861788617886187 0.037601626016260173
decision_type=2 2 2 2 2 2 2 2 2 2 2 2 2 2 2 2 2 2 2 2 2 2 2 2 2 2 2 2 2 2
left_child=2 3 5 16 10 26 9 8 -8 19 -4 -10 28 -12 15 -5 20 -16 -11 -3 24 -15 -19 -6 -2 -25 -1 -23 -7 -14
right_child=1 6 4 14 23 12 7 -9 11 18 13 -13 29 21 17 -17 -18 22 -20 -21 -22 27 -24 25 -26 -27 -28 -29 -30 -31
leaf_value=-0.11890327473350784 0.0089816122458986018 0.085351337623596188 -0.030707479642551567 0.11751305383884095 0.033195409749388158 -0.079102361201457777 0.22095322921104038 0.39648892811366487 0.37118140147282525 0.30050044584274294 -0.021445385055364787 0.24069364213943481 -0.068003627099524969 0.062858715864091086 0.055587423248724503 0.22765793168544768 0.075418629610509269 0.095194778766196503 0.19944220406167648 0.18849169828675011 0.05984316053287931 -0.0060972956646349642 0.13088245656448982 -0.010219238075480712 0.043316227618437224 0.013817371713570493 -0.087503075340667563 0.046537090773518024 -0.05713320289850235 -0.043804528648248513
leaf_count=171 121 25 1111 88 223 381 97 28 26 20 925 20 174 29 55 30 204 208 34 22 369 611 173 246 511 777 274 37 400 954
internal_value=0 9.32696 -3.00064 7.01309 -0.972693 -6.41129 24.2906 27.4846 25.1028 18.8828 -1.99534 31.4448 -5.58478 -1.24954 11.3125 14.5516 5.03642 10.4359 23.6871 13.363 4.52582 -0.0266872 11.1399 1.25399 3.67427 0.803731 -9.95692 -0.309194 -6.78506 -4.75374
internal_count=8344 2031 6313 1759 3959 2354 272 171 143 101 2713 46 1909 1602 554 118 1205 436 54 47 1001 677 381 1246 632 1023 445 648 781 1128
shrinkage=0.01


Tree=12
num_leaves=31
num_cat=0
split_feature=107 107 107 107 107 107 98 107 62 40 107 26 107 17 50 81 76 89 98 44 98 107 107 98 57 107 26 59 71 31
split_gain=228896 74297.7 37790.5 17342 6761.12 6139.51 4612.95 3876.51 3071.66 3239.32 2233.19 2141.48 1866.3 1771.82 1541.76 2660.24 1538.03 1467.33 1431.33 1301.26 1252.06 1178.94 1073.04 1027.52 1005.85 1137.06 993.498 1060.63 1933.63 988.889
threshold=0.090447154471544736 0.16869918699186995 0.055894308943089444 0.1239837398373984 0.029471544715447159 0.076219512195121977 0.19715447154471549 0.27032520325203263 0.067073170731707335 0.25000000000000006 0.10772357723577237 0.22560975609756104 0.043699186991869927 0.14837398373983743 0.27857142857142864 0.64473684210526316 0.25000000000000006 0.080284552845528476 0.061991869918699198 0.076219512195121977 0.070121951219512216 0.14024390243902443 0.20528455284552852 0.045731707317073184 0.78846153846153855 0.20121951219512199 0.078252032520325226 0.36428571428571438 0.064024390243902454 0.11363636363636365
decision_type=2 2 2 2 2 2 2 2 2 2 2 2 2 2 2 2 2 2 2 2 2 2 2 2 2 2 2 2 2 2
left_child=2 3 4 10 23 11 8 13 -3 16 19 18 -6 22 15 -5 -10 -16 -4 -2 29 -19 -8 -1 25 -11 -20 28 -28 -7
right_child=1 6 5 14 12 20 7 -9 9 24 -12 -13 -14 -15 17 -17 -18 21 26 -21 -22 -23 -24 -25 -26 -27 27 -29 -30 -31
leaf_value=-0.10579571508168764 0.020154120770265474 0.09888023625249448 -0.032065589864341798 0.11633792464282702 -0.067172046235062552 0.054401315078139306 0.18581295990174815 0.39137639488492698 0.35519038382030671 0.18183971277097377 0.061764192831763307 0.080829350255429755 -0.047061994535756026 0.3284984358151754 0.055031549022787001 0.22538135119279226 0.23910407199859621 0.094242830494275454 -0.023426266854071582 0.04539481944477939 0.011527324779024253 0.12957363295417301 0.26970724678039554 -0.066602133874122699 0.14045798844304577 0.27381039708852767 0.10632216143675827 -0.012574860883238311 0.00060361433636259146 -0.011380519247126755
leaf_count=363 318 23 1003 88 781 24 31 28 21 41 567 20 1128 24 55 30 25 208 767 571 887 173 30 82 29 20 22 426 81 478
internal_value=0 8.53655 -3.21353 6.43753 -6.34718 -1.22415 24.0477 28.9327 20.576 22.3835 4.62567 -2.22001 -5.52893 25.571 11.1994 14.4061 29.21 10.3315 -2.30964 3.63661 0.43848 11.0285 22.7072 -9.85735 18.8944 21.1994 -1.6155 -0.561231 2.31843 -0.823557
internal_count=8344 2282 6062 2010 2354 3708 272 113 159 136 1456 2319 1909 85 554 118 46 436 2299 889 1389 381 61 445 90 61 1296 529 103 502
shrinkage=0.01


Tree=13
num_leaves=31
num_cat=0
split_feature=107 107 107 107 107 107 89 107 30 82 26 40 107 40 26 75 49 71 107 107 74 89 98 17 98 32 71 107 26 98
split_gain=224361 67542.8 41937.5 14353.5 8672.92 6626.57 4545.3 4759.88 2649.85 2598.95 2114.28 1886.6 1829.16 1658.66 1525.45 2533.47 1524.87 1370.21 1273.16 1174.56 1147.42 1013.42 992.682 923.062 871.17 866.735 1935.16 866.315 858.668 844.612
threshold=0.095528455284552866 0.16869918699186995 0.055894308943089444 0.1239837398373984 0.078252032520325226 0.029471544715447159 0.14837398373983743 0.27032520325203263 0.72435897435897445 0.73437500000000011 0.095528455284552866 0.25000000000000006 0.043699186991869927 0.25000000000000006 0.099593495934959378 0.3666666666666667 0.29545454545454547 0.16463414634146348 0.14024390243902443 0.064024390243902454 0.42187500000000006 0.029471544715447159 0.076219512195121977 0.053861788617886187 0.055894308943089444 0.29285714285714287 0.076219512195121977 0.14430894308943096 0.086382113821138237 0.037601626016260173
decision_type=2 2 2 2 2 2 2 2 2 2 2 2 2 2 2 2 2 2 2 2 2 2 2 2 2 2 2 2 2 2
left_child=2 3 5 16 10 21 9 8 -8 13 19 -10 23 -3 18 -16 22 24 -5 -4 -6 -1 -2 -7 -12 26 -26 -17 -11 -14
right_child=1 6 4 14 20 12 7 -9 11 28 17 -13 29 -15 15 27 -18 -19 -20 -21 -22 -23 -24 -25 25 -27 -28 -29 -30 -31
leaf_value=-0.11564453968014875 0.029572875974597512 0.29956280773336236 -0.03489512021686194 0.075644385139163162 -0.0082509329473190503 -0.077639615685725472 0.21649881795509576 0.38871957336153301 0.38167107629775998 0.087482140452965443 -0.032305537002665974 0.25248471241730913 -0.06685297132908613 0.18602910147559257 0.2278821967995685 0.10209251910655034 0.037600732322490733 0.073941295119849121 0.11916409544073618 -0.019037587682868253 0.01678300699239136 -0.084975633920092164 0.06528044647708231 -0.055890152096748358 0.11508483792096376 -0.0055625832577615572 -0.0070052589999662863 0.13917489558990512 0.17214625759124758 -0.042895862069019984
leaf_count=183 91 22 709 158 223 381 97 28 20 23 107 26 174 31 23 144 575 22 117 1369 1023 262 539 400 20 449 37 112 25 954
internal_value=0 9.14217 -2.94119 6.87447 -0.953754 -6.2837 23.8072 26.9489 24.6143 18.4881 -1.95681 30.8653 -5.47364 23.3156 11.0874 12.7348 4.93757 -0.359855 9.416 -2.44481 1.23026 -9.75878 6.01227 -6.65003 -0.638139 -0.0899403 3.58334 11.8316 13.1578 -4.65914
internal_count=8344 2031 6313 1759 3959 2354 272 171 143 101 2713 46 1909 53 554 279 1205 635 275 2078 1246 445 630 781 613 506 57 256 48 1128
shrinkage=0.01


Tree=14
num_leaves=31
num_cat=0
split_feature=107 107 107 107 107 107 98 107 62 40 107 26 98 83 102 50 41 12 98 40 44 98 98 53 98 57 107 31 107 26
split_gain=219968 71353.8 36286.1 16644.6 6494.7 5901.08 4454.99 3723.39 2972.42 3124.94 2166.82 2080.47 1792.81 1747.89 1529.89 1500.57 2602.83 1444.95 1389.05 1278.29 1270.26 1220.6 1176.81 1097.8 1001.89 977.525 1114.93 970.69 966.81 956.289
threshold=0.090447154471544736 0.16869918699186995 0.055894308943089444 0.1239837398373984 0.029471544715447159 0.076219512195121977 0.19715447154471549 0.27032520325203263 0.067073170731707335 0.25000000000000006 0.10772357723577237 0.22560975609756104 0.059959349593495949 0.57812500000000011 0.55333333333333345 0.27857142857142864 0.3357142857142858 0.62179487179487192 0.061991869918699198 0.25000000000000006 0.076219512195121977 0.070121951219512216 0.099593495934959378 0.045731707317073184 0.067073170731707335 0.78846153846153855 0.20121951219512199 0.11363636363636365 0.14024390243902443 0.078252032520325226
decision_type=2 2 2 2 2 2 2 2 2 2 2 2 2 2 2 2 2 2 2 2 2 2 2 2 2 2 2 2 2 2
left_child=2 3 4 10 24 11 8 13 -3 14 20 18 23 19 -10 16 28 -17 -4 -8 -2 27 -19 -6 -1 26 -11 -7 -5 -20
right_child=1 6 5 15 12 21 7 -9 9 25 -12 -13 -14 -15 -16 17 -18 22 29 -21 -22 -23 -24 -25 -26 -27 -28 -29 -30 -31
leaf_value=-0.10132746190059194 0.019603061632446524 0.096435018933337668 -0.031490999192337422 0.078843908394510692 -0.073813321196656123 0.053888832579056425 0.35002309345063709 0.38371151753834321 0.3466381922635165 0.17794892892604922 0.060638589377299844 0.079779293410480026 -0.040132007442838777 0.20150326679914426 0.23118865986665088 0.12088760988332739 0.23950928335840049 0.034957976512610914 -0.022950974978516281 0.24419178409576417 0.044541258788463739 0.011343931214088047 0.094502269320189958 -0.054315398610798739 -0.048866989688249304 0.1372868796052604 0.26902013072371483 -0.011284910206523214 0.14404867064144652 -0.0054737892481788912
leaf_count=405 318 23 1003 37 435 24 21 28 22 41 567 20 615 39 24 201 22 40 767 25 571 887 195 859 40 29 20 478 59 529
internal_value=0 8.3684 -3.15023 6.31139 -6.22087 -1.20086 23.5691 28.3698 20.1574 21.9354 4.53633 -2.17718 -5.41891 25.0752 28.6404 10.9765 14.1401 10.1203 -2.26553 29.2506 3.56207 0.429173 8.43671 -6.087 -9.66119 18.5085 20.7808 -0.816903 11.8918 -1.58172
internal_count=8344 2282 6062 2010 2354 3708 272 113 159 136 1456 2319 1909 85 46 554 118 436 2299 46 889 1389 235 1294 445 90 61 502 96 1296
shrinkage=0.01


Tree=15
num_leaves=31
num_cat=0
split_feature=107 107 107 107 107 107 89 107 30 82 107 26 41 107 40 26 75 98 44 107 98 80 31 59 18 17 49 107 26 98
split_gain=215590 69933.9 35564 16313.4 6365.46 5783.65 4392.86 4574.36 2583.76 2511.43 2123.7 2039.07 1858.81 1781.34 1599.88 1486.23 2484.19 1361.41 1244.98 1234.59 1196.31 997.864 951.374 938.021 1239.72 898.188 881.456 845.264 832.339 818.85
threshold=0.090447154471544736 0.16869918699186995 0.055894308943089444 0.1239837398373984 0.029471544715447159 0.076219512195121977 0.14837398373983743 0.27032520325203263 0.72435897435897445 0.73437500000000011 0.10772357723577237 0.22560975609756104 0.4071428571428572 0.043699186991869927 0.25000000000000006 0.099593495934959378 0.3666666666666667 0.061991869918699198 0.076219512195121977 0.14024390243902443 0.070121951219512216 0.029471544715447159 0.11363636363636365 0.35000000000000003 0.51470588235294124 0.053861788617886187 0.34090909090909099 0.14430894308943096 0.086382113821138237 0.037601626016260173
decision_type=2 2 2 2 2 2 2 2 2 2 2 2 2 2 2 2 2 2 2 2 2 2 2 2 2 2 2 2 2 2
left_child=2 3 4 10 21 11 9 8 -8 14 18 17 -10 25 -3 19 -17 -4 -2 -5 22 -1 -7 24 -19 -6 -12 -18 -11 -15
right_child=1 6 5 15 13 20 7 -9 12 28 26 -13 -14 29 -16 16 27 23 -20 -21 -22 -23 -24 -25 -26 -27 -28 -29 -30 -31
leaf_value=-0.11460118848677965 0.019407031273691908 0.29371754472905937 -0.031176088923144555 0.073936879886667944 -0.076244468131833498 0.053349942564964295 0.2120613385475788 0.38110394120216373 0.3588117295045119 0.085230545090592427 0.071425234910076588 0.078981503303628409 0.23058010506629945 -0.065559486295471245 0.1822139330448643 0.22448009563528973 0.099959545272609418 -0.007363900113850832 0.044095846374442513 0.11679232396249078 0.011230491598356167 -0.083815967094452284 -0.011172060977802007 -0.019400076431189673 0.057104413194788831 -0.054790053025633098 0.046387061675245214 0.13658862678600212 0.16858651847839354 -0.041970569268337587
leaf_count=171 318 22 1003 158 381 24 97 28 26 23 309 20 20 174 31 23 144 174 571 117 887 274 478 1086 36 400 258 112 25 954
internal_value=0 8.28472 -3.11873 6.24827 -6.15866 -1.18885 23.3334 26.422 24.1333 18.1043 4.49096 -2.15541 30.3059 -5.36472 22.8498 10.8668 12.4929 -2.24287 3.52645 9.21699 0.424881 -9.56458 -0.808734 -1.5659 0.368781 -6.52563 6.00322 11.5985 12.8645 -4.56093
internal_count=8344 2282 6062 2010 2354 3708 272 171 143 101 1456 2319 46 1909 53 554 279 2299 889 275 1389 445 502 1296 210 781 567 256 48 1128
shrinkage=0.01


Tree=16
num_leaves=31
num_cat=0
split_feature=107 107 107 107 107 107 89 107 30 8 107 26 41 71 49 50 81 89 98 100 17 53 74 48 107 67 102 98 98 25
split_gain=211306 63576.3 39471.1 13501.6 8190.25 6249.3 4305.45 4483.33 2532.35 2487.91 2057.31 2042.15 1821.82 1528.4 1473.34 1460.46 2576.38 1415.27 1388.5 1198.52 1173.52 1154.31 1118.48 1103.39 1101.79 1033.38 1811.98 963.949 925.61 833.708
threshold=0.095528455284552866 0.16869918699186995 0.055894308943089444 0.1239837398373984 0.078252032520325226 0.037601626016260173 0.14837398373983743 0.27032520325203263 0.72435897435897445 0.099593495934959378 0.025406504065040653 0.076219512195121977 0.4071428571428572 0.18089430894308947 0.29545454545454547 0.27857142857142864 0.64473684210526316 0.080284552845528476 0.055894308943089444 0.54411764705882359 0.13617886178861791 0.090447154471544736 0.42187500000000006 0.67307692307692313 0.14024390243902443 0.25000000000000006 0.48666666666666675 0.076219512195121977 0.064024390243902454 0.7934782608695653
decision_type=2 2 2 2 2 2 2 2 2 2 2 2 2 2 2 2 2 2 2 2 2 2 2 2 2 2 2 2 2 2
left_child=2 3 5 14 11 10 9 8 -8 21 -1 -4 -10 18 27 16 -5 -17 -13 -11 28 -3 -6 -22 -19 26 -20 -2 -7 -26
right_child=1 6 4 15 22 20 7 -9 12 19 -12 13 -14 -15 -16 17 -18 24 25 -21 23 -23 -24 -25 29 -27 -28 -29 -30 -31
leaf_value=-0.1025926629809157 0.028394855694272199 0.079544391560554498 -0.026530577523466693 0.11150840103478088 -0.0083312641473219737 -0.054671795432360809 0.20994072572472169 0.37729290570531576 0.35522361682011527 0.28696158862113957 -0.070822395661183327 -0.032538144692583378 0.22827430558204651 0.077663170013576754 0.036361140980879253 0.051714623391628266 0.21881924877564113 0.09047081792691293 0.095203335843607781 0.1894032252886716 -0.042688464932143691 0.17886265559629963 0.01638500551003981 0.057881974741816528 0.11043253241748106 -0.010390948823235473 0.0037351892002639763 0.063581854362932344 -0.036636404885615495 0.15857908066581278
leaf_count=302 91 25 1549 88 223 980 97 28 26 20 627 229 20 20 575 55 30 208 25 34 24 22 1023 20 122 728 162 539 401 51
internal_value=0 8.8722 -2.85434 6.67209 -0.926226 -6.09707 23.1001 26.1577 23.892 17.9233 -8.11503 -1.90097 30.0028 -0.90012 4.79354 10.7581 13.8791 9.91343 -1.05163 22.5536 -4.7815 12.6034 1.19615 0.302537 10.598 -0.500484 1.59636 5.84993 -4.94349 12.4626
internal_count=8344 2031 6313 1759 3959 2354 272 171 143 101 929 2713 46 1164 1205 554 118 436 1144 54 1425 47 1246 44 381 915 187 630 1381 173
shrinkage=0.01


Tree=17
num_leaves=31
num_cat=0
split_feature=107 107 107 107 107 107 98 107 62 40 107 107 26 17 26 75 76 17 59 50 98 17 48 107 98 85 71 57 107 98
split_gain=207181 67162.9 34148.1 15696.5 6124.94 5564.45 4230.63 3508.33 2829.19 2999.73 2699.53 2016.37 1980.13 1691.01 1602.14 3079.9 1490.34 1451.56 1326.06 1207.78 1167.59 1150.17 1081.43 1040.69 986.349 976.302 1962.98 937.155 1087.62 907.648
threshold=0.090447154471544736 0.16869918699186995 0.055894308943089444 0.1158536585365854 0.037601626016260173 0.076219512195121977 0.19715447154471549 0.27032520325203263 0.067073170731707335 0.25000000000000006 0.14024390243902443 0.025406504065040653 0.22560975609756104 0.14837398373983743 0.095528455284552866 0.38000000000000006 0.25000000000000006 0.10772357723577237 0.36428571428571438 0.3357142857142858 0.067073170731707335 0.13617886178861791 0.67307692307692313 0.20528455284552852 0.059959349593495949 0.25000000000000006 0.064024390243902454 0.78846153846153855 0.20121951219512199 0.067073170731707335
decision_type=2 2 2 2 2 2 2 2 2 2 2 2 2 2 2 2 2 2 2 2 2 2 2 2 2 2 2 2 2 2
left_child=2 3 4 17 11 12 8 13 -3 16 14 -1 18 23 -5 -16 -10 19 25 -2 -7 29 -23 -8 -20 26 -4 28 -11 -6
right_child=1 6 5 10 21 20 7 -9 9 27 -12 -13 -14 -15 15 -17 -18 -19 24 -21 -22 22 -24 -25 -26 -27 -28 -29 -30 -31
leaf_value=-0.1015667367494659 0.055760208088904618 0.092869409270908518 0.10902811421524911 0.066168033754605268 -0.053238597287552807 -0.010800704343028189 0.17488288987067438 0.37255550793239045 0.34058745656694683 0.17197250610444606 0.1232908541319462 -0.070114171737641617 0.077929194562137122 0.31460141221682231 0.21484938822009347 0.09072892192274877 0.22631495590209963 0.054039946921056493 -0.03463119769235088 0.025362961286945002 0.0097826671921417557 -0.042261580005288124 0.057303158849477766 0.25750263277689617 -0.019843952866421349 -0.013835782499384434 -0.001580405222142444 0.13241412697167232 0.26192162448167799 -0.033649025748271756
leaf_count=302 164 23 21 257 1078 379 31 28 21 41 260 627 20 24 22 219 25 444 709 644 1010 24 20 30 1240 261 68 29 20 303
internal_value=0 8.12153 -3.0573 6.12584 -6.0361 -1.16622 22.8691 27.5473 19.5444 21.2791 9.7173 -8.03388 -2.11429 24.3493 8.35372 10.2059 27.8483 3.95145 -2.20048 3.15327 0.416633 -4.73369 0.299512 21.5516 -2.52232 -0.40829 2.45182 17.9215 20.1464 -4.89405
internal_count=8344 2282 6062 2010 2354 3708 272 113 159 136 758 929 2319 85 498 241 46 1252 2299 808 1389 1425 44 61 1949 350 89 90 61 1381
shrinkage=0.01


Tree=18
num_leaves=31
num_cat=0
split_feature=107 107 107 107 107 107 89 107 107 30 26 26 40 92 98 47 17 98 50 98 53 98 77 65 89 104 107 95 35 86
split_gain=203058 65826.4 33468.6 15384.2 6009.61 5453.71 4165.36 4307.11 2645.81 2459.93 2412.52 1940.73 1795.32 1697.56 1691.19 1585.32 1422.67 1299.77 1183.74 1146.05 1059.08 979.215 934.39 924.867 1220.04 907.444 904.397 856.445 805.945 1057.33
threshold=0.090447154471544736 0.16869918699186995 0.055894308943089444 0.1158536585365854 0.029471544715447159 0.076219512195121977 0.14837398373983743 0.27032520325203263 0.14024390243902443 0.72435897435897445 0.13211382113821143 0.22560975609756104 0.25000000000000006 0.54687500000000011 0.059959349593495949 0.78125000000000011 0.10772357723577237 0.061991869918699198 0.3357142857142858 0.070121951219512216 0.045731707317073184 0.067073170731707335 0.30714285714285722 0.48437500000000006 0.1239837398373984 0.42142857142857149 0.018292682926829274 0.13571428571428573 0.12703252032520329 0.19285714285714289
decision_type=2 2 2 2 2 2 2 2 2 2 2 2 2 2 2 2 2 2 2 2 2 2 2 2 2 2 2 2 2 2
left_child=2 3 4 16 21 11 10 9 15 -8 13 17 -11 -3 20 -5 18 -4 -2 22 -6 26 -7 -19 -25 -20 -1 -22 -10 -30
right_child=1 6 5 8 14 19 7 -9 28 12 -12 -13 -14 -15 -16 -17 -18 23 25 -21 27 -23 -24 24 -26 -27 -28 -29 29 -31
leaf_value=-0.12229376353047512 0.055202606058020784 0.19559716857396642 -0.030331790991803467 0.077573681404044775 -0.071244898851232974 0.030944583109833976 0.20570937615079976 0.36989758389336724 0.10978761009829385 0.36572955942153934 0.26548841580100679 0.077149901933968063 0.23970700594095085 0.10229436862545135 -0.038390253111477791 0.14477886561500397 0.053499547431480381 -0.02677263979159113 0.0052880469096057555 0.010958122953377756 0.0033344812967159134 -0.045649339497089388 -0.012735235032185878 -0.011548053258312256 0.047945172960559529 0.032218231213227984 -0.088501528828132031 -0.053892738933030232 0.21090275526046753 0.12775659773899958
leaf_count=108 164 39 1003 460 435 55 97 28 175 20 23 20 26 39 615 38 444 449 170 887 27 40 447 811 36 474 297 832 20 65
internal_value=0 8.04031 -3.02672 6.06458 -5.97574 -1.15456 22.6404 25.6479 9.62013 23.4271 17.5485 -2.09315 29.4499 14.8946 -5.20431 8.27018 3.91194 -2.17848 3.12174 0.412466 -5.85319 -9.28509 -0.79496 -1.517 -0.901942 2.51093 -9.75128 -5.2094 12.2058 14.732
internal_count=8344 2282 6062 2010 2354 3708 272 171 758 143 101 2319 46 78 1909 498 1252 2299 808 1389 1294 445 502 1296 847 644 405 859 260 85
shrinkage=0.01


Tree=19
num_leaves=31
num_cat=0
split_feature=107 107 107 107 107 107 98 107 62 40 26 107 83 76 71 49 26 84 68 98 40 107 17 77 48 67 102 98 98 8
split_gain=199059 59833.4 37141.7 12743.2 7724.33 5916.26 4088.25 3371.09 2752.83 2822.57 1979.7 1934.41 1667.83 1563.27 1472.92 1435.06 1418.07 2400.62 3597.63 1329.98 1234.3 1147.45 1124.09 1097.34 1059.98 1001.74 1774.02 971.699 932.857 899.61
threshold=0.095528455284552866 0.16869918699186995 0.055894308943089444 0.1239837398373984 0.078252032520325226 0.037601626016260173 0.19715447154471549 0.27032520325203263 0.061991869918699198 0.25000000000000006 0.076219512195121977 0.025406504065040653 0.57812500000000011 0.25000000000000006 0.18089430894308947 0.29545454545454547 0.099593495934959378 0.48666666666666675 0.27857142857142864 0.055894308943089444 0.25000000000000006 0.14024390243902443 0.13617886178861791 0.32142857142857145 0.67307692307692313 0.25000000000000006 0.48666666666666675 0.067073170731707335 0.076219512195121977 0.10365853658536588
decision_type=2 2 2 2 2 2 2 2 2 2 2 2 2 2 2 2 2 2 2 2 2 2 2 2 2 2 2 2 2 2
left_child=2 3 5 15 10 11 8 12 -3 13 -4 -1 20 -10 19 28 21 18 -18 -12 -8 -5 -7 -6 -24 26 -21 -25 -2 -11
right_child=1 6 4 16 23 22 7 -9 9 29 14 -13 -14 -15 -16 -17 17 -19 -20 25 -22 -23 24 27 -26 -27 -28 -29 -30 -31
leaf_value=-0.099586356618497157 0.027329493449939478 0.081762684761546564 -0.025871488608857601 0.07077199325861433 0.031710859455602584 -0.047944847967699544 0.33608502751304992 0.36529275655746463 0.33445834704807831 0.13857823906036523 -0.03165235563364352 -0.068779668946092443 0.19067203974112487 0.21845541623922493 0.07646448554098606 0.035095818189152458 0.28245599846045177 0.10581371559135733 0.11598427670843461 0.094344673082232475 0.23209081764221193 0.11208742663136914 -0.041407082838316754 -0.010091614232557576 0.057165319085121152 -0.010008506329453826 0.0038396950100583059 0.012713154078373732 0.061944357151137962 0.2018559534594698
leaf_count=302 91 20 1549 158 223 1381 21 28 21 39 229 627 39 26 20 575 21 224 34 25 25 117 24 246 20 728 162 777 539 53
internal_value=0 8.61126 -2.77039 6.4769 -0.900037 -5.91598 22.414 27.0128 19.1457 20.724 -1.84665 -7.87943 23.878 27.0287 -0.861224 4.65187 10.4465 12.0349 17.9546 -1.00996 27.9566 8.83498 -4.63595 1.16108 0.339855 -0.470551 1.59393 0.722931 5.69444 17.5032
internal_count=8344 2031 6313 1759 3959 2354 272 113 159 139 2713 929 85 47 1164 1205 554 279 55 1144 46 275 1425 1246 44 915 187 1023 630 92
shrinkage=0.01


Tree=20
num_leaves=31
num_cat=0
split_feature=107 107 107 107 107 107 89 107 107 30 82 107 26 41 26 75 31 17 59 50 98 17 48 85 71 98 104 98 77 62
split_gain=195130 63219.6 32137.5 14813.7 5798.52 5247.97 4023.39 4141.07 2535.12 2395.3 2360.99 1895.92 1884.52 1763.86 1544.9 2985.51 1500.55 1388.3 1289.92 1155.75 1105.34 1101.72 1038.89 950.609 1927.47 938.566 887.558 875.263 797.924 785.443
threshold=0.090447154471544736 0.16869918699186995 0.055894308943089444 0.1158536585365854 0.037601626016260173 0.076219512195121977 0.14837398373983743 0.27032520325203263 0.14024390243902443 0.72435897435897445 0.73437500000000011 0.025406504065040653 0.22560975609756104 0.4071428571428572 0.095528455284552866 0.38000000000000006 0.25000000000000006 0.10772357723577237 0.36428571428571438 0.3357142857142858 0.067073170731707335 0.13617886178861791 0.67307692307692313 0.25000000000000006 0.064024390243902454 0.059959349593495949 0.42142857142857149 0.067073170731707335 0.30714285714285722 0.043699186991869927
decision_type=2 2 2 2 2 2 2 2 2 2 2 2 2 2 2 2 2 2 2 2 2 2 2 2 2 2 2 2 2 2
left_child=2 3 4 17 11 12 10 9 14 -8 16 29 18 -11 -5 -16 -3 19 23 -2 28 27 -23 24 -4 -20 -21 -6 -7 -1
right_child=1 6 5 8 21 20 7 -9 -10 13 -12 -13 -14 -15 15 -17 -18 -19 25 26 -22 22 -24 -25 -26 -27 -28 -29 -30 -31
leaf_value=-0.11261091960377473 0.054226167055482909 0.28354973429725283 0.10826745935848781 0.064075565802563961 -0.051686098593527352 0.030585268705728509 0.20149687928022797 0.36266750165394379 0.11965563527018262 0.34342314169957083 0.12105035992649694 -0.06809187065435654 0.076118423655629167 0.21850953209400178 0.21036812348799275 0.088164396461558672 0.17476242099888623 0.052537572521481425 -0.033724394627598513 0.0048879184573888783 0.0095114866186597272 -0.040993012761076288 0.056593664199113845 -0.013320565568532981 -0.0013361111217561892 -0.019299771236360914 0.031521384575038766 -0.032449183421510673 -0.015638004656251002 -0.08004038884447745
leaf_count=172 164 21 21 257 1078 42 97 28 260 26 48 627 20 20 22 219 32 444 709 170 1010 24 20 261 68 1240 474 303 337 130
internal_value=0 7.88178 -2.96705 5.94556 -5.85682 -1.13249 22.1899 25.1457 9.43456 22.9681 17.1855 -7.80064 -2.05321 28.9113 8.11316 9.93199 21.7867 3.83322 -2.13729 3.05262 0.404692 -4.58959 0.336457 -0.369688 2.45254 -2.45471 2.44908 -4.74654 -1.05156 -9.85905
internal_count=8344 2282 6062 2010 2354 3708 272 171 758 143 101 929 2319 46 498 241 53 1252 2299 808 1389 1425 44 350 89 1949 644 1381 379 302
shrinkage=0.01


Tree=21
num_leaves=31
num_cat=0
split_feature=107 107 107 107 107 107 98 107 62 40 26 107 63 76 49 50 41 12 71 98 107 74 17 48 14 98 8 53 98 89
split_gain=191271 57465.3 35669 12258.7 7427.81 5683.13 3947.86 3243.75 2673.45 2738.08 1938.13 1858.19 1799.57 1525.41 1400.78 1390.96 2568.11 1389.62 1251.82 1120.14 1087.5 1080.38 1079.8 1018.22 956.564 907.712 872.046 973.185 860.473 805.65
threshold=0.095528455284552866 0.16869918699186995 0.055894308943089444 0.1239837398373984 0.078252032520325226 0.037601626016260173 0.19715447154471549 0.25406504065040658 0.061991869918699198 0.25000000000000006 0.095528455284552866 0.025406504065040653 0.625 0.25000000000000006 0.29545454545454547 0.27857142857142864 0.3357142857142858 0.62179487179487192 0.16463414634146348 0.099593495934959378 0.064024390243902454 0.42187500000000006 0.13617886178861791 0.67307692307692313 0.15000000000000002 0.076219512195121977 0.10365853658536588 0.1199186991869919 0.064024390243902454 0.070121951219512216
decision_type=2 2 2 2 2 2 2 2 2 2 2 2 2 2 2 2 2 2 2 2 2 2 2 2 2 2 2 2 2 2
left_child=2 3 5 14 10 11 8 12 -3 13 20 -1 -8 -10 25 16 24 -17 -12 -19 -4 -6 28 -24 -5 -2 -11 -28 -7 -16
right_child=1 6 4 15 21 22 7 -9 9 26 18 -13 -14 -15 29 17 -18 19 -20 -21 -22 -23 23 -25 -26 -27 27 -29 -30 -31
leaf_value=-0.097604588229603911 0.026681657499828183 0.079461548678576951 -0.032834914884463016 0.066938830320582246 -0.0085599013324409324 -0.052040041720722706 0.19618733372953201 0.34014133340434022 0.32860238938104536 0.13550318922751989 -0.0054802920006300649 -0.067410952005493782 0.30528322946457637 0.21401250270696787 0.0081939080623643738 0.11348860679852281 0.23033815849911082 0.029469408884644509 0.071294024017724125 0.087562162073472366 -0.01757639587799004 0.015731701009259545 -0.040583081499983867 0.056027727156877517 0.13339958744337929 0.060826827146264972 0.2507002305984497 0.16309076793491842 -0.034650819644870753 0.039673919331788064
leaf_count=302 91 20 709 33 223 980 54 38 21 39 613 627 21 26 98 201 22 40 22 195 1369 1023 24 20 63 539 21 32 401 477
internal_value=0 8.44112 -2.71565 6.34942 -0.882756 -5.79825 21.968 26.4871 18.7563 20.3117 -1.81102 -7.72263 22.6734 26.5212 4.55943 10.2428 13.2886 9.41849 -0.282039 7.7674 -2.27825 1.13842 -4.5437 0.333092 11.0554 5.58947 17.1394 19.7804 -4.69907 3.43086
internal_count=8344 2031 6313 1759 3959 2354 272 113 159 139 2713 929 75 47 1205 554 118 436 635 235 2078 1246 1425 44 96 630 92 53 1381 575
shrinkage=0.01


Tree=22
num_leaves=31
num_cat=0
split_feature=107 107 107 107 107 107 107 102 57 106 107 40 26 107 47 17 17 59 50 98 17 48 85 71 31 98 104 21 98 98
split_gain=187518 60729.5 30858.1 13258.7 5570.04 5045.32 4608.85 3020.07 2796.92 2122.01 2069.1 1933.71 1832.94 1821.21 1523.57 1353.09 1335.99 1261.68 1128.89 1080.5 1058.31 997.954 928.804 1891.72 927.14 914.972 868.183 865.477 843.663 773.853
threshold=0.090447154471544736 0.16463414634146348 0.055894308943089444 0.1158536585365854 0.037601626016260173 0.076219512195121977 0.20121951219512199 0.76333333333333342 0.41346153846153849 0.43750000000000006 0.14024390243902443 0.25000000000000006 0.22560975609756104 0.025406504065040653 0.78125000000000011 0.10772357723577237 0.14837398373983743 0.36428571428571438 0.3357142857142858 0.070121951219512216 0.13617886178861791 0.67307692307692313 0.25000000000000006 0.064024390243902454 0.11363636363636365 0.059959349593495949 0.42142857142857149 0.86217948717948723 0.067073170731707335 0.067073170731707335
decision_type=2 2 2 2 2 2 2 2 2 2 2 2 2 2 2 2 2 2 2 2 2 2 2 2 2 2 2 2 2 2
left_child=2 3 4 15 13 12 11 8 -8 -10 14 16 17 29 -5 18 -3 22 -2 24 28 -22 23 -4 -7 -19 -20 -12 -6 -1
right_child=1 6 5 10 20 19 7 -9 9 -11 27 -13 -14 -15 -16 -17 -18 25 26 -21 21 -23 -24 -25 -26 -27 -28 -29 -30 -31
leaf_value=-0.1018458130236565 0.053282394952526901 0.185133823081851 0.10737384003187929 0.074509561897134008 -0.050664645304215696 0.052888689450919631 0.19364567706982297 0.18048301315621326 0.37034509065988902 0.25818284765366584 0.12477952289273134 0.15259578903691959 0.075181716468185181 -0.066736842503910807 0.14039286728360151 0.051589846112639517 0.28778279758635023 -0.033166672264098362 0.0045068158933290227 0.010597984384274974 -0.040177251075704891 0.055467452347278602 -0.01299743191792248 -0.0012086093907847126 -0.010806260789027555 -0.018924514966175681 0.030847983677411761 0.076031062457296586 -0.031778184293704756 -0.04751423230458951
leaf_count=273 164 32 21 460 1078 24 24 38 37 31 191 113 20 627 38 444 21 709 170 887 24 20 261 68 478 1240 474 45 303 29
internal_value=0 7.72652 -2.9086 5.73494 -5.74027 -1.11093 21.089 25.5479 28.6456 31.9212 9.10948 17.597 -2.0137 -7.64541 7.95368 3.75657 22.5806 -2.09662 2.98594 0.396281 -4.49826 0.329761 -0.348476 2.4412 -0.776108 -2.41055 2.38946 11.5484 -4.65208 -9.66285
internal_count=8344 2282 6062 1986 2354 3708 296 130 92 68 734 166 2319 929 498 1252 53 2299 808 1389 1425 44 350 89 502 1949 644 236 1381 302
shrinkage=0.01


Tree=23
num_leaves=31
num_cat=0
split_feature=107 107 107 107 107 107 89 30 82 107 26 98 31 71 49 26 84 68 98 107 77 53 67 102 98 98 98 107 95 27
split_gain=183787 55219.5 34254.8 11781.3 7142.29 5465.45 3877.96 3933.39 2273.21 1925.23 1893.43 1584.79 1439.74 1400.23 1369.55 1359.23 2329.77 3495.98 1274.29 1067.86 1056.7 1021.19 968.145 1736.9 942.966 916.357 884.105 854.073 831.897 797.209
threshold=0.095528455284552866 0.16869918699186995 0.055894308943089444 0.1239837398373984 0.078252032520325226 0.029471544715447159 0.14837398373983743 0.77243589743589758 0.73437500000000011 0.22967479674796751 0.076219512195121977 0.059959349593495949 0.25000000000000006 0.18089430894308947 0.29545454545454547 0.099593495934959378 0.48666666666666675 0.27857142857142864 0.055894308943089444 0.14024390243902443 0.32142857142857145 0.045731707317073184 0.25000000000000006 0.48666666666666675 0.067073170731707335 0.067073170731707335 0.076219512195121977 0.018292682926829274 0.13571428571428573 0.24999999999999992
decision_type=2 2 2 2 2 2 2 2 2 2 2 2 2 2 2 2 2 2 2 2 2 2 2 2 2 2 2 2 2 2
left_child=2 3 5 14 10 24 8 9 12 -8 -4 21 -3 18 26 19 17 -17 -12 -5 -6 -7 23 -20 27 -22 -2 -1 -23 -28
right_child=1 6 4 15 20 11 7 -9 -10 -11 13 -13 -14 -15 -16 16 -18 -19 22 -21 25 28 -24 -25 -26 -27 29 -29 -30 -31
leaf_value=-0.1170448198583391 0.026045597382299196 0.27569794791085378 -0.025002378307492155 0.06767313263272938 0.030885729105483258 -0.068236838492040319 0.19490492771690091 0.3325959260035784 0.11636006617918611 0.28065633032057025 -0.030670182708362078 -0.036255545350109657 0.16913781410083176 0.074827707588672632 0.03353214584880549 0.27572118790376754 0.10163937458735225 0.11161802000859204 0.093582976090162986 0.10752982930909109 -0.0099586418570905208 0.0051967566101639362 -0.0095069483218273715 0.0040297420240110824 -0.042068710260093213 0.01218719528218494 0.096191154734955903 -0.084206203816314343 -0.051204371493524657 0.055685768572786419
leaf_count=108 91 21 1549 158 223 435 96 39 48 36 229 615 32 20 575 21 224 34 25 117 246 27 728 162 40 777 54 297 832 485
internal_value=0 8.27434 -2.662 6.22392 -0.865803 -5.68287 21.5342 24.4361 16.6211 21.8292 -1.77605 -4.94719 21.136 -0.812335 4.46913 10.0407 11.5958 17.4276 -0.957355 8.46303 1.11614 -5.57533 -0.429362 1.60021 -8.83884 0.68618 5.48763 -9.29632 -4.94316 5.97438
internal_count=8344 2031 6313 1759 3959 2354 272 171 101 132 2713 1909 53 1164 1205 554 279 55 1144 275 1246 1294 915 187 445 1023 630 405 859 539
shrinkage=0.01


Tree=24
num_leaves=31
num_cat=0
split_feature=107 107 107 107 107 107 44 30 107 89 53 75 78 26 107 26 75 17 59 26 62 50 98 17 48 86 59 98 23 104
split_gain=180196 58339 29630.7 13724.7 5380 4854.93 3806.46 3838.28 2340.99 2214.32 2473.59 2091.63 1963.61 1779.76 1747.02 1482.57 2893.68 1321.19 1232.23 1124.08 1684.9 1100.6 1041.67 1034.24 978.143 910.098 1844.44 885.534 882.705 848.982
threshold=0.090447154471544736 0.16869918699186995 0.055894308943089444 0.1158536585365854 0.037601626016260173 0.076219512195121977 0.076219512195121977 0.72435897435897445 0.14024390243902443 0.15243902439024395 0.14837398373983743 0.71333333333333349 0.84042553191489378 0.22560975609756104 0.025406504065040653 0.095528455284552866 0.38000000000000006 0.10772357723577237 0.36428571428571438 0.11483739837398375 0.1239837398373984 0.3357142857142858 0.067073170731707335 0.13617886178861791 0.67307692307692313 0.46428571428571436 0.30714285714285722 0.059959349593495949 0.25000000000000006 0.42142857142857149
decision_type=2 2 2 2 2 2 2 2 2 2 2 2 2 2 2 2 2 2 2 2 2 2 2 2 2 2 2 2 2 2
left_child=2 3 4 17 14 13 11 12 15 -9 -11 -3 -8 18 -1 -5 -17 21 25 28 -21 -2 -7 -6 -25 -4 -27 -20 -14 -23
right_child=1 6 5 8 23 22 7 9 -10 10 -12 -13 19 -15 -16 16 -18 -19 27 20 -22 29 -24 24 -26 26 -28 -29 -30 -31
leaf_value=-0.094743221821571827 0.052322415015319493 0.20556726818992979 -0.012213188563664653 0.061318642062058948 -0.045574651006191083 -0.0102489319732683 0.28043918808301288 0.21760714143514634 0.11504680624604224 0.39525220603942873 0.25839964662279402 0.071385117975565099 0.19557341987436469 0.0741730434615165 -0.065466685287499923 0.2051717776872895 0.084862133072270293 0.050667636573717402 -0.032586438622068198 0.28275691929317659 0.17305268883705138 0.0041330868492231651 0.0091928873619451963 -0.039367039793481433 0.055323573499917983 -0.0010780964503365178 0.10936250972747803 -0.018575260258475019 0.11274994209889443 0.030181344060054374
leaf_count=302 164 21 268 257 1381 379 24 32 260 25 28 26 22 20 627 22 219 444 709 21 42 170 1010 24 20 62 20 1240 31 474
internal_value=0 7.57418 -2.85125 5.71421 -5.62604 -1.0897 21.3189 23.0286 9.07251 28.3293 32.2953 13.1339 19.8104 -1.97526 -7.49839 7.80271 9.58448 3.68098 -2.05697 18.1069 20.9621 2.91949 0.388803 -4.4054 0.367415 -0.32935 2.58586 -2.36722 14.7129 2.33053
internal_count=8344 2282 6062 2010 2354 3708 272 225 758 85 53 47 140 2319 929 498 241 1252 2299 116 63 808 1389 1425 44 350 82 1949 53 644
shrinkage=0.01


Tree=25
num_leaves=31
num_cat=0
split_feature=107 107 107 107 107 107 107 98 104 107 40 71 107 47 107 98 17 17 50 98 17 85 71 48 31 74 104 98 62 107
split_gain=176610 57186.8 29041.1 12509.4 5272.94 4758.31 4394.55 2923.53 2362.8 1939.24 1874.09 1745.76 1712.26 1467.9 1387.48 1315.39 1294.9 1280.33 1078.69 1023.96 1013.66 1007.65 3670.46 958.678 906.098 849.576 832.088 813.51 757.957 715.886
threshold=0.090447154471544736 0.16463414634146348 0.055894308943089444 0.1158536585365854 0.037601626016260173 0.076219512195121977 0.20121951219512199 0.14430894308943096 0.27857142857142864 0.14024390243902443 0.25000000000000006 0.17276422764227647 0.025406504065040653 0.78125000000000011 0.25813008130081311 0.076219512195121977 0.10772357723577237 0.14837398373983743 0.3357142857142858 0.070121951219512216 0.13617886178861791 0.25000000000000006 0.059959349593495949 0.67307692307692313 0.11363636363636365 0.57812500000000011 0.42142857142857149 0.067073170731707335 0.043699186991869927 0.18089430894308947
decision_type=2 2 2 2 2 2 2 2 2 2 2 2 2 2 2 2 2 2 2 2 2 2 2 2 2 2 2 2 2 2
left_child=2 3 4 16 12 11 10 -8 -9 13 17 15 28 -5 -10 -4 18 -3 -2 24 27 22 -17 -22 -7 -11 -20 -6 -1 -12
right_child=1 6 5 9 20 19 7 8 14 25 29 -13 -14 -15 -16 21 -18 -19 26 -21 23 -23 -24 -25 -26 -27 -28 -29 -30 -31
leaf_value=-0.10756872125143228 0.051799190787643924 0.17980052284896375 -0.02524834385807646 0.072312260439781395 -0.049187987578640985 0.052393725340565044 0.1401530515012287 0.34456164105733239 0.20840094738006593 0.093862175781552384 0.12668781965970993 0.071207667943977176 -0.064812017656399309 0.13698060132170978 0.29534555418738001 0.14041052914597094 0.050160960493324039 0.28028838293892994 0.0040917560569941995 0.010308370160198406 -0.038973368965089322 -0.015123698300475838 -0.0052598084759665651 0.054770338147878642 -0.010574283000299996 0.13184308434218431 0.029879530326577242 -0.030642100635288966 -0.075573143243789678 0.17792024627975797
leaf_count=172 164 32 1626 460 1078 24 21 30 50 123 67 21 627 38 29 20 444 21 170 887 24 524 128 20 478 113 474 303 130 46
internal_value=0 7.49844 -2.82274 5.56582 -5.56978 -1.0788 20.4653 24.8193 26.9008 8.84363 17.0555 -1.95551 -7.42341 7.72468 24.0317 -2.03845 3.64417 21.9616 2.89029 0.384915 -4.36134 -0.861587 1.44254 0.363741 -0.756386 11.2048 2.30722 -4.51189 -9.37958 14.7543
internal_count=8344 2282 6062 1986 2354 3708 296 130 109 734 166 2319 929 498 79 2298 1252 53 808 1389 1425 672 148 44 502 236 644 1381 302 113
shrinkage=0.01


Tree=26
num_leaves=31
num_cat=0
split_feature=107 107 107 107 107 107 89 107 30 26 26 41 62 92 49 50 41 89 71 74 107 17 104 107 48 14 98 107 25 98
split_gain=173132 51985.5 32233.8 11115.7 6737.47 5168.01 3710.74 3786.96 2211.84 2203.41 1840.67 1688.31 1683.06 1590.22 1333.62 1329.58 2534.88 1346.43 1171.76 1045.77 1033.04 993.49 972.068 955.49 939.6 934.641 854.963 821.274 1223.71 799.863
threshold=0.095528455284552866 0.16869918699186995 0.055894308943089444 0.1239837398373984 0.078252032520325226 0.037601626016260173 0.14837398373983743 0.27032520325203263 0.72435897435897445 0.13211382113821143 0.095528455284552866 0.4071428571428572 0.043699186991869927 0.54687500000000011 0.29545454545454547 0.27857142857142864 0.3357142857142858 0.080284552845528476 0.16463414634146348 0.42187500000000006 0.064024390243902454 0.13617886178861791 0.1785714285714286 0.018292682926829274 0.67307692307692313 0.15000000000000002 0.076219512195121977 0.14024390243902443 0.7934782608695653 0.064024390243902454
decision_type=2 2 2 2 2 2 2 2 2 2 2 2 2 2 2 2 2 2 2 2 2 2 2 2 2 2 2 2 2 2
left_child=2 3 5 14 10 12 9 8 -8 13 20 -10 23 -3 26 16 25 -17 -12 -6 -4 29 -19 -1 -23 -5 -2 -24 -29 -7
right_child=1 6 4 15 19 21 7 -9 11 -11 18 -13 -14 -15 -16 17 -18 22 -20 -21 -22 24 27 -25 -26 -27 -28 28 -30 -31
leaf_value=-0.12005295687913896 0.025068242216974006 0.18069575598606696 -0.031604323051291898 0.061967371169364814 -0.0087852656988285059 -0.049535933658708724 0.1894456383678102 0.34370233740125389 0.32677376343653758 0.24692061724870101 -0.0049265113984938063 0.20456474971771241 -0.061966345941286478 0.090390755045108295 0.032357529545595627 0.043177443303845146 0.22408661199225621 0.13720352385044099 0.069352112751115455 0.015114175291005467 -0.016732763481361098 -0.038583635709558924 0.07616014884348879 -0.081327896486170378 0.054222633659839634 0.12766212168903579 0.058206445737456793 0.088136178379764354 0.15112860722011989 -0.032770325625895935
leaf_count=80 91 39 709 33 223 980 97 28 26 23 613 20 536 39 575 55 22 50 22 1023 1369 24 188 313 20 63 539 98 45 401
internal_value=0 8.0309 -2.58368 6.04143 -0.841276 -5.51408 20.8966 23.7353 21.6529 16.0906 -1.72535 27.3639 -7.34917 13.5543 4.33693 9.74887 12.7267 8.94293 -0.235308 1.08368 -2.18068 -4.31773 9.61061 -8.92109 0.360103 10.508 5.34198 8.9898 10.7959 -4.46677
internal_count=8344 2031 6313 1759 3959 2354 272 171 143 101 2713 46 929 78 1205 554 118 436 635 1246 2078 1425 381 393 44 96 630 331 143 1381
shrinkage=0.01


Tree=27
num_leaves=31
num_cat=0
split_feature=107 107 107 107 107 107 44 30 89 89 53 75 78 98 107 17 10 79 77 26 62 49 65 85 71 26 32 23 89 98
split_gain=169792 42422.1 39081.7 8749.12 7236.92 6925.85 3661.06 3686.95 2912.34 2095.65 2402.72 2029.32 1893.23 1757.53 1661.31 1497.73 1303.71 2890.39 1090.2 1079.55 1634.66 1045.49 902.475 1179.6 1099.1 887.629 868.366 860.176 744.159 737.138
threshold=0.10365853658536588 0.16869918699186995 0.064024390243902454 0.037601626016260173 0.086382113821138237 0.1239837398373984 0.076219512195121977 0.72435897435897445 0.1239837398373984 0.15243902439024395 0.14837398373983743 0.71333333333333349 0.84042553191489378 0.082317073170731739 0.025406504065040653 0.053861788617886187 0.76388888888888895 0.34375000000000006 0.29285714285714287 0.11483739837398375 0.1239837398373984 0.34090909090909099 0.45312500000000006 0.25000000000000006 0.067073170731707335 0.1199186991869919 0.36428571428571438 0.25000000000000006 0.059959349593495949 0.064024390243902454
decision_type=2 2 2 2 2 2 2 2 2 2 2 2 2 2 2 2 2 2 2 2 2 2 2 2 2 2 2 2 2 2
left_child=2 5 3 14 13 21 11 12 15 -9 -11 -3 -8 18 -1 -5 17 -7 -4 27 -21 -2 -15 24 -24 -6 -19 -14 -17 -20
right_child=1 6 4 8 25 16 7 9 -10 10 -12 -13 19 22 -16 28 -18 26 29 20 -22 -23 23 -25 -26 -27 -28 -29 -30 -31
leaf_value=-0.092025314973426725 0.060881623542554116 0.19971966675349645 0.011329049246555025 -0.04865863392610837 0.01862827677239693 0.22550936159633456 0.27294905106226602 0.21169420838356018 0.054088379206202387 0.38543427429199223 0.25055645108222963 0.067551175883183115 0.18993734208020296 -0.010841954994702896 -0.063475988830485802 -0.039137498777194211 0.082347044175285156 0.076311657302081587 -0.023460267234453665 0.27539410125641595 0.16733780236471268 0.037310670183811866 0.098879938864707959 0.003956603106757826 0.024748153688758611 0.040591097481487211 0.11692361091251498 0.10817762056185354 -0.024880476249175831 -0.0098111051949319635
leaf_count=302 407 21 165 819 768 21 24 32 35 25 28 26 22 233 627 709 299 80 692 21 42 350 25 363 100 242 154 31 757 924
internal_value=0 9.32259 -2.18276 -4.68244 0.12972 6.96462 20.6877 22.3645 -3.64402 27.5596 31.4178 12.6605 19.2103 -0.782326 -7.27568 -3.78269 9.65138 11.3125 -1.31559 17.5376 20.3357 4.99836 0.534936 1.308 3.95745 2.38907 10.3039 14.2116 -3.17756 -1.56559
internal_count=8344 1583 6761 3249 3512 1311 272 225 2320 85 53 47 140 2502 929 2285 554 255 1781 116 63 757 721 488 125 1010 234 53 1466 1616
shrinkage=0.01


Tree=28
num_leaves=31
num_cat=0
split_feature=107 107 107 107 107 107 44 30 107 89 53 75 78 26 35 89 104 50 41 12 89 26 62 49 17 98 44 17 14 26
split_gain=166413 41577.9 38303.9 8589.87 7092.91 6788.03 3588.21 3613.58 2281.63 2053.94 2354.91 1988.94 1855.55 1734.59 1614.63 1575.72 1436.84 1303.84 2475.83 1323.56 1078.95 1058.07 1602.13 1024.69 1019.88 1013.38 1096.7 1000.74 913.862 869.965
threshold=0.10365853658536588 0.16869918699186995 0.064024390243902454 0.043699186991869927 0.086382113821138237 0.1239837398373984 0.076219512195121977 0.72435897435897445 0.025406504065040653 0.15243902439024395 0.14837398373983743 0.71333333333333349 0.84042553191489378 0.076219512195121977 0.084349593495934974 0.11178861788617889 0.23571428571428574 0.27857142857142864 0.3357142857142858 0.62179487179487192 0.080284552845528476 0.11483739837398375 0.1239837398373984 0.34090909090909099 0.053861788617886187 0.082317073170731739 0.059959349593495949 0.076219512195121977 0.15000000000000002 0.1199186991869919
decision_type=2 2 2 2 2 2 2 2 2 2 2 2 2 2 2 2 2 2 2 2 2 2 2 2 2 2 2 2 2 2
left_child=2 5 3 8 13 23 11 12 -1 -9 -11 -3 -8 -4 -5 -16 27 18 28 -19 -21 -14 -23 -2 -10 -18 -27 -15 -7 -6
right_child=1 6 4 14 29 17 7 9 24 10 -12 -13 21 16 15 -17 25 19 -20 20 -22 22 -24 -25 -26 26 -28 -29 -30 -31
leaf_value=-0.091105060959543224 0.060272807118732306 0.1977224674678984 -0.015815715851709825 -0.03904141751199261 0.018441994070308283 0.060479526871984657 0.27021956046422324 0.20957726612687111 -0.069927098455860981 0.38157993011474611 0.24805088809558323 0.066875666494552913 0.14069446418645248 0.093319399080106197 -0.0221558916478347 0.068319191366434093 -0.010260754664091671 0.10640695292484108 0.22072252390059557 0.024143939642235636 0.081158738763859636 0.27264016071955366 0.16566442574773516 0.036937563674790515 -0.048915024626749591 0.075794481672346592 0.0057516189854866341 0.019148916701430124 0.12543994008193887 0.040185186438077738
leaf_count=302 407 21 1290 1490 768 33 24 32 463 25 28 26 53 21 513 20 705 201 22 40 195 21 42 350 461 24 326 136 63 242
internal_value=0 9.22937 -2.16094 -4.63561 0.128423 6.89498 20.4808 22.1408 -6.72429 27.284 31.1036 12.5339 19.0182 -0.774502 -3.36981 -1.8761 0.0845069 9.55486 12.5038 8.75677 7.14541 17.3622 20.1323 4.94837 -5.94438 -0.33552 1.05546 2.90698 10.311 2.36517
internal_count=8344 1583 6761 3249 3512 1311 272 225 1226 85 53 47 140 2502 2023 533 1212 554 118 436 235 116 63 757 924 1055 350 157 96 1010
shrinkage=0.01


Tree=29
num_leaves=31
num_cat=0
split_feature=107 107 107 107 107 107 107 102 57 106 40 107 26 98 26 75 17 17 59 50 86 53 98 86 59 21 98 104 98 95
split_gain=163167 52793.4 26864.7 11594 4879.13 4422.04 4117.88 2830.75 2620.6 2045.15 1810.25 1802.54 1703.41 1472.75 1437.09 2820.68 1239.31 1212.72 1178.02 1052.75 985.204 970.329 916.966 895.963 1798.79 832.222 825.613 813.956 806.003 805.592
threshold=0.090447154471544736 0.16463414634146348 0.055894308943089444 0.1158536585365854 0.029471544715447159 0.076219512195121977 0.20121951219512199 0.76333333333333342 0.41346153846153849 0.43750000000000006 0.25000000000000006 0.14024390243902443 0.22560975609756104 0.059959349593495949 0.095528455284552866 0.38000000000000006 0.10772357723577237 0.14837398373983743 0.36428571428571438 0.3357142857142858 0.3357142857142858 0.045731707317073184 0.067073170731707335 0.46428571428571436 0.30714285714285722 0.86217948717948723 0.059959349593495949 0.42142857142857149 0.067073170731707335 0.13571428571428573
decision_type=2 2 2 2 2 2 2 2 2 2 2 2 2 2 2 2 2 2 2 2 2 2 2 2 2 2 2 2 2 2
left_child=2 3 4 16 22 12 10 8 -8 -10 17 14 18 21 -5 -16 19 -3 23 -2 -7 -6 -1 -4 -25 -13 -20 -21 -22 -23
right_child=1 6 5 11 13 20 7 -9 9 -11 -12 25 -14 -15 15 -17 -18 -19 26 27 28 29 -24 24 -26 -27 -28 -29 -30 -31
leaf_value=-0.087882938079443973 0.050249067855680861 0.17312306143343448 -0.01156787468412363 0.057822982769836363 -0.064825804396350495 0.022657413195980632 0.17896259083470795 0.1662021458462665 0.35070499433053509 0.24059276611574235 0.14103882668424497 0.11694012963959059 0.073078769821673634 -0.033861206631486611 0.19975459631871093 0.080972121396106267 0.048426554406498061 0.27092180887858075 -0.031250442760157149 0.003097191702355357 -0.012996808883152661 0.0072628798052944525 -0.037695021208375694 -0.0003941374296142209 0.10867116743326188 0.069137390110227792 -0.01772161297956782 0.028602447570281946 0.0053508308949459446 -0.048239376458693119
leaf_count=405 164 32 268 257 435 230 24 38 37 31 113 191 20 615 22 219 444 21 709 170 338 27 40 62 20 45 1240 474 821 832
internal_value=0 7.20741 -2.71318 5.35051 -5.35528 -1.03586 19.6662 23.881 26.88 30.0507 16.3655 8.5061 -1.88103 -4.66018 7.42731 9.18153 3.5005 21.1874 -1.96096 2.76299 0.375185 -5.26571 -8.33717 -0.271772 2.62072 10.7825 -2.26431 2.18697 9.55671e-06 -4.64948
internal_count=8344 2282 6062 1986 2354 3708 296 130 92 68 166 734 2319 1909 498 241 1252 53 2299 808 1389 1294 445 350 82 236 1949 644 1159 859
shrinkage=0.01


Tree=30
num_leaves=31
num_cat=0
split_feature=107 107 107 107 107 107 89 30 107 82 107 107 35 89 42 50 41 12 98 26 49 17 86 14 67 102 44 26 62 39
split_gain=159947 39943.3 36818.5 8276.04 6810.03 6519.21 3528.66 3588.23 2196.76 2136.01 1813.85 1731.96 1571.56 1539.39 1391.63 1271.55 2432.7 1290.55 1055.22 1042.93 999.953 990.903 985.788 897.365 835.622 1964.15 797.321 748.106 721.207 719.643
threshold=0.10365853658536588 0.16869918699186995 0.064024390243902454 0.043699186991869927 0.078252032520325226 0.1239837398373984 0.14837398373983743 0.77243589743589758 0.025406504065040653 0.73437500000000011 0.090447154471544736 0.22967479674796751 0.084349593495934974 0.11178861788617889 0.91935483870967749 0.27857142857142864 0.3357142857142858 0.62179487179487192 0.099593495934959378 0.076219512195121977 0.34090909090909099 0.053861788617886187 0.29285714285714287 0.15000000000000002 0.25000000000000006 0.48666666666666675 0.12703252032520329 0.11483739837398375 0.043699186991869927 0.66025641025641035
decision_type=2 2 2 2 2 2 2 2 2 2 2 2 2 2 2 2 2 2 2 2 2 2 2 2 2 2 2 2 2 2
left_child=2 5 3 8 19 20 9 11 28 14 22 -8 -5 -14 -3 16 23 -17 -19 -4 -2 -10 -6 -7 25 -21 -23 -12 -1 -25
right_child=1 6 4 12 10 15 7 -9 21 -11 27 -13 13 -15 -16 17 -18 18 -20 24 -22 26 -24 29 -26 -27 -28 -29 -30 -31
leaf_value=-0.10279825886148354 0.059183783392142732 0.26348317718505859 -0.019047398033266317 -0.038294463886210585 0.031508825241673921 0.058811166362103186 0.18136314468768736 0.31271887118999775 -0.068629869385974457 0.10557377061496177 0.021824843762804851 0.26269648485713537 -0.021641902263997009 0.067784212483093145 0.15777019479058005 0.10439067661354495 0.21763882769779727 0.02308948056213558 0.079473679965791785 0.097774239148199563 0.03613189619438989 -0.050791506055403841 0.0029681181405568431 0.084156238193865182 -0.0089886164275289043 0.0017991981896860847 0.01227970838546753 0.045275384472028633 -0.071587991642264218 0.15245228262825145
leaf_count=172 407 20 998 1490 141 33 96 39 463 48 514 36 513 20 33 201 22 40 195 25 350 440 854 27 650 145 21 185 130 36
internal_value=0 9.04829 -2.11854 -4.54476 0.12599 6.76024 20.0763 22.8444 -6.59492 15.3897 1.56856 20.3545 -3.30229 -1.82863 19.7662 9.36693 12.2791 8.57878 6.98764 -1.21819 4.85257 -5.82966 0.701258 10.1055 -0.382605 1.59132 -4.79184 2.80314 -8.93634 12.3183
internal_count=8344 1583 6761 3249 3512 1311 272 171 1226 101 1694 132 2023 533 53 554 118 436 235 1818 757 924 995 96 820 170 461 699 302 63
shrinkage=0.01


Tree=31
num_leaves=31
num_cat=0
split_feature=107 107 107 107 107 107 89 107 89 82 30 107 40 62 17 107 26 84 68 26 49 86 107 107 98 71 98 26 89 44
split_gain=156764 39148.4 36085.8 8117.96 6674.51 6389.48 3458.44 3530.21 2782.88 2093.5 2023.81 1777.76 1642.26 1588.59 1426.56 1372.64 1263.25 2241.22 3354.18 1022.18 980.054 966.17 949.505 896.967 829.482 1528.75 753.315 733.219 714.046 709.349
threshold=0.10365853658536588 0.16869918699186995 0.064024390243902454 0.037601626016260173 0.078252032520325226 0.1239837398373984 0.14837398373983743 0.27032520325203263 0.1239837398373984 0.73437500000000011 0.72435897435897445 0.090447154471544736 0.25000000000000006 0.043699186991869927 0.053861788617886187 0.19715447154471549 0.099593495934959378 0.48666666666666675 0.27857142857142864 0.076219512195121977 0.34090909090909099 0.29285714285714287 0.14024390243902443 0.018292682926829274 0.082317073170731739 0.059959349593495949 0.067073170731707335 0.11483739837398375 0.059959349593495949 0.16869918699186995
decision_type=2 2 2 2 2 2 2 2 2 2 2 2 2 2 2 2 2 2 2 2 2 2 2 2 2 2 2 2 2 2
left_child=2 5 3 13 19 20 9 10 14 15 -8 21 -12 23 -5 -3 22 18 -18 -4 -2 -6 -7 -1 -21 -26 -15 -13 -16 -30
right_child=1 6 4 8 11 16 7 -9 -10 -11 12 27 -14 26 28 -17 17 -19 -20 24 -22 -23 -24 -25 25 -27 -28 -29 29 -31
leaf_value=-0.11512685644626619 0.058591945070215028 0.15281357203760457 -0.018856923861171535 -0.046917259288401375 0.031193737348554827 0.06153279733761579 0.18014787616803474 0.32884106022971021 0.053503201867852894 0.1045180325768888 0.32880948591232295 0.021606595331752229 0.20827878090051508 -0.063445342490288978 -0.037651617760823881 0.25609538316726688 0.26428953238895964 0.093680234069137697 0.10354898018899428 -0.010048457453690799 0.035770577251049693 0.0029384367784760037 0.099115967458894116 -0.077606462968376505 0.083041093658517903 0.0029234724756477789 -0.028680094782159559 0.044822629881166927 -0.025280681926115156 0.035076550424098969
leaf_count=80 407 31 998 819 141 158 97 28 35 48 20 514 26 464 709 22 21 224 34 591 350 854 117 313 27 202 72 185 737 20
internal_value=0 8.9578 -2.09735 -4.49931 0.12473 6.69264 19.8756 22.616 -3.49905 15.2358 20.6054 1.55288 26.0683 -6.99726 -3.6346 19.5685 9.27326 10.7724 16.4923 -1.20601 4.80405 0.694245 7.75227 -8.52442 -0.378779 1.23697 -5.87754 2.7751 -3.04402 -2.3686
internal_count=8344 1583 6761 3249 3512 1311 272 171 2320 101 143 1694 46 929 2285 53 554 279 55 1818 757 995 275 393 820 229 536 699 1466 757
shrinkage=0.01


Tree=32
num_leaves=31
num_cat=0
split_feature=107 107 107 107 107 98 44 30 75 89 53 78 107 26 107 17 26 66 49 59 26 62 44 107 86 86 23 59 98 98
split_gain=153661 46064.8 28738.3 9835.55 5981.55 4650.43 3419.99 3414.61 1919.38 1919.24 2292.83 1790 1728.52 1654.3 1365.6 1320.37 1238.11 2203.8 1221.82 1141.23 1022.02 1568.57 950.194 930.609 874.937 1760.77 841.868 818.06 825.309 791.813
threshold=0.095528455284552866 0.16869918699186995 0.055894308943089444 0.1239837398373984 0.076219512195121977 0.037601626016260173 0.076219512195121977 0.72435897435897445 0.71333333333333349 0.15243902439024395 0.14837398373983743 0.84042553191489378 0.025406504065040653 0.22560975609756104 0.043699186991869927 0.084349593495934974 0.099593495934959378 0.3666666666666667 0.29545454545454547 0.36428571428571438 0.11483739837398375 0.1239837398373984 0.13617886178861791 0.14024390243902443 0.46428571428571436 0.52142857142857146 0.25000000000000006 0.078571428571428584 0.076219512195121977 0.059959349593495949
decision_type=2 2 2 2 2 2 2 2 2 2 2 2 2 2 2 2 2 2 2 2 2 2 2 2 2 2 2 2 2 2
left_child=2 3 5 18 13 12 8 11 -3 -9 -11 -8 -1 19 22 -6 23 -18 27 24 26 -22 -7 -5 -4 -26 -13 -2 -29 -21
right_child=1 6 4 16 15 14 7 9 -10 10 -12 20 -14 -15 -16 -17 17 -19 -20 29 21 -23 -24 -25 25 -27 -28 28 -30 -31
leaf_value=-0.095490447828611241 0.092103308961642066 0.19029069514501665 -0.011132661051780625 0.060917469070210492 -0.0016105725198814816 -0.055774465463229006 0.26123129685719809 0.20181725069880485 0.061752391388783093 0.36950050811767576 0.23774303495883942 0.18130358544262973 -0.062507736069762176 0.072329355139285331 -0.034794714628519643 0.016383142098110464 0.20778623307868838 0.098837228389780499 0.030357411834729949 -0.030428086708553334 0.26414644967942008 0.15829717965353104 0.012601839190437681 0.098124806782803858 0.10517332482905616 -0.00099226992638384707 0.10041864224018589 0.018779941631026222 0.052316838989481335 -0.017179083553353146
leaf_count=229 44 21 268 158 880 631 24 32 26 25 28 22 519 20 954 760 20 259 575 709 21 42 21 117 21 61 31 86 500 1240
internal_value=0 7.56586 -2.43407 5.6931 -0.788849 -5.20102 19.6768 21.2974 11.9184 26.297 29.9893 18.262 -7.26054 -1.82253 -4.24179 0.672798 9.18053 10.6647 4.08976 -1.90131 16.6355 19.358 -5.35722 7.67475 -0.238698 2.61965 13.3994 5.05175 4.7395 -2.19988
internal_count=8344 2031 6313 1759 3959 2354 272 225 47 85 53 140 748 2319 1606 1640 554 279 1205 2299 116 63 652 275 350 82 53 630 586 1949
shrinkage=0.01


Tree=33
num_leaves=31
num_cat=0
split_feature=107 107 107 107 107 107 44 30 107 75 89 53 78 98 35 89 67 102 97 50 81 89 26 62 17 49 104 77 23 26
split_gain=150683 37586.2 34682.6 7810.12 6425.52 6121.41 3351.93 3346.66 2084.17 1881.18 1881.04 2247.21 1754.38 1635.34 1518.3 1481.77 1235.96 1278.59 1239.59 1225.59 2397.19 1267.31 1001.68 1537.36 958.679 942.635 932.071 916.629 825.115 807.761
threshold=0.10365853658536588 0.16869918699186995 0.064024390243902454 0.043699186991869927 0.086382113821138237 0.1239837398373984 0.076219512195121977 0.72435897435897445 0.025406504065040653 0.71333333333333349 0.15243902439024395 0.14837398373983743 0.84042553191489378 0.067073170731707335 0.084349593495934974 0.11178861788617889 0.25000000000000006 0.45666666666666672 0.43750000000000006 0.27857142857142864 0.64473684210526316 0.080284552845528476 0.11483739837398375 0.1239837398373984 0.053861788617886187 0.34090909090909099 0.1785714285714286 0.30714285714285722 0.25000000000000006 0.1199186991869919
decision_type=2 2 2 2 2 2 2 2 2 2 2 2 2 2 2 2 2 2 2 2 2 2 2 2 2 2 2 2 2 2
left_child=2 5 3 8 13 25 9 12 -1 -3 -9 -12 -8 27 -5 -16 17 18 -15 20 -7 -21 28 -24 -10 -2 -23 -4 -14 -6
right_child=1 6 4 14 29 19 7 10 24 -11 11 -13 22 16 15 -17 -18 -19 -20 21 -22 26 23 -25 -26 -27 -28 -29 -30 -31
leaf_value=-0.086833063436283525 0.057490764277945992 0.1883877890450614 0.013092777734057289 -0.037222206549906489 0.017491009693670397 0.093161032801832674 0.25861898263295491 0.19979907467961311 -0.066736696531621995 0.061134867438903222 0.36580550384521487 0.23536560211862839 0.17949054999784991 0.12418830251693726 -0.020848194624480683 0.066888332619331789 -0.0053350559519233136 0.0078338687806105128 0.023830630825832488 0.038277137474580246 0.19667293375730516 0.12987016161382198 0.26150498997597466 0.1567142065649941 -0.046364788358340167 0.035109296948462723 0.083548092788529899 -0.020574626500618327 0.099414454929290269 0.038442453953999381
leaf_count=302 407 21 89 1490 768 88 24 32 463 26 25 28 22 20 513 20 1231 245 32 55 30 50 21 42 461 350 331 885 31 242
internal_value=0 8.78233 -2.05627 -4.41106 0.122183 6.56282 19.48 21.0845 -6.40268 11.7993 26.0341 29.6894 18.0794 -0.737214 -3.20408 -1.7556 -0.0917415 1.73927 6.24297 9.08872 11.9478 8.31495 16.4692 19.1644 -5.65728 4.71427 8.96271 -1.74982 13.2654 2.25111
internal_count=8344 1583 6761 3249 3512 1311 272 225 1226 47 85 53 140 2502 2023 533 1528 297 52 554 118 436 116 63 924 757 381 974 53 1010
shrinkage=0.01


Tree=34
num_leaves=31
num_cat=0
split_feature=107 107 107 107 107 107 89 107 89 26 30 26 40 62 92 17 104 44 10 79 17 98 44 107 32 98 40 89 44 95
split_gain=147726 37620.8 33034 8120.06 7662.9 4369.89 3296.05 3382.32 2688.65 2016.36 1902.28 1610.56 1606.29 1531.92 1488.53 1373.97 1373.45 1216.73 1214 2789.01 980.52 941.281 1069.71 858.608 847.006 733.654 722.351 690.12 689.5 671.64
threshold=0.10772357723577237 0.064024390243902454 0.16869918699186995 0.086382113821138237 0.037601626016260173 0.1239837398373984 0.14837398373983743 0.27032520325203263 0.1239837398373984 0.13211382113821143 0.72435897435897445 0.076219512195121977 0.25000000000000006 0.043699186991869927 0.54687500000000011 0.053861788617886187 0.23571428571428574 0.076219512195121977 0.76388888888888895 0.34375000000000006 0.076219512195121977 0.082317073170731739 0.059959349593495949 0.018292682926829274 0.36428571428571438 0.067073170731707335 0.29545454545454547 0.059959349593495949 0.16869918699186995 0.12142857142857143
decision_type=2 2 2 2 2 2 2 2 2 2 2 2 2 2 2 2 2 2 2 2 2 2 2 2 2 2 2 2 2 2
left_child=1 4 5 11 13 26 9 10 15 14 -8 -3 -12 23 -4 -6 20 -5 19 -7 -13 -18 -23 -1 -21 -15 -2 -17 -29 -26
right_child=2 3 6 17 8 18 7 -9 -10 -11 12 16 -14 25 -16 27 21 -19 -20 24 -22 22 -24 -25 29 -27 -28 28 -30 -31
leaf_value=-0.1121722120642662 0.060227704454729199 -0.015075237281952604 0.16697953921097977 0.011297600808840277 -0.045658189972228078 0.21640373856538819 0.17480904828641833 0.32011298928942 0.05303121664907251 0.22983973611956057 0.3202649898529053 0.092171202862546556 0.20106153809107266 -0.061551708763641917 0.079609696391301277 -0.036577302203612203 -0.0097830610957181617 0.032115623201070191 0.076307745062587251 0.069703744670376183 0.018753820271847549 0.074710205849260095 0.0055346893738780992 -0.075462882002308287 0.1638692808151245 -0.027243134060667619 0.037407665611360191 -0.024419868112904405 0.035086876630783081 0.10174502522920939
leaf_count=80 325 1290 39 448 819 21 97 28 35 23 20 21 26 464 39 709 705 752 299 80 136 24 326 313 20 72 242 737 20 134
internal_value=0 -1.88362 9.39917 0.29583 -4.36695 7.00042 19.2852 21.9606 -3.39513 14.7557 19.9926 -0.729842 25.2889 -6.79388 12.3295 -3.52836 0.0978886 2.43436 8.99784 10.6008 2.8574 -0.312768 1.02782 -8.29355 9.61005 -5.69431 5.04879 -2.94877 -2.28477 10.9813
internal_count=8344 6951 1393 3702 3249 1121 272 171 2320 101 143 2502 46 929 78 2285 1212 1200 554 255 157 1055 350 393 234 536 567 1466 757 154
shrinkage=0.01


Tree=35
num_leaves=31
num_cat=0
split_feature=107 107 107 107 98 107 107 102 57 106 40 47 53 107 71 107 107 17 98 17 50 85 71 44 98 104 77 80 98 26
split_gain=144827 46835.9 23958.1 10364.5 4437.07 3940.53 3732.82 2673.72 2463.29 1964.19 1728.1 1697.14 3539.73 1627.57 1607.75 1585.56 1276.28 1163.08 1152.33 1133.92 1022.74 951.597 3553.85 924.263 913.948 794.066 727.15 709.915 693.107 668.328
threshold=0.090447154471544736 0.16463414634146348 0.055894308943089444 0.1158536585365854 0.037601626016260173 0.076219512195121977 0.20121951219512199 0.76333333333333342 0.41346153846153849 0.43750000000000006 0.25000000000000006 0.78125000000000011 0.1158536585365854 0.025406504065040653 0.17276422764227647 0.14024390243902443 0.043699186991869927 0.10772357723577237 0.076219512195121977 0.14837398373983743 0.3357142857142858 0.25000000000000006 0.059959349593495949 0.13617886178861791 0.067073170731707335 0.42142857142857149 0.30714285714285722 0.099593495934959378 0.078252032520325226 0.070121951219512216
decision_type=2 2 2 2 2 2 2 2 2 2 2 2 2 2 2 2 2 2 2 2 2 2 2 2 2 2 2 2 2 2
left_child=2 3 4 17 13 14 10 8 -8 -10 19 15 -13 -1 18 29 23 20 -4 -3 -2 22 -20 -6 26 28 -7 -17 -22 -5
right_child=1 6 5 11 16 24 7 -9 9 -11 -12 12 -14 -15 -16 27 -18 -19 21 -21 25 -23 -24 -25 -26 -27 -28 -29 -30 -31
leaf_value=-0.092836315698238456 0.048070936550090954 0.16346618451178074 -0.023048248958907367 0.046045919465760775 -0.054098069563643825 0.029592327660038355 0.16742676911254722 0.15481448675456799 0.33446099165323617 0.22655021621334939 0.13172770428446542 0.074850750909401825 0.23588518097287131 -0.060831166898727647 0.069401426315307616 0.074148602588341023 -0.0337730279492226 0.045923404159278168 0.13887808663875331 0.2580342858178275 -0.025782639267233513 -0.013804953434746286 -0.0044595145608764142 0.013338765360060192 0.0085674225685237401 0.026748927846582379 -0.014533409530335613 0.11199228823710548 0.016469872375780886 0.072815721673044301
leaf_count=229 164 32 1626 130 631 42 24 38 37 31 113 39 21 519 21 78 954 444 20 21 60 524 128 21 1010 474 337 136 110 330
internal_value=0 6.79027 -2.55615 5.04128 -5.05124 -0.972164 18.5251 22.5379 25.4526 28.5266 15.3825 8.02486 13.1213 -7.06295 -1.76999 7.57117 -4.11427 3.29212 -1.84959 20.0937 2.57764 -0.748073 1.49104 -5.1926 0.359843 2.00989 -0.964349 9.81988 0.155722 6.52503
internal_count=8344 2282 6062 1986 2354 3708 296 130 92 68 166 734 60 748 2319 674 1606 1252 2298 53 808 672 148 652 1389 644 379 214 170 460
shrinkage=0.01


Tree=36
num_leaves=31
num_cat=0
split_feature=107 107 107 107 107 107 44 30 107 75 89 53 78 107 35 89 50 41 12 89 26 26 62 17 86 49 14 23 67 102
split_gain=141982 35381.9 32667.5 7369.55 6089.24 5750.51 3228.04 3203.55 1977.36 1824.1 1791.76 2190.06 1694.78 1595.09 1467.07 1419.65 1191.16 2380.6 1233.18 1015.57 966.715 962.215 1496.96 927.523 924.669 914.211 877.711 809.338 794.608 1901.56
threshold=0.10365853658536588 0.16869918699186995 0.064024390243902454 0.043699186991869927 0.078252032520325226 0.1239837398373984 0.076219512195121977 0.72435897435897445 0.025406504065040653 0.71333333333333349 0.15243902439024395 0.14837398373983743 0.84042553191489378 0.090447154471544736 0.084349593495934974 0.11178861788617889 0.27857142857142864 0.3357142857142858 0.62179487179487192 0.080284552845528476 0.076219512195121977 0.11483739837398375 0.1239837398373984 0.053861788617886187 0.29285714285714287 0.34090909090909099 0.15000000000000002 0.25000000000000006 0.25000000000000006 0.48666666666666675
decision_type=2 2 2 2 2 2 2 2 2 2 2 2 2 2 2 2 2 2 2 2 2 2 2 2 2 2 2 2 2 2
left_child=2 5 3 8 20 25 9 12 -1 -3 -9 -12 -8 24 -5 -16 17 26 -18 -20 -4 27 -23 -10 -6 -2 -7 -14 29 -22
right_child=1 6 4 14 13 16 7 10 23 -11 11 -13 21 -15 15 -17 18 -19 19 -21 28 22 -24 -25 -26 -27 -28 -29 -30 -31
leaf_value=-0.084374255786668378 0.055989660847501906 0.18298665637061709 -0.018138386273461735 -0.03618259745028695 0.030414465441507228 0.053102753191734804 0.25187819242477416 0.19412662968039512 -0.064896991228238235 0.057679256725196658 0.35691875686645508 0.22814812447343552 0.17454653068022297 0.026400310154497966 -0.020073474544567031 0.065804342187941081 0.098753785218172421 0.21020998786796224 0.0191159179341048 0.07443065415991422 0.096311080610007038 0.25491325134322756 0.15150836372659321 -0.044858850835097261 0.0027726792787535408 0.033948224965456339 0.11676532566074341 0.09523967104573404 -0.0085180677530499026 0.0018776532046753786
leaf_count=302 407 21 998 1490 141 33 24 32 463 26 25 28 22 699 513 20 201 22 40 195 25 21 42 461 854 350 63 31 650 145
internal_value=0 8.52499 -1.99602 -4.28138 0.118204 6.37155 18.9043 20.4788 -6.21601 11.3668 25.3214 28.8889 17.5386 1.4823 -3.10893 -1.6851 8.81974 11.6383 8.05691 6.50154 -1.15285 15.956 18.5977 -5.48996 0.668976 4.57988 9.48813 12.8159 -0.348379 1.57649
internal_count=8344 1583 6761 3249 3512 1311 272 225 1226 47 85 53 140 1694 2023 533 554 118 436 235 1818 116 63 924 995 757 96 53 820 170
shrinkage=0.01


Tree=37
num_leaves=31
num_cat=0
split_feature=107 107 107 107 107 107 44 30 89 97 24 98 78 62 17 2 107 17 44 57 77 26 62 65 85 71 107 14 98 40
split_gain=139197 35435.7 31139 7633.98 7232.61 4613.07 3343.63 3011.71 2591.5 1830.29 1650.61 1551.34 1538.02 1477.38 1340.83 2682.05 1498.52 1324.7 1178.41 1112.08 982.126 873.046 1302.52 861.141 1122.1 1060.99 822.003 770.605 714.506 700.103
threshold=0.10772357723577237 0.064024390243902454 0.17276422764227647 0.086382113821138237 0.037601626016260173 0.1239837398373984 0.076219512195121977 0.72435897435897445 0.1239837398373984 0.72916666666666674 0.91847826086956541 0.082317073170731739 0.84042553191489378 0.043699186991869927 0.10365853658536588 0.69117647058823917 0.14024390243902443 0.053861788617886187 0.076219512195121977 0.78846153846153855 0.29285714285714287 0.11483739837398375 0.1239837398373984 0.45312500000000006 0.25000000000000006 0.067073170731707335 0.018292682926829274 0.36428571428571438 0.067073170731707335 0.29545454545454547
decision_type=2 2 2 2 2 2 2 2 2 2 2 2 2 2 2 2 2 2 2 2 2 2 2 2 2 2 2 2 2 2
left_child=1 4 5 11 13 29 19 12 17 10 -9 20 -8 26 16 -16 27 -6 -5 -4 -3 -14 -23 -13 25 -25 -1 -7 -15 -2
right_child=2 3 6 18 8 14 7 9 -10 -11 -12 23 21 28 15 -17 -18 -19 -20 -21 -22 22 -24 24 -26 -27 -28 -29 -30 -31
