tree
version=v2
num_class=1
num_tree_per_iteration=1
label_index=0
max_feature_idx=161
objective=regression
feature_names=Column_0 Column_1 Column_2 Column_3 Column_4 Column_5 Column_6 Column_7 Column_8 Column_9 Column_10 Column_11 Column_12 Column_13 Column_14 Column_15 Column_16 Column_17 Column_18 Column_19 Column_20 Column_21 Column_22 Column_23 Column_24 Column_25 Column_26 Column_27 Column_28 Column_29 Column_30 Column_31 Column_32 Column_33 Column_34 Column_35 Column_36 Column_37 Column_38 Column_39 Column_40 Column_41 Column_42 Column_43 Column_44 Column_45 Column_46 Column_47 Column_48 Column_49 Column_50 Column_51 Column_52 Column_53 Column_54 Column_55 Column_56 Column_57 Column_58 Column_59 Column_60 Column_61 Column_62 Column_63 Column_64 Column_65 Column_66 Column_67 Column_68 Column_69 Column_70 Column_71 Column_72 Column_73 Column_74 Column_75 Column_76 Column_77 Column_78 Column_79 Column_80 Column_81 Column_82 Column_83 Column_84 Column_85 Column_86 Column_87 Column_88 Column_89 Column_90 Column_91 Column_92 Column_93 Column_94 Column_95 Column_96 Column_97 Column_98 Column_99 Column_100 Column_101 Column_102 Column_103 Column_104 Column_105 Column_106 Column_107 Column_108 Column_109 Column_110 Column_111 Column_112 Column_113 Column_114 Column_115 Column_116 Column_117 Column_118 Column_119 Column_120 Column_121 Column_122 Column_123 Column_124 Column_125 Column_126 Column_127 Column_128 Column_129 Column_130 Column_131 Column_132 Column_133 Column_134 Column_135 Column_136 Column_137 Column_138 Column_139 Column_140 Column_141 Column_142 Column_143 Column_144 Column_145 Column_146 Column_147 Column_148 Column_149 Column_150 Column_151 Column_152 Column_153 Column_154 Column_155 Column_156 Column_157 Column_158 Column_159 Column_160 Column_161
feature_infos=[0:1] [0:0.99999999999999978] [0:1] [0:0.99999999999999989] [0:1] [0:1] [0:1.0000000000000002] [0:1] [0:1] [0:1] [0:0.99999999999999978] [0:1] [0:0.99999999999999989] [0:1] [0:1] [0:1.0000000000000002] [0:1] [0:1] [0:1] [0:0.99999999999999978] [0:1] [0:0.99999999999999989] [0:1] [0:1] [0:1.0000000000000002] [0:1] [0:1] [0:1] [0:0.99999999999999978] [0:1] [0:0.99999999999999989] [0:1] [0:1] [0:1.0000000000000002] [0:1] [0:1] [0:1] [0:0.99999999999999978] [0:1] [0:0.99999999999999989] [0:1] [0:1] [0:1.0000000000000002] [0:1] [0:1] [0:1] [0:0.99999999999999978] [0:1] [0:0.99999999999999989] [0:1] [0:1] [0:1.0000000000000002] [0:1] [0:1] [0:1] [0:0.99999999999999978] [0:1] [0:0.99999999999999989] [0:1] [0:1] [0:1.0000000000000002] [0:1] [0:1] [0:1] [0:1] [0:1] [0:1] [0:1] [0:1] [0:1.0000000000000002] [0:1] [0:1] [0:1] [0:1] [0:1] [0:1] [0:1] [0:1] [0:1.0000000000000002] [0:1] [0:1] [0:1] [0:1] [0:1] [0:1] [0:1] [0:1] [0:1.0000000000000002] [0:1] [0:1] [0:1] [0:1] [0:1] [0:1] [0:1] [0:1] [0:1.0000000000000002] [0:1] [0:1] [0:1] [0:1] [0:1] [0:1] [0:1] [0:1] [0:1.0000000000000002] [0:1] [0:1] [0:1] [0:1] [0:1] [0:1] [0:1] [0:1] [0:1] [0:1] [0:1] [0:1] [0:1] [0:1] [0:1] [0:1] [0:1] [0:1] [0:1] [0:1] [0:1] [0:1] [0:1] [0:1] [0:1] [0:1] [0:1] [0:1] [0:1] [0:1] [0:1] [0:1] [0:1] [0:1] [0:1] [0:1] [0:1] [0:1] [0:1] [0:1] [0:1] [0:1] [0:1] [0:1] [0:1] [0:1] [0:1] [0:1] [0:1] [0:1] [0:1] [0:1] [0:1] [0:1] [0:1] [0:1]
tree_sizes=2425 2497 2489 2501 2489 2502 2490 2500 2499 2493 2494 2506 2505 2488 2513 2497 2486 2518 2483 2503 2499 2489 2513 2500 2489 2503 2483 2500 2502 2503 2512 2495 2482 2509 2496 2502 2513 2490 2505 2486 2506 2503 2503 2512 2500 2511 2504 2486 2510 2498 2507 2515 2519 2511 2507 2513 2500 2515 2500 2509 2498 2509 2494 2515 2501 2516 2513 2509 2517 2502 2516 2500 2507 2506 2504 2513 2482 2500 2509 2518 2511 2497 2511 2502 2517 2519 2508 2495 2529 2518 2515 2509 2511 2507 2491 2497 2514 2494 2506 2514 2498 2510 2494 2494 2515 2505 2507 2500 2513 2503 2495 2512 2524 2495 2502 2496 2516 2516 2508 2485 2517 2518 2500 2526 2522 2510 2493 2498 2503 2494 2507 2487 2499 2518 2487 2495 2492 2514 2505 2520 2522 2515 2514 2516 2515 2521 2528 2499 2504 2515 2523 2503 2526 2507 2508 2518 2523 2523 2521 2491 2516 2516 2519 2531 2493 2494 2520 2512 2500 2495 2523 2513 2501 2509 2522 2501 2520 2494 2527 2522 2525 2489 2531 2498 2529 2534 2517 2524 2520 2532 2519 2522 2538 2511 2534 2509 2511 2526 2510 2537 2525 2502 2545 2509 2542 2517 2530 2527 2513 2536 2541 2507 2538 2506 2530 2505 2540 2522 2526 2518 2535 2541 2510 2520 2506 2529 2496 2500 2501 2524 2505 2503 2498 2541 2527 2540 2503 2546 2538 2518 2539 2534 2542 2494 2537 2542 2544 2542 2546 2531 2549 2557 2534 2526 2522 2527 2545 2540 2550 2524 2531 2526 2554 2542 2541 2524 2537 2532 2541 2535 2537 2551 2534 2523 2545 2530 2544 2535 2535 2552 2522 2532 2543 2548 2546 2535 2530 2538 2512 2544 2539 2514 2531 2544 2543 2543 2551 2530 2534 2538 2527 2541 2527 2524 2537 2547 2526 2522 2527 2542 2555 2521 2542 2551 2554 2532 2555 2527 2528 2550 2549 2553 2539 2548 2542 2544 2555 2525 2535 2537 2547 2549 2540 2549 2527 2542 2543 2549 2544 2525 2538 2553 2522 2557 2535 2534 2540 2525 2553 2518 2544 2541 2533 2551 2536 2544 2547 2549 2559 2523 2544 2543 2538 2558 2535 2533 2539 2543 2548 2540 2543 2549 2541 2545 2537 2518 2544 2552 2544 2537 2547 2549 2541 2519 2545 2560 2549 2541 2546 2539 2526 2514 2541 2542 2552 2522 2540 2526 2533 2550 2559 2540 2538 2544 2543 2538 2533 2537 2529 2542 2538 2555 2540 2543 2551 2502 2528 2534 2545 2549 2531 2552 2546 2535 2534 2533 2530 2540 2542 2527 2551 2549 2529 2558 2538 2544 2534 2526 2533 2535 2554 2537 2546 2536 2548 2538 2548 2529 2543 2551 2540 2532 2539 2526 2539 2526 2551 2536 2536 2564 2543 2543 2558 2552 2529 2557 2536 2467 2530 2548 2558 2545 2541 2540 2553 2549 2558 2533 2538 2527 2558 2468 2539 2542 2545 2542 2552 2562 2563 2538 2546 2561 2545 2550 2556 2531 2531 2557 2555 2547 2556 2546 2550 2521 2552 2560 2568 2575 2547 2550 2543 2577 2552 2572 2552 2540 2546 2559 2556 2556 2558 2553 2531 2534 2561 2549 2560 2565 2544 2565 2557 2544 2558 2546 2537 2548 2567 2544 2540 2555 2564 2558 2546 2536 2556 2554 2461 2556 2568 2567 2379 2549 2536 2554 2557 2567 2552 2537 2389 2539 2550 2542 2553 2168 2531 2529 2555 2562 2534 2551 2572 2550 2551 2550 2571 2549 2557 2520 2562 2569 2549 2563 2536 2462 2538 2571 2555 2551 2555 2538 2548 2559 2554 2556 2545 2542 2556 2567 2243 2563 2563 2556 2563 2533 2566 2547 2564 2527 2547 2533 2559 2568 2552 2547 2533 2560 2547 2553 2550 2566 2553 2552 2542 2537 2559 2551 2546 2545 2550 2558 2552 2570 2558 2531 2559 2546 2558 2538 2523 2557 2526 2542 2538 2534 2562 2554 2537 2554 2553 2560 2521 2542 2533 2536 2569 2546 2394 2557 2542 2545 2563 2554 2545 2544 2539 2561 2554 2556 2564 2554 2552 2541 2542 2545 2537 2573 2534 2558 2551 2557 2563 2540 2535 2551 2560 2466 2565 2542 2533 2539 2551 2539 2549 2538 2546 2570 2526 2560 2531 2551

Tree=0
num_leaves=31
num_cat=0
split_feature=161 161 161 161 161 143 113 138 5 114 89 17 122 125 80 149 95 98 143 123 152 161 113 68 8 41 5 8 89 98
split_gain=134051 32664.8 29287.5 8682.38 8490.26 6625.57 4029.3 4187.68 3871.44 3780.34 3153.89 2922.88 2141.9 2100.04 1981.38 1913.31 1859.59 1781.71 1383.34 1370.11 1107.37 1067.25 1040.52 1020.69 1007.44 950.77 938.064 1019.34 935.63 908.285
threshold=0.090447154471544736 0.16869918699186995 0.061991869918699198 0.1239837398373984 0.037601626016260173 0.11178861788617889 0.27857142857142864 0.42000000000000004 0.82142857142857151 0.84042553191489378 0.078252032520325226 0.14430894308943096 0.36428571428571438 0.043699186991869927 0.049796747967479689 0.45000000000000001 0.45000000000000001 0.061991869918699198 0.078252032520325226 0.92021276595744694 0.099593495934959378 0.074186991869918714 0.19285714285714289 0.76428571428571435 0.095528455284552866 0.47857142857142859 0.37857142857142861 0.090447154471544736 0.025406504065040653 0.082317073170731739
decision_type=2 2 2 2 2 2 2 2 2 2 2 2 2 2 2 2 2 2 2 2 2 2 2 2 2 2 2 2 2 2
left_child=2 3 4 11 13 -3 7 -5 9 -7 21 17 16 28 -6 -11 24 22 -8 -13 -16 -4 -2 -19 -12 -9 -20 -28 -1 -26
right_child=1 5 10 6 14 8 18 25 -10 15 12 19 -14 -15 20 -17 -18 23 26 -21 -22 -23 -24 -25 29 -27 27 -29 -30 -31
leaf_value=18.294499176331755 18.508612478037989 18.499711380426685 18.402179989513172 18.718826763843101 18.365080441506002 18.733738533934439 18.456634457651607 18.594743430390558 18.795690407185901 18.657139265810056 18.427521210320727 18.578701765642418 18.427098419574886 18.356807284118219 18.386584959223377 18.546907408471796 18.548910099813941 18.468330388483398 18.473183908054121 18.495836198940104 18.455160100000203 18.420245821521615 18.434737393653013 18.50131791468857 18.427963129649616 18.50896962214399 18.50695052662536 18.552104542067614 18.33238445596281 18.505816125863543
leaf_count=87 21 26 729 20 544 34 39 24 22 32 72 32 635 385 1251 31 24 552 35 53 24 593 207 113 22 28 101 99 260 47
internal_value=0 8.33234 -2.61935 6.77182 -4.90264 22.5815 11.0772 17.7343 25.7412 23.0248 0.12555 5.24867 1.69274 -7.77848 -3.74534 18.4386 4.9027 4.71531 9.32784 10.8521 -3.06361 -0.822824 2.30298 5.54239 3.51766 13.0046 10.2432 11.079 -9.5626 6.24815
internal_count=6142 1469 4673 1324 2551 145 346 72 119 97 2122 978 800 732 1819 63 165 893 274 85 1275 1322 228 665 141 52 235 200 347 69
shrinkage=1


Tree=1
num_leaves=31
num_cat=0
split_feature=161 161 161 161 143 152 161 113 138 5 114 17 71 149 152 161 98 122 8 161 95 143 123 128 113 68 103 41 5 8
split_gain=131383 32014.7 28747 8509.6 6493.72 5455.92 5239.34 3949.12 4104.34 3794.4 3705.11 2864.72 1955.36 1875.24 1855.78 1799.8 1746.25 1609.76 1530.26 1486.33 1358.86 1355.81 1342.84 1105.38 1019.81 1000.38 978.736 931.849 919.396 999.056
threshold=0.090447154471544736 0.16869918699186995 0.053861788617886187 0.1239837398373984 0.11178861788617889 0.037601626016260173 0.074186991869918714 0.27857142857142864 0.42000000000000004 0.82142857142857151 0.84042553191489378 0.14430894308943096 0.053861788617886187 0.45000000000000001 0.10365853658536588 0.025406504065040653 0.061991869918699198 0.35000000000000003 0.095528455284552866 0.043699186991869927 0.45000000000000001 0.078252032520325226 0.92021276595744694 0.76562500000000011 0.19285714285714289 0.76428571428571435 0.11363636363636365 0.47857142857142859 0.37857142857142861 0.090447154471544736
decision_type=2 2 2 2 2 2 2 2 2 2 2 2 2 2 2 2 2 2 2 2 2 2 2 2 2 2 2 2 2 2
left_child=2 3 5 11 -3 15 12 8 -5 10 -6 16 -4 -12 19 -1 24 20 -14 -7 -8 -9 -13 26 -2 -18 -20 -10 -23 -30
right_child=1 4 6 7 9 14 17 21 27 -11 13 22 18 -15 -16 -17 25 -19 23 -21 -22 28 -24 -25 -26 -27 -28 -29 29 -31
leaf_value=-0.10743775732242145 0.089199589831488471 0.080387502633608304 -0.032653228632343094 0.29731173610687256 0.31207438216489908 -0.059401000495484697 0.02736446509887646 0.037741347245680984 0.17446923116842908 0.37340673284097153 0.23624111145734789 0.15858798364177346 -0.015554429898556975 0.12711157092163641 0.046461555537852375 -0.069748099860098722 0.04932031935539799 0.0064692975048634225 0.065645262462397408 -0.037167606040051114 0.10198422098981924 0.054125303787844525 0.07655107177653403 0.075359241316715883 0.016063254555858275 0.081977970816392812 -0.0011747881487424194 0.089553161401833808 0.087554258226168039 0.13225672963291707
leaf_count=182 21 26 508 20 34 506 154 39 24 22 32 32 970 31 22 417 552 843 24 741 29 35 53 24 207 113 253 28 101 99
internal_value=0 8.24902 -2.59315 6.7041 22.3557 -5.63247 -0.569107 10.9664 17.5569 25.4837 22.7945 5.19618 -1.60701 18.2542 -4.45831 -8.11997 4.66815 1.23053 -0.94421 -4.61893 3.91895 9.23456 10.7436 1.02554 2.27995 5.48697 0.461467 12.8745 10.1408 10.9682
internal_count=6142 1469 4673 1324 145 1868 2805 346 72 119 97 978 1779 63 1269 599 893 1026 1271 1247 183 274 85 301 228 665 277 52 235 200
shrinkage=0.01


Tree=2
num_leaves=31
num_cat=0
split_feature=161 161 161 161 161 143 113 41 5 114 89 17 122 125 80 149 95 98 143 41 152 161 113 112 8 89 5 8 86 45
split_gain=128769 31377.7 28198.9 8340.26 8161.78 6364.5 3870.53 4027.15 3718.89 3631.38 3068.86 2807.71 2074.07 2041.91 1923.25 1837.92 1800.7 1711.5 1328.83 1327.02 1073.3 1010.77 999.52 994.015 978.606 910.348 901.1 979.175 892.938 936.032
threshold=0.090447154471544736 0.16869918699186995 0.061991869918699198 0.1239837398373984 0.037601626016260173 0.11178861788617889 0.27857142857142864 0.47857142857142859 0.82142857142857151 0.84042553191489378 0.078252032520325226 0.14430894308943096 0.36428571428571438 0.043699186991869927 0.049796747967479689 0.45000000000000001 0.45000000000000001 0.061991869918699198 0.078252032520325226 0.37857142857142861 0.099593495934959378 0.074186991869918714 0.19285714285714289 0.34090909090909099 0.095528455284552866 0.025406504065040653 0.37857142857142861 0.090447154471544736 0.76428571428571435 0.49999999999999994
decision_type=2 2 2 2 2 2 2 2 2 2 2 2 2 2 2 2 2 2 2 2 2 2 2 2 2 2 2 2 2 2
left_child=2 3 4 11 13 -3 7 -5 9 -7 21 17 16 25 -6 -11 24 22 -8 -13 -16 -4 -2 -19 -12 -1 -20 -28 -14 -30
right_child=1 5 10 6 14 8 18 -9 -10 15 12 19 28 -15 20 -17 -18 23 26 -21 -22 -23 -24 -25 -26 -27 27 -29 29 -31
leaf_value=-0.12186647590549513 0.088307594174430473 0.079583625690295146 -0.015979531827205167 0.24455604076385498 -0.052471758692580112 0.30895363134496356 0.037363934685022401 0.09474839096395847 0.36967265898531132 0.23387869410216808 0.0088887763727042417 0.1693536576628685 0.0029662919839604576 -0.060417290974747052 -0.031284149907332817 0.12584045633192986 0.12838054521630207 0.066713604774416957 0.053584049199308668 0.081577282264584397 0.036227969552079839 0.0016017198788777973 0.015902621838565608 0.042259293343617589 0.061590232706588248 -0.084496564213473069 0.086678715295130659 0.13093416633630039 0.011145982044083732 0.07000628029758281
leaf_count=87 21 26 729 38 544 34 39 34 22 32 72 24 521 385 1251 31 24 328 35 61 24 593 207 337 69 260 101 99 70 44
internal_value=0 8.16653 -2.56722 6.63706 -4.80767 22.1321 10.8567 17.3814 25.2289 22.5666 0.126179 5.14422 1.6721 -7.62734 -3.67299 18.0717 4.83082 4.62147 9.14221 10.6361 -3.00133 -0.809324 2.25715 5.4321 3.46789 -9.3866 10.0394 10.8585 0.851328 3.3864
internal_count=6142 1469 4673 1324 2551 145 346 72 119 97 2122 978 800 732 1819 63 165 893 274 85 1275 1322 228 665 141 347 235 200 635 114
shrinkage=0.01


Tree=3
num_leaves=31
num_cat=0
split_feature=161 161 161 161 143 152 161 113 138 5 114 17 89 152 149 122 161 98 80 161 28 123 143 68 113 122 121 122 5 8
split_gain=126206 30753.2 27666.8 8174.28 6237.84 5279.95 5045.74 3793.51 4005.46 3644.88 3559.12 2751.83 1985.79 1808.02 1801.34 1761.76 1737.74 1677.45 1538.64 1427.54 1328.74 1313.32 1302.39 979.642 979.63 936.326 927.492 904.117 883.168 959.689
threshold=0.090447154471544736 0.16869918699186995 0.053861788617886187 0.1239837398373984 0.11178861788617889 0.037601626016260173 0.070121951219512216 0.27857142857142864 0.42000000000000004 0.82142857142857151 0.84042553191489378 0.14430894308943096 0.078252032520325226 0.10365853658536588 0.45000000000000001 0.36428571428571438 0.025406504065040653 0.061991869918699198 0.10772357723577237 0.043699186991869927 0.79166666666666663 0.92021276595744694 0.078252032520325226 0.76428571428571435 0.19285714285714289 0.30714285714285722 0.20454545454545459 0.76428571428571435 0.37857142857142861 0.090447154471544736
decision_type=2 2 2 2 2 2 2 2 2 2 2 2 2 2 2 2 2 2 2 2 2 2 2 2 2 2 2 2 2 2
left_child=2 3 5 11 -3 16 18 8 -5 10 -6 17 -8 19 -12 20 -1 24 25 -7 -14 -13 -9 -19 -2 -4 -20 -25 -24 -30
right_child=1 4 6 7 9 13 12 22 -10 -11 14 21 15 -15 -16 -17 -18 23 26 -21 -22 -23 28 27 -26 -27 -28 -29 29 -31
leaf_value=-0.10548441228221407 0.08742451707522074 0.078787790903678309 0.0062226992845535282 0.2923424756117165 0.30586409624885114 -0.05821463236018367 -0.0016298153746247591 0.036990293829869007 0.12581883586370027 0.36597593220797447 0.23153991527855397 0.15588459899649024 0.041450370407766765 0.046184078211134134 0.12458204904871602 0.01399461563762432 -0.068450270568152422 0.048286239584718928 0.048946826795736947 -0.03642538398423819 0.12814580348404972 0.074754486421369157 0.053048210425036296 0.10194871879286237 0.015743594768362634 -0.024663428479920139 -0.0041693975129088422 0.043119461456450014 0.085811927401193297 0.12962482243023737
leaf_count=182 21 26 107 20 34 506 798 39 52 22 32 32 90 22 31 434 417 552 45 741 22 53 35 72 207 1187 122 41 101 99
internal_value=0 8.08486 -2.54155 6.57069 21.9108 -5.52322 -0.555897 10.7482 17.2075 24.9766 22.3409 5.09278 0.842471 -4.36815 17.891 2.31198 -7.97027 4.57526 -1.84228 -4.52669 5.84798 10.5298 9.05079 5.37778 2.23458 -2.21095 1.01434 8.06036 9.93896 10.7499
internal_count=6142 1469 4673 1324 145 1868 2805 346 72 119 97 978 1344 1269 63 546 599 893 1461 1247 112 85 274 665 228 1294 167 113 235 200
shrinkage=0.01


Tree=4
num_leaves=31
num_cat=0
split_feature=161 161 161 161 161 143 113 97 5 123 89 17 122 125 80 152 95 98 41 5 32 134 8 152 161 112 113 8 129 142
split_gain=123695 30141.2 27137.5 8011.62 7848.89 6113.71 3718.02 3951.47 3572.35 3491.93 2953.77 2697.07 1995.66 1985.41 1871.17 1797.21 1760.31 1644.06 1297.84 1287.29 1230.21 1113.73 1044.07 1037.89 974.418 973.658 960.135 957.859 941.042 1036.46
threshold=0.090447154471544736 0.16869918699186995 0.061991869918699198 0.1239837398373984 0.037601626016260173 0.11178861788617889 0.27857142857142864 0.76086956521739135 0.82142857142857151 0.84042553191489378 0.078252032520325226 0.14430894308943096 0.36428571428571438 0.043699186991869927 0.049796747967479689 0.20934959349593499 0.45000000000000001 0.061991869918699198 0.37857142857142861 0.50714285714285723 0.55000000000000016 0.090447154471544736 0.090447154471544736 0.099593495934959378 0.074186991869918714 0.34090909090909099 0.19285714285714289 0.095528455284552866 0.6066666666666668 0.43750000000000006
decision_type=2 2 2 2 2 2 2 2 2 2 2 2 2 2 2 2 2 2 2 2 2 2 2 2 2 2 2 2 2 2
left_child=2 3 4 11 13 -3 7 20 9 -7 24 17 16 -1 -6 -11 27 26 -13 21 -5 -8 -21 -16 -4 -19 -2 -12 -24 -30
right_child=1 5 10 6 14 8 19 -9 -10 15 12 18 -14 -15 23 -17 -18 25 -20 22 -22 -23 28 -25 -26 -27 -28 -29 29 -31
leaf_value=-0.092138526966575235 0.08655027168137687 0.077999913245439534 -0.015660241902773927 0.16699534946017797 -0.051540183359757068 0.31084031550089519 0.010368559490889311 0.28203757399862467 0.3623161759159782 0.14603272048675497 0.0084210113146238851 0.16654073009888332 0.0083763376990641202 -0.059155840473902689 -0.030637602819193852 0.25767992746262325 0.12658106941729785 0.065505059480939695 0.079734663960264365 0.083419084598165036 0.067471033956693571 0.085918829894065851 0.072634696648234409 0.035751600178579486 0.0016019991718697509 0.041302456657681334 0.01558616017157905 0.060560832537602693 0.12082606002597547 0.20721746717180525
leaf_count=347 21 26 729 27 544 30 32 22 22 46 72 24 635 385 1251 21 24 328 61 109 23 50 21 24 593 337 207 69 41 21
internal_value=0 8.00401 -2.51613 6.50498 -4.71402 21.6917 10.6407 17.0355 24.7268 22.1175 0.126089 5.04185 1.64274 -7.47911 -3.60129 18.1027 4.74119 4.5295 10.4245 8.96028 12.1214 5.64358 10.3768 -2.93879 -0.791704 5.324 2.21223 3.39362 13.0491 15.0088
internal_count=6142 1469 4673 1324 2551 145 346 72 119 97 2122 978 800 732 1819 67 165 893 85 274 50 82 192 1275 1322 665 228 141 83 62
shrinkage=0.01


Tree=5
num_leaves=31
num_cat=0
split_feature=161 161 161 143 161 152 161 161 2 102 8 8 71 152 161 107 98 122 8 140 161 95 116 128 112 137 103 8 68 113
split_gain=121233 29555.8 26627.1 8195.8 5847.77 5113.02 4984.66 4873.27 4664.5 2927.63 2719.91 2038.95 1863.28 1761.39 1682.21 1650.53 1588.36 1513.95 1459.42 1440.61 1369.9 1290.89 1191.92 1077.88 1040.94 961.727 941.455 905.307 887.794 799.364
threshold=0.090447154471544736 0.14837398373983743 0.053861788617886187 0.12804878048780491 0.19308943089430899 0.037601626016260173 0.11178861788617889 0.074186991869918714 0.73529411764706165 0.66000000000000003 0.086382113821138237 0.12703252032520329 0.055894308943089444 0.10365853658536588 0.025406504065040653 0.082317073170731739 0.076219512195121977 0.35000000000000003 0.095528455284552866 0.82142857142857151 0.043699186991869927 0.45000000000000001 0.10772357723577237 0.76562500000000011 0.34090909090909099 0.54687500000000011 0.11363636363636365 0.061991869918699198 0.57857142857142863 0.3357142857142858
decision_type=2 2 2 2 2 2 2 2 2 2 2 2 2 2 2 2 2 2 2 2 2 2 2 2 2 2 2 2 2 2
left_child=2 6 5 15 11 14 16 12 10 -6 -8 -5 -4 20 -1 -3 29 21 -14 25 -7 -9 -21 26 -18 -12 -20 -19 -27 -2
right_child=1 3 7 4 9 13 8 17 -10 -11 19 -13 18 -15 -16 -17 24 27 23 22 -22 -23 -24 -25 -26 28 -28 -29 -30 -31
leaf_value=-0.10360785402736249 0.058828454263768773 0.070507445394992832 -0.031561037144257363 0.14481536010901133 0.23940906642004847 -0.057042673427037338 0.054410227833946875 0.026472738545823406 0.23007060811633157 0.37942574330738615 0.062423377498682292 0.2593036208833967 -0.014928414509116432 0.045904769572344691 -0.067170240210293303 0.15304724884794113 0.069918082532440792 -0.0069150350710249836 0.064573005338509876 0.20844379777000066 -0.035697821032421792 0.09920236677959049 0.10424170949536821 0.074575263534982991 0.038869776716179187 0.090328880473971362 -0.00096205611827345232 0.014413687792712118 0.152445168224248 0.017875079478798132
leaf_count=182 59 50 511 60 32 506 242 154 21 28 74 21 967 22 417 47 232 322 24 21 741 29 23 24 202 76 253 521 33 248
internal_value=0 7.92397 -2.49097 18.1252 22.9924 -5.41608 5.95168 -0.542986 8.42626 30.475 7.77338 17.4498 -1.54397 -4.27941 -7.82414 11.0501 4.31533 1.19265 -0.894292 10.2599 -4.4359 3.79982 15.3975 1.02862 5.5467 9.0246 0.471607 0.626677 10.9135 2.57456
internal_count=6142 1469 4673 238 141 1868 1231 2805 490 60 469 81 1779 1269 599 97 741 1026 1268 227 1247 183 44 301 434 183 277 843 109 307
shrinkage=0.01


Tree=6
num_leaves=31
num_cat=0
split_feature=161 161 161 161 161 143 113 138 5 114 89 17 122 125 80 149 95 98 54 5 134 152 8 68 8 8 113 129 142 122
split_gain=118821 28968 26128.6 7719.71 7544.89 5900.05 3618.16 3904.31 3483.86 3395.18 2869.48 2615.66 1933.75 1930.49 1816.37 1739.62 1704.56 1591.01 1283.44 1261.05 1086.04 1006.13 1002.04 955.204 947.916 930.428 926.178 915.044 1013.06 885.702
threshold=0.090447154471544736 0.16869918699186995 0.061991869918699198 0.1239837398373984 0.037601626016260173 0.11178861788617889 0.27857142857142864 0.42000000000000004 0.82142857142857151 0.84042553191489378 0.078252032520325226 0.14430894308943096 0.36428571428571438 0.043699186991869927 0.049796747967479689 0.45000000000000001 0.45000000000000001 0.061991869918699198 0.36764705882352938 0.50714285714285723 0.090447154471544736 0.099593495934959378 0.090447154471544736 0.76428571428571435 0.061991869918699198 0.095528455284552866 0.19285714285714289 0.6066666666666668 0.43750000000000006 0.76428571428571435
decision_type=2 2 2 2 2 2 2 2 2 2 2 2 2 2 2 2 2 2 2 2 2 2 2 2 2 2 2 2 2 2
left_child=2 3 4 11 13 -3 7 -5 9 -7 24 17 16 -1 -6 -11 25 26 -13 20 -8 -16 -21 -19 -4 -12 -2 -24 -29 -25
right_child=1 5 10 6 14 8 19 -9 -10 15 12 18 -14 -15 21 -17 -18 23 -20 22 -22 -23 27 29 -26 -27 -28 28 -30 -31
leaf_value=-0.090443016971254814 0.084826452845618835 0.076165633940925959 -0.01692859636418155 0.28617034071683883 -0.050615649490740475 0.29721544910879699 0.0094532243907451633 0.12176269702326793 0.35606400711969899 0.22494007758796217 0.0083067004010081297 0.14998786784270229 0.0082891844041704191 -0.057919745450186265 -0.030020555231830393 0.11983052187388943 0.12461996088425319 0.046736946051157469 0.070669570854481528 0.081856352044824818 0.084058554399013524 0.035344688097635905 0.070919567800703506 0.099775292412895289 5.7587459515989498e-05 0.059694525266903033 0.015128529272469634 0.11836577741111198 0.20377637409028551 0.041548229539539759
leaf_count=347 21 26 610 20 544 34 32 52 22 32 72 34 635 385 1251 31 24 552 51 109 50 24 21 72 712 69 207 41 21 41
internal_value=0 7.84473 -2.46606 6.37517 -4.6227 21.2634 10.4348 16.7431 24.245 21.6682 0.126582 4.93894 1.62144 -7.33372 -3.53174 17.322 4.67144 4.43438 10.2397 8.77715 5.49443 -2.87902 10.1791 5.21595 -0.778021 3.34539 2.15481 12.7971 14.7295 7.86487
internal_count=6142 1469 4673 1324 2551 145 346 72 119 97 2122 978 800 732 1819 63 165 893 85 274 82 1275 192 665 1322 141 228 83 62 113
shrinkage=0.01


Tree=7
num_leaves=31
num_cat=0
split_feature=161 161 161 143 161 152 161 161 110 25 8 8 71 152 161 107 80 89 122 8 140 116 161 95 156 59 128 103 152 75
split_gain=116456 28409.2 25626.4 7905.49 5656.56 4951.5 4816.9 4720.31 4563.48 2864.91 1970.68 1907.55 1806.23 1715.97 1628.51 1602.67 1548.7 1465.39 1493.83 1415.87 1347.83 1376.17 1314.58 1296.67 1131.01 1100.38 1053.5 917.413 914.195 798.706
threshold=0.090447154471544736 0.14837398373983743 0.053861788617886187 0.12804878048780491 0.19308943089430899 0.037601626016260173 0.11178861788617889 0.074186991869918714 0.78125000000000011 0.86250000000000016 0.12703252032520329 0.086382113821138237 0.055894308943089444 0.10365853658536588 0.025406504065040653 0.082317073170731739 0.082317073170731739 0.078252032520325226 0.36428571428571438 0.095528455284552866 0.82142857142857151 0.10772357723577237 0.043699186991869927 0.42142857142857149 0.28333333333333338 0.70714285714285718 0.76562500000000011 0.11363636363636365 0.090447154471544736 0.71333333333333349
decision_type=2 2 2 2 2 2 2 2 2 2 2 2 2 2 2 2 2 2 2 2 2 2 2 2 2 2 2 2 2 2
left_child=2 6 5 15 10 14 16 12 11 -6 -5 28 -4 22 -1 -3 -2 -9 23 -14 -13 -22 -7 -19 -18 -26 27 -21 -8 -27
right_child=1 3 7 4 9 13 8 17 -10 -11 -12 20 19 -15 -16 -17 24 18 -20 26 21 -23 -24 -25 25 29 -28 -29 -30 -31
leaf_value=-0.10176563005525986 0.028035070268284105 0.068780657108267779 -0.031027847197628536 0.14178524407496054 0.24459087524865125 -0.055894018739596263 0.017188116641094289 0.0015658725358382445 0.21157269716262816 0.38671460794365931 0.25434034097762337 0.084819990673356424 -0.014654159084840792 0.045623461170630021 -0.065914383563726725 0.15011499496216471 0.13005805695056916 0.041028313797080156 0.016450011292633984 0.06376237329095602 0.20510865631557645 0.090625514302934931 -0.034984542431558678 0.13124632621095295 0.040685577242937775 0.10350200584034125 0.073739292671283083 -0.00093050707808949734 0.065832607709718022 0.048451577761269952
leaf_count=182 377 50 511 60 37 506 48 593 26 23 21 176 967 22 417 47 20 66 346 24 21 21 741 21 237 60 24 253 198 47
internal_value=0 7.76628 -2.4414 17.7676 22.5479 -5.31102 5.83263 -0.53037 8.26521 29.9072 17.0966 7.54281 -1.51552 -4.19245 -7.68074 10.819 4.22405 1.17781 2.57638 -0.875864 9.69667 14.7867 -4.34691 6.28051 5.69533 5.2703 1.01815 0.467465 5.6341 7.9321
internal_count=6142 1469 4673 238 141 1868 1231 2805 490 60 81 464 1779 1269 599 97 741 1026 433 1268 218 42 1247 87 364 344 301 277 246 107
shrinkage=0.01


Tree=8
num_leaves=31
num_cat=0
split_feature=161 161 161 143 161 161 161 2 102 89 8 8 116 122 80 95 107 98 140 131 112 62 140 137 103 161 8 98 86 45
split_gain=114139 27843.9 25157.2 7748.17 7252.51 5543.99 4721.04 4535.57 2829.8 2765.61 2590.1 1931.46 1881.46 1865.54 1763.24 1646.29 1570.78 1520.47 1372.06 1150.5 1013.59 982.028 952.878 936.581 931.721 906.561 903.546 880.48 866.545 915.686
threshold=0.090447154471544736 0.14837398373983743 0.061991869918699198 0.12804878048780491 0.037601626016260173 0.19308943089430899 0.11178861788617889 0.73529411764706165 0.66000000000000003 0.078252032520325226 0.086382113821138237 0.12703252032520329 0.045731707317073184 0.36428571428571438 0.049796747967479689 0.45000000000000001 0.082317073170731739 0.076219512195121977 0.82142857142857151 0.83571428571428585 0.34090909090909099 0.15650406504065045 0.42142857142857149 0.54687500000000011 0.29545454545454547 0.018292682926829274 0.095528455284552866 0.082317073170731739 0.76428571428571435 0.49999999999999994
decision_type=2 2 2 2 2 2 2 2 2 2 2 2 2 2 2 2 2 2 2 2 2 2 2 2 2 2 2 2 2 2
left_child=2 6 4 16 12 11 17 10 -7 24 -8 -5 25 15 -6 26 -3 -2 23 -20 -19 -16 -14 -12 -4 -1 -11 -28 -15 -30
right_child=1 3 9 5 14 8 7 -9 -10 13 18 -13 22 28 21 -17 -18 20 19 -21 -22 -23 -24 -25 -26 -27 27 -29 29 -31
leaf_value=-0.12109008538189218 0.02478647592571543 0.068092850682139397 0.0024760485273853028 0.14036739261945089 -0.049708230798817511 0.23184080103412272 0.052627450876122667 0.22560435987654187 0.36949820126805988 0.0080896548140380123 0.060140246841553092 0.25179694016774495 -0.032691461031635602 0.0026969600673371679 -0.029367241092495982 0.12246512960487356 0.14861384622594143 0.068125769772631087 0.20092548560012471 0.098655701604756438 0.037488021028809028 0.038028141415931964 -0.067132661890223197 0.1062368618279969 -0.014597923458004121 -0.080429751639137209 0.0065173673087900331 0.083169472252434873 0.01066487026640347 0.068881944648244167
leaf_count=67 307 50 541 60 544 32 242 21 28 72 74 21 120 521 1253 24 47 232 22 22 202 22 243 109 781 302 22 47 70 44
internal_value=0 7.68862 -2.41699 17.59 -4.53316 22.3224 5.77431 8.18255 29.6081 0.127002 7.53877 16.9257 -7.19112 1.59455 -3.46354 4.59028 10.7108 4.18181 9.96519 14.9791 5.38658 -2.82043 -5.57471 8.75967 -0.761077 -8.78125 3.28709 5.87297 0.816136 3.31346
internal_count=6142 1469 4673 238 2551 141 1231 490 60 2122 469 81 732 800 1819 165 97 741 227 44 434 1275 363 183 1322 369 141 69 635 114
shrinkage=0.01


Tree=9
num_leaves=31
num_cat=0
split_feature=161 161 161 161 143 152 161 113 97 5 123 17 89 152 152 122 161 98 80 28 161 123 5 32 134 8 112 113 121 129
split_gain=111867 27299.3 24662.6 7312.45 5606.61 4787.82 4571.23 3501.47 3876.05 3372.92 3300.13 2509.96 1791.26 1678.97 1673.52 1583.64 1566.22 1527.81 1437.95 1304.28 1263.46 1262.15 1241.67 1171.26 1045.8 948.333 924.008 893.247 887.045 886.406
threshold=0.090447154471544736 0.16869918699186995 0.053861788617886187 0.1239837398373984 0.11178861788617889 0.037601626016260173 0.070121951219512216 0.27857142857142864 0.76086956521739135 0.82142857142857151 0.84042553191489378 0.14430894308943096 0.078252032520325226 0.10365853658536588 0.20934959349593499 0.36428571428571438 0.025406504065040653 0.061991869918699198 0.10772357723577237 0.79166666666666663 0.043699186991869927 0.92021276595744694 0.50714285714285723 0.55000000000000016 0.090447154471544736 0.090447154471544736 0.34090909090909099 0.19285714285714289 0.20454545454545459 0.6066666666666668
decision_type=2 2 2 2 2 2 2 2 2 2 2 2 2 2 2 2 2 2 2 2 2 2 2 2 2 2 2 2 2 2
left_child=2 3 5 11 -3 16 18 8 23 10 -6 17 -8 20 -12 19 -1 27 -4 -14 -7 -13 24 -5 -9 -24 -19 -2 -20 -27
right_child=1 4 6 7 9 13 12 22 -10 -11 14 21 15 -15 -16 -17 -18 26 28 -21 -22 -23 25 -25 -26 29 -28 -29 -30 -31
leaf_value=-0.099858082585282379 0.082735256297247747 0.073350468358168247 -0.020988710439969801 0.15942158133895309 0.2972605814933777 -0.054789105025396162 -0.0014201124105835917 0.0078407335793599479 0.27403211704709313 0.34723746649243614 0.13729400362657462 0.14939010690897703 0.038738929971224731 0.045518693653019991 0.24503081003824873 0.013434449667754811 -0.064699112087827651 0.062537550053604674 0.04813893828789393 0.1246327142688361 -0.034290209362954509 0.069856112992988439 0.079573512004876362 0.062311209906702462 0.081051037425547839 0.06828375365052905 0.038960101199847615 0.014287611900104418 -0.0038062071861302265 0.14345467932762637
leaf_count=182 21 26 1294 27 30 506 798 32 22 22 46 32 90 22 21 434 417 328 45 22 741 53 109 23 50 21 337 207 122 62
internal_value=0 7.61174 -2.39282 6.18513 20.6382 -5.20796 -0.518067 10.1362 16.342 23.5447 21.0093 4.78729 0.812926 -4.10803 17.1062 2.2086 -7.53818 4.29304 -1.74247 5.56109 -4.26081 9.97983 8.50552 11.4751 5.24812 9.8967 5.05893 2.0592 1.0191 12.4436
internal_count=6142 1469 4673 1324 145 1868 2805 346 72 119 97 978 1344 1269 67 546 599 893 1461 112 1247 85 274 50 82 192 665 228 167 83
shrinkage=0.01


Tree=10
num_leaves=31
num_cat=0
split_feature=161 161 161 143 161 161 161 2 25 89 8 8 125 122 80 95 107 80 114 120 156 59 152 8 83 8 98 89 86 115
split_gain=109641 26772.9 24211.9 7483.26 6973.6 5348.44 4560.4 4425.93 2777.87 2662.61 2505.45 1873.43 1838.06 1799.17 1716.07 1608.17 1526.95 1490.83 1345.85 1458.7 1104.59 1076.55 960.837 920.712 914.699 883.892 861.999 859.32 846.823 896.916
threshold=0.090447154471544736 0.14837398373983743 0.061991869918699198 0.12804878048780491 0.037601626016260173 0.19308943089430899 0.11178861788617889 0.73529411764706165 0.86250000000000016 0.078252032520325226 0.086382113821138237 0.11178861788617889 0.043699186991869927 0.36428571428571438 0.049796747967479689 0.45000000000000001 0.082317073170731739 0.082317073170731739 0.84042553191489378 0.70000000000000018 0.28333333333333338 0.70714285714285718 0.099593495934959378 0.061991869918699198 0.48437500000000006 0.095528455284552866 0.082317073170731739 0.025406504065040653 0.76428571428571435 0.80434782608695665
decision_type=2 2 2 2 2 2 2 2 2 2 2 2 2 2 2 2 2 2 2 2 2 2 2 2 2 2 2 2 2 2
left_child=2 6 4 16 12 11 17 10 -7 23 -8 -5 27 15 -6 25 -3 -2 19 -12 -19 -22 -16 -4 -20 -11 -27 -1 -15 -30
right_child=1 3 9 5 14 8 7 -9 -10 13 18 -13 -14 28 22 -17 -18 20 24 -21 21 -23 -24 -25 -26 26 -28 -29 29 -31
leaf_value=-0.11440852235788587 0.02699560385928625 0.066374311509728431 -0.016461524475793372 0.12906272958306705 -0.048830611424363117 0.23686873316764831 0.051509194950349939 0.22228434256144933 0.37681674210921579 0.0076973031544023086 0.20541612886247179 0.22865267848968507 -0.055468975581906062 0.0026218238638824787 -0.028818650647527356 0.12075852369268736 0.14576410086865121 0.12761439096927643 0.12269970290362835 0.10249412948638201 0.03928150504882514 0.077496189441636346 0.035058526471257213 0.00027913653930084089 0.069119241605929249 0.0061220984364097767 0.081965469390629458 -0.078101068286941605 0.014041123933429961 0.07485191644089563
leaf_count=87 377 50 610 51 544 37 242 21 23 72 21 30 385 521 1251 24 47 20 43 40 237 107 24 712 123 22 47 260 79 35
internal_value=0 7.53562 -2.36889 17.2447 -4.44492 21.8955 5.65848 8.0254 29.0515 0.126848 7.38944 16.5948 -7.05128 1.56681 -3.39607 4.50877 10.4842 4.09331 9.77588 13.7926 5.53684 5.1168 -2.76163 -0.744537 8.29985 3.22076 5.77835 -8.72041 0.802368 3.27111
internal_count=6142 1469 4673 238 2551 141 1231 490 60 2122 469 81 732 800 1819 165 97 741 227 61 364 344 1275 1322 166 141 69 347 635 114
shrinkage=0.01


Tree=11
num_leaves=31
num_cat=0
split_feature=161 161 161 143 161 161 152 110 161 102 122 80 8 8 152 161 107 80 140 116 103 161 147 59 95 104 62 152 122 73
split_gain=107523 29255.5 20612.8 7334.34 5949.61 5242.01 4633.63 4384.61 3109.99 2737.52 1987.69 1895.17 1844.48 1770.75 1635.8 1512.13 1496.57 1394.46 1278.79 1331.77 1246.48 1213.56 1036.7 1032.98 1024.03 1013.63 929.891 883.853 879.065 868.759
threshold=0.086382113821138237 0.14837398373983743 0.053861788617886187 0.12804878048780491 0.11178861788617889 0.19308943089430899 0.037601626016260173 0.78125000000000011 0.070121951219512216 0.66000000000000003 0.35000000000000003 0.082317073170731739 0.12703252032520329 0.086382113821138237 0.10365853658536588 0.025406504065040653 0.082317073170731739 0.10772357723577237 0.82142857142857151 0.10772357723577237 0.20454545454545459 0.043699186991869927 0.62333333333333341 0.73571428571428588 0.45000000000000001 0.60714285714285732 0.049796747967479689 0.090447154471544736 0.30714285714285722 0.76562500000000011
decision_type=2 2 2 2 2 2 2 2 2 2 2 2 2 2 2 2 2 2 2 2 2 2 2 2 2 2 2 2 2 2
left_child=2 4 6 16 11 12 15 13 17 -7 24 -2 -5 27 21 -1 -3 28 -15 -20 22 -8 25 -22 -10 -13 -12 -6 -4 -25
right_child=1 3 8 5 7 9 14 -9 10 -11 26 20 -14 18 -16 -17 -18 -19 19 -21 23 -23 -24 29 -26 -27 -28 -29 -30 -31
leaf_value=-0.098043149383840969 0.02323420184896333 0.065710569152235984 0.0068455039285053726 0.1360572865307331 0.015482807998002198 0.22442631885409356 -0.053694606186829426 0.2058202253855192 0.025022922536139101 0.35982059359550478 -0.021420614401609202 0.074603075377386197 0.244948791322254 0.081290898499461375 0.045229750248518857 -0.063496622513952869 0.14430646288902202 0.010097843501382245 0.19901256856464206 0.086391537501698451 0.032651159822777498 -0.033604618508806111 0.053202872562866946 0.097740895462624156 0.092409563586115837 0.16461812181906268 0.0038394156586438579 0.063313254799242269 -0.023081307679872959 0.022558753449808466
leaf_count=182 503 50 107 60 48 32 506 26 170 28 181 29 21 176 22 417 47 167 21 21 268 741 65 51 26 22 748 198 1187 22
internal_value=0 6.79649 -2.57577 17.0722 5.10985 21.6766 -5.10693 7.94514 -0.747386 28.761 0.502338 3.66267 16.4288 7.23704 -4.02486 -7.39932 10.3793 -1.7097 9.31224 14.2702 5.13673 -4.17566 7.96834 4.17349 3.3962 11.3433 -0.108208 5.39805 -2.06067 7.50833
internal_count=6142 1688 4454 238 1450 141 1868 490 2586 60 1125 960 81 464 1269 599 97 1461 218 42 457 1247 116 341 196 51 929 246 1294 73
shrinkage=0.01


Tree=12
num_leaves=31
num_cat=0
split_feature=161 161 161 143 161 161 152 2 161 25 8 122 80 8 152 161 107 80 114 129 103 161 8 95 107 147 59 104 27 83
split_gain=105383 28673.3 20202.6 7188.39 5831.21 5137.69 4541.42 4316.42 3052.75 2702.87 2410.29 2382.47 1857.46 1807.87 1603.25 1482.04 1466.78 1316.42 1311.31 1422.3 1221.68 1189.41 1096.09 1034.21 1040.13 1016.07 1012.42 993.462 907.574 892.875
threshold=0.086382113821138237 0.14837398373983743 0.053861788617886187 0.12804878048780491 0.11178861788617889 0.19308943089430899 0.037601626016260173 0.73529411764706165 0.067073170731707335 0.86250000000000016 0.086382113821138237 0.35000000000000003 0.082317073170731739 0.11178861788617889 0.10365853658536588 0.025406504065040653 0.082317073170731739 0.070121951219512216 0.84042553191489378 0.64666666666666683 0.20454545454545459 0.043699186991869927 0.10772357723577237 0.45000000000000001 0.095528455284552866 0.62333333333333341 0.73571428571428588 0.60714285714285732 0.33823529411764702 0.48437500000000006
decision_type=2 2 2 2 2 2 2 2 2 2 2 2 2 2 2 2 2 2 2 2 2 2 2 2 2 2 2 2 2 2
left_child=2 4 6 16 12 13 15 10 22 -7 -6 23 -2 -5 21 -1 -3 -13 19 -12 25 -8 -4 24 -10 27 -22 -14 -26 -20
right_child=1 3 8 5 7 9 14 -9 11 -11 18 17 20 -15 -16 -17 -18 -19 29 -21 26 -23 -24 -25 28 -27 -28 -29 -30 -31
leaf_value=-0.097062717807161927 0.023001860165616748 0.065053463041782375 -0.024594328192003054 0.12641152910157746 0.050420508176263444 0.23181666747943777 -0.053157661057596388 0.21891910201027279 0.0092915909454226505 0.36986244533372964 0.19749873876571655 -0.013912474725221257 0.073857045559019882 0.22424333906173707 0.044777454408732327 -0.062861656251428227 0.14286339633642361 0.0063661990140193112 0.12043840679664944 0.097865435645768509 0.03232464806795287 -0.033268572287520899 0.006048055363457594 0.079495673503194531 0.0060438274741172792 0.052670844270632816 0.074332431378736075 0.16297194123268127 0.090939109988291467 0.067501009760833369
leaf_count=182 503 50 906 51 242 37 506 21 175 23 23 663 29 30 22 417 47 619 43 38 268 741 134 35 20 65 73 22 34 123
internal_value=0 6.72853 -2.55001 16.9015 5.05876 21.4598 -5.05586 7.86569 -0.739912 28.4734 7.23765 0.151222 3.62605 16.2646 -3.98461 -7.32533 10.2755 -0.412113 9.57834 13.5432 5.08536 -4.1339 -2.06462 2.88681 2.11303 7.88866 4.13175 11.2299 5.94964 8.12137
internal_count=6142 1688 4454 238 1450 141 1868 490 2586 60 469 1546 960 81 1269 599 97 1282 227 61 457 1247 1040 264 229 116 341 51 54 166
shrinkage=0.01


Tree=13
num_leaves=31
num_cat=0
split_feature=161 161 161 161 161 35 115 113 135 89 17 89 116 122 80 95 98 41 5 103 105 134 146 62 140 103 68 8 122 129
split_gain=103318 25202 22834.4 6816.37 6583.81 5264.71 4105.37 3365.38 3798.64 2549.44 2392.8 2269.89 1777.97 1716.12 1659.32 1543.43 1463.02 1234.2 1225.86 1203.1 1150.24 1005.08 966.146 943.627 923.689 900.034 894.169 885.344 868.986 859.853
threshold=0.090447154471544736 0.16869918699186995 0.061991869918699198 0.1239837398373984 0.037601626016260173 0.095528455284552866 0.76086956521739135 0.27857142857142864 0.56944444444444442 0.078252032520325226 0.14430894308943096 0.076219512195121977 0.045731707317073184 0.36428571428571438 0.049796747967479689 0.45000000000000001 0.061991869918699198 0.37857142857142861 0.50714285714285723 0.20454545454545459 0.91847826086956541 0.090447154471544736 0.67187500000000011 0.15650406504065045 0.42142857142857149 0.29545454545454547 0.76428571428571435 0.090447154471544736 0.76428571428571435 0.6066666666666668
decision_type=2 2 2 2 2 2 2 2 2 2 2 2 2 2 2 2 2 2 2 2 2 2 2 2 2 2 2 2 2 2
left_child=2 3 4 10 12 11 19 8 22 25 16 -3 -1 15 -6 -11 -2 -12 21 -7 -13 -9 -5 -16 -14 -4 -18 -20 -28 -29
right_child=1 5 9 7 14 6 -8 18 -10 13 17 20 24 -15 23 -17 26 -19 27 -21 -22 -23 -24 -25 -26 -27 28 29 -30 -31
leaf_value=-0.083939312387732307 0.019262641017374241 0.045303973087242676 0.0026284910537398899 0.071791639564366183 -0.047587605109712217 0.25668350674889306 0.34982001015650377 0.0054755811928771441 0.26444964579913927 0.031445995097887432 0.15739659152925015 0.22760537958145144 -0.03006843871374925 0.0078657176492251749 -0.027866944701240622 0.11819622162729503 0.043370536363445754 0.072745669396197213 0.07668874890705861 0.1599900124534484 0.1239122690325198 0.077246280264854431 0.16213689935207368 0.038197585662657567 -0.063978022254788824 -0.014152636483750486 0.095172207922571236 0.064730939070383714 0.037497236128078731 0.13876739783633141
leaf_count=369 228 21 541 29 544 22 28 32 23 141 24 20 120 635 1253 24 552 61 109 31 23 50 20 22 243 781 72 21 41 62
internal_value=0 7.31511 -2.29957 5.94439 -4.31568 19.8311 25.1873 9.75912 15.8431 0.124134 4.59481 13.0523 -6.84815 1.53317 -3.29657 4.40642 4.11223 9.66471 8.16041 20.0127 17.2142 4.92382 10.8667 -2.6727 -5.27682 -0.728532 4.8617 9.54271 7.42459 12.0035
internal_count=6142 1469 4673 1324 2551 145 81 346 72 2122 978 64 732 800 1819 165 893 85 274 53 43 82 49 1275 363 1322 665 192 113 83
shrinkage=0.01


Tree=14
num_leaves=31
num_cat=0
split_feature=161 161 161 143 161 161 152 110 161 133 122 80 8 8 152 161 107 80 140 116 103 161 152 147 59 104 62 152 121 122
split_gain=101308 27541 19430.6 6962.88 5617.74 4959.43 4395.39 4235.15 2955.39 2656.37 1888.1 1800.31 1761.73 1680.46 1568.55 1434.04 1411.76 1344.93 1240.34 1288.9 1188.98 1141.75 1004.91 998.974 986.665 972.49 902.362 858.098 855.146 849.837
threshold=0.086382113821138237 0.14837398373983743 0.053861788617886187 0.12804878048780491 0.11178861788617889 0.19308943089430899 0.037601626016260173 0.78125000000000011 0.070121951219512216 0.72916666666666674 0.35000000000000003 0.082317073170731739 0.12703252032520329 0.086382113821138237 0.10365853658536588 0.025406504065040653 0.082317073170731739 0.10772357723577237 0.82142857142857151 0.10772357723577237 0.20454545454545459 0.043699186991869927 0.067073170731707335 0.62333333333333341 0.73571428571428588 0.60714285714285732 0.049796747967479689 0.090447154471544736 0.20454545454545459 0.30714285714285722
decision_type=2 2 2 2 2 2 2 2 2 2 2 2 2 2 2 2 2 2 2 2 2 2 2 2 2 2 2 2 2 2
left_child=2 4 6 16 11 12 15 13 17 -7 22 -2 -5 27 21 -1 -3 29 -15 -20 23 -8 -10 25 -22 -13 -12 -6 -19 -4
right_child=1 3 8 5 7 9 14 -9 10 -11 26 20 -14 18 -16 -17 -18 28 19 -21 24 -23 -24 -25 -26 -27 -28 -29 -30 -31
leaf_value=-0.095324740850745326 0.02249129014322997 0.063472284138202661 0.0069138654161279445 0.13190066145857177 0.014350713836417225 0.22698288231282621 -0.052094492546536711 0.20135380304776707 0.00099152781183903032 0.36383615369382116 -0.021053502312681292 0.072662506576242111 0.23832168828873407 0.07876192788170143 0.044664390466429976 -0.06168213786910192 0.13980870742113033 0.047335632516278155 0.19463971126647223 0.083845973241896868 0.031625912449975958 -0.032608008026754967 0.049086513159839251 0.051572235941886903 0.073095840426952871 0.1608317960392345 0.003829809504157719 0.061479121211991464 -0.0036669580711693062 -0.022511213692980047
leaf_count=182 503 50 107 60 48 37 506 26 65 23 181 29 21 176 22 417 47 45 21 21 268 741 131 65 73 22 748 198 122 1187
internal_value=0 6.59714 -2.50022 16.5672 4.96067 21.0535 -4.95772 7.71575 -0.725039 27.9443 0.493226 3.55443 15.9491 7.01983 -3.90384 -7.19041 10.046 -1.66313 9.04142 13.9243 4.99113 -4.05151 3.31366 7.75664 4.05036 11.0696 -0.101828 5.22833 1.00763 -2.00781
internal_count=6142 1688 4454 238 1450 141 1868 490 2586 60 1125 960 81 464 1269 599 97 1461 218 42 457 1247 196 116 341 51 929 246 167 1294
shrinkage=0.01


Tree=15
num_leaves=31
num_cat=0
split_feature=161 161 161 143 161 161 152 2 161 25 8 122 80 8 152 161 107 80 114 120 103 80 152 18 59 62 83 73 121 79
split_gain=99292 26992.9 19044 6824.31 5505.95 4860.74 4307.92 4196.98 2896.57 2635.42 2293.98 1850.53 1764.48 1726.68 1537.33 1405.5 1383.66 1318.17 1274.95 1392.26 1165.31 1121.19 984.915 981.13 967.031 884.405 872.515 847.308 838.129 835.002
threshold=0.086382113821138237 0.14837398373983743 0.053861788617886187 0.12804878048780491 0.11178861788617889 0.19308943089430899 0.037601626016260173 0.73529411764706165 0.070121951219512216 0.86250000000000016 0.086382113821138237 0.35000000000000003 0.082317073170731739 0.12703252032520329 0.10365853658536588 0.025406504065040653 0.082317073170731739 0.10772357723577237 0.84042553191489378 0.70000000000000018 0.20454545454545459 0.041666666666666678 0.067073170731707335 0.49999999999999994 0.73571428571428588 0.049796747967479689 0.48437500000000006 0.76562500000000011 0.20454545454545459 0.80434782608695665
decision_type=2 2 2 2 2 2 2 2 2 2 2 2 2 2 2 2 2 2 2 2 2 2 2 2 2 2 2 2 2 2
left_child=2 4 6 16 12 13 15 10 17 -7 -6 22 -2 -5 21 -1 -3 -4 19 -12 23 -8 -10 -14 -22 -13 -20 -26 -19 -24
right_child=1 3 8 5 7 9 14 -9 11 -11 18 25 20 -15 -16 -17 -18 28 26 -21 24 -23 29 -25 27 -27 -28 -29 -30 -31
leaf_value=-0.094371494058581015 0.022266377420747881 0.062837561923265464 -0.01987729297572649 0.13058165469765665 0.048773365564252762 0.22439575227531225 -0.058363154767256863 0.2146938707714989 0.00098161180245761692 0.36070824125538697 0.1980582853158315 -0.020842967336349067 0.10166187826599649 0.23593846820649644 0.044217747178944673 -0.061065317446665227 0.13841062015041392 0.046862276862064997 0.11743679083363955 0.097507571354508396 0.031309653703564665 -0.035184203314684075 0.036032454493499941 0.042783361174622357 0.094741039572685384 0.0037915115960858725 0.065106432639001829 0.020492878126149829 -0.0036302890872857607 0.099331621516209376
leaf_count=182 503 50 1294 60 242 37 265 21 65 23 21 181 67 21 22 417 47 45 43 40 268 982 105 49 51 748 123 22 122 26
internal_value=0 6.53117 -2.47522 16.4016 4.91107 20.8429 -4.90815 7.6386 -0.717788 27.6649 7.01931 0.488294 3.51889 15.7896 -3.8648 -7.11851 9.94554 -1.6465 9.30282 13.2123 4.94122 -4.011 3.28053 7.67908 4.00986 -0.10081 7.86619 7.23649 0.997549 4.85956
internal_count=6142 1688 4454 238 1450 141 1868 490 2586 60 469 1125 960 81 1269 599 97 1461 227 61 457 1247 196 116 341 929 166 73 167 131
shrinkage=0.01


Tree=16
num_leaves=31
num_cat=0
split_feature=161 161 161 161 161 35 115 113 97 89 17 89 125 122 98 95 98 54 5 103 105 32 134 152 112 103 38 73 113 8
split_gain=97357.7 23737.3 21556.3 6452.06 6232.85 5043.05 3956.44 3258.05 3775.26 2444.61 2296.9 2170.92 1720.76 1638.13 1612.3 1498.47 1410.45 1215.98 1207.36 1161.82 1116.65 1092.81 969.55 899.785 882.209 875.317 854.704 849.638 848.806 847.794
threshold=0.090447154471544736 0.16869918699186995 0.061991869918699198 0.1239837398373984 0.037601626016260173 0.095528455284552866 0.76086956521739135 0.27857142857142864 0.76086956521739135 0.078252032520325226 0.14430894308943096 0.076219512195121977 0.043699186991869927 0.36428571428571438 0.049796747967479689 0.45000000000000001 0.061991869918699198 0.36764705882352938 0.50714285714285723 0.20454545454545459 0.91847826086956541 0.55000000000000016 0.090447154471544736 0.095528455284552866 0.34090909090909099 0.29545454545454547 0.54687500000000011 0.73437500000000011 0.3357142857142858 0.095528455284552866
decision_type=2 2 2 2 2 2 2 2 2 2 2 2 2 2 2 2 2 2 2 2 2 2 2 2 2 2 2 2 2 2
left_child=2 3 4 10 12 11 19 8 21 25 16 -3 -1 15 -6 29 28 -12 22 -7 -13 -5 -9 -16 -18 -4 27 -20 -2 -11
right_child=1 5 9 7 14 6 -8 18 -10 13 17 20 -14 -15 23 -17 24 -19 26 -21 -22 -23 -24 -25 -26 -27 -28 -29 -30 -31
leaf_value=-0.082701624091660944 0.060860283469590243 0.042791737147739956 0.0026536468645065414 0.14979902982711793 -0.046638822478655362 0.24967918417670512 0.34105430808450493 0.0039875901886261998 0.26384679358791219 0.0066583572317742631 0.14057254060226329 0.22148133277893067 -0.05199582953673678 0.0077296813972529002 -0.02743996074398548 0.11614036900922656 0.05888217287319826 0.063366941821341422 0.12749208123595626 0.15465913882178645 0.11931353962939718 0.05599727848301763 0.074478330270946025 0.020743224611505868 0.035844182625569425 -0.013895444349313057 0.12230072622345045 0.064274648326635361 0.0096203717150819042 0.055711177427227192
leaf_count=347 39 21 541 27 532 22 28 32 22 72 34 20 385 635 1247 24 328 51 27 31 23 23 50 40 337 781 65 100 189 69
internal_value=0 7.10096 -2.23225 5.77068 -4.19113 19.2478 24.49 9.48207 15.4683 0.122642 4.45765 12.6132 -6.65517 1.5024 -3.19955 4.3096 3.98484 9.42492 7.90906 19.4101 16.6833 10.665 4.69697 -2.59424 4.72073 -0.712309 9.28088 7.77146 1.83851 3.06629
internal_count=6142 1469 4673 1324 2551 145 81 346 72 2122 978 64 732 800 1819 165 893 85 274 53 43 50 82 1287 665 1322 192 127 228 141
shrinkage=0.01


Tree=17
num_leaves=31
num_cat=0
split_feature=161 161 161 143 161 161 152 110 161 102 122 80 8 8 152 161 107 80 140 116 112 161 152 62 137 41 9 152 152 122
split_gain=95451.4 25944.8 18318.8 6613.77 5302.05 4685.45 4172.14 4100.2 2794.49 2586.4 1791.81 1711.18 1674.51 1597.53 1494.12 1360.32 1332.8 1280.14 1200.69 1255.27 1132.34 1092.77 958.594 863.588 859.048 1024.58 856.479 868.716 832.505 826.166
threshold=0.086382113821138237 0.14837398373983743 0.053861788617886187 0.12804878048780491 0.11178861788617889 0.19308943089430899 0.037601626016260173 0.78125000000000011 0.070121951219512216 0.66000000000000003 0.35000000000000003 0.082317073170731739 0.12703252032520329 0.086382113821138237 0.10365853658536588 0.025406504065040653 0.082317073170731739 0.10772357723577237 0.82142857142857151 0.10772357723577237 0.34090909090909099 0.043699186991869927 0.067073170731707335 0.049796747967479689 0.54687500000000011 0.70714285714285718 0.56944444444444442 0.086382113821138237 0.090447154471544736 0.30714285714285722
decision_type=2 2 2 2 2 2 2 2 2 2 2 2 2 2 2 2 2 2 2 2 2 2 2 2 2 2 2 2 2 2
left_child=2 4 6 16 11 12 15 13 17 -7 22 -2 -5 28 21 -1 -3 29 -15 -20 26 -8 -10 -12 -22 -26 27 -13 -6 -4
right_child=1 3 8 5 7 9 14 -9 10 -11 23 20 -14 18 -16 -17 -18 -19 19 -21 24 -23 -24 -25 25 -27 -28 -29 -30 -31
leaf_value=-0.092693554654609989 0.021765310055197627 0.061309801220893863 0.0070963687052793588 0.12801566677292189 0.013240754487924278 0.21009086258709431 -0.050632170576293004 0.19711975372754612 0.00089427421886760451 0.3416950299910137 -0.020582773572667527 0.041106425098916315 0.23176884401412237 0.076317029862918648 0.043830207152800123 -0.059927023506993589 0.13548077267535191 0.0099019887423265479 0.19049261376971291 0.081153773580278671 0.011218359063840607 -0.031568209297060161 0.04786778642589809 0.0037600621722519078 0.034916434657222474 0.10480732005900117 0.036104136749108631 0.092399289938243659 0.059661041591786826 -0.021916030946613027
leaf_count=182 503 50 107 60 48 32 506 26 65 28 181 47 21 176 22 417 47 167 21 21 103 741 131 748 94 27 75 111 198 1187
internal_value=0 6.40361 -2.42687 16.0805 4.81527 20.4528 -4.81303 7.49182 -0.70323 27.1506 0.481409 3.44912 15.4915 6.80707 -3.78626 -6.98828 9.72483 -1.61543 8.77815 13.5823 4.8498 -3.93039 3.22898 -0.0982729 3.24439 5.05119 6.39319 7.71413 5.06034 -1.9517
internal_count=6142 1688 4454 238 1450 141 1868 490 2586 60 1125 960 81 464 1269 599 97 1461 218 42 457 1247 196 929 224 121 233 158 246 1294
shrinkage=0.01


Tree=18
num_leaves=31
num_cat=0
split_feature=161 161 161 161 161 152 113 32 45 86 89 17 132 116 122 80 95 116 98 5 89 123 38 62 8 112 73 8 113 8
split_gain=93558.1 22826.6 20736.3 6898.78 5993.14 5249.9 4063.42 4042.99 3296.08 3020.45 2370.51 2224.89 1869.44 1678.14 1582.62 1571.68 1465.87 1460.73 1369.29 1264.33 1242.99 1190.23 957.152 905.83 864.593 853.725 852.815 852.06 829.384 827.44
threshold=0.090447154471544736 0.17276422764227647 0.061991869918699198 0.1239837398373984 0.037601626016260173 0.13211382113821143 0.27857142857142864 0.47857142857142859 0.33823529411764702 0.76428571428571435 0.078252032520325226 0.14430894308943096 0.84042553191489378 0.043699186991869927 0.36428571428571438 0.049796747967479689 0.45000000000000001 0.17276422764227647 0.061991869918699198 0.50714285714285723 0.090447154471544736 0.92021276595744694 0.54687500000000011 0.15650406504065045 0.061991869918699198 0.34090909090909099 0.73437500000000011 0.018292682926829274 0.3357142857142858 0.095528455284552866
decision_type=2 2 2 2 2 2 2 2 2 2 2 2 2 2 2 2 2 2 2 2 2 2 2 2 2 2 2 2 2 2
left_child=2 3 4 11 13 -3 7 8 -5 12 24 18 -7 27 16 -6 29 20 28 -8 -14 -13 26 -17 -4 -20 -21 -1 -2 -12
right_child=1 5 10 6 15 9 19 -9 -10 -11 14 21 17 -15 -16 23 -18 -19 25 22 -22 -23 -24 -25 -26 -27 -28 -29 -30 -31
leaf_value=-0.12866111291779411 0.059875259810151196 0.065233930846055346 -0.015744946779164135 0.13032553575255654 -0.045602460124064235 0.28680937409400942 0.045066720564988838 0.076118107348680492 0.29978317757447559 0.33980269610881808 0.0063815285058485141 0.14073582161800005 0.15206129708886149 -0.052279887766846556 0.0076313283207613651 -0.026417081581498515 0.11463871627328141 0.10528345334529877 0.057772187742790797 0.125268475567853 0.26098754676905545 0.06350132997024735 0.12189271176290331 0.038310834638435737 0.00047751400577888064 0.035109155198244119 0.062192403175509892 -0.076913607399230893 0.0092249715022703332 0.05484194124144489
leaf_count=36 39 24 610 22 544 20 87 35 24 20 72 32 20 422 635 1253 24 20 328 27 22 53 66 22 712 337 104 274 189 69
internal_value=0 6.96102 -2.18826 5.7536 -4.10952 19.8305 9.46358 15.7112 21.8738 22.9616 0.121412 4.369 20.2742 -6.52572 1.4801 -3.13719 4.23933 17.5623 3.90366 7.68168 20.9118 9.25778 9.08385 -2.53002 -0.700789 4.62873 7.51928 -8.2923 1.78888 3.00962
internal_count=6142 1469 4673 1343 2551 126 365 81 46 102 2122 978 82 732 800 1819 165 62 893 284 42 85 197 1275 1322 665 131 310 228 141
shrinkage=0.01


Tree=19
num_leaves=31
num_cat=0
split_feature=161 161 161 143 161 161 2 152 161 133 8 122 80 8 152 161 107 8 114 129 140 103 80 147 104 59 152 83 80 73
split_gain=91760.4 24930.9 17618.3 6401.36 5106.09 4513.73 4064.52 4036.59 2696.92 2560.24 2162.44 1734.52 1659.2 1622.3 1463.06 1310.61 1286.24 1259.88 1231.39 1348.06 1196.72 1108.61 1070.34 966.161 942.88 932.883 932.69 848.239 844.587 819.419
threshold=0.086382113821138237 0.14837398373983743 0.053861788617886187 0.12804878048780491 0.11178861788617889 0.19308943089430899 0.73529411764706165 0.037601626016260173 0.070121951219512216 0.72916666666666674 0.086382113821138237 0.35000000000000003 0.082317073170731739 0.11178861788617889 0.10365853658536588 0.025406504065040653 0.082317073170731739 0.095528455284552866 0.84042553191489378 0.64666666666666683 0.22142857142857145 0.20454545454545459 0.041666666666666678 0.62333333333333341 0.60714285714285732 0.73571428571428588 0.067073170731707335 0.48437500000000006 0.070121951219512216 0.76562500000000011
decision_type=2 2 2 2 2 2 2 2 2 2 2 2 2 2 2 2 2 2 2 2 2 2 2 2 2 2 2 2 2 2
left_child=2 4 7 16 12 13 10 15 17 -7 -6 26 -2 -5 22 -1 -3 -4 19 -12 -19 23 -9 24 -14 -23 -10 -20 -13 -27
right_child=1 3 8 5 6 9 -8 14 11 -11 18 28 21 -15 -16 -17 -18 20 27 -21 -22 25 -24 -25 -26 29 -28 -29 -30 -31
leaf_value=-0.090982022654715472 0.021278090074910203 0.059811942678689958 -0.02028403530085162 0.11764025941783307 0.046591186655823853 0.21489698184503092 0.20958998470079329 -0.056356956798583269 0.00081095610272425872 0.34925129009329753 0.18840503817019255 -0.01054321262195255 0.06943663278401925 0.21031523084640505 0.04374304489655928 -0.058819813141219618 0.13267588024443769 0.063167598292231564 0.11367144818915877 0.091406793719843824 -0.0038073532153461982 0.029885042136006838 -0.033709658207087316 0.048741998837544369 0.15625325929034842 0.092213709161562074 0.047145455304732312 0.062074207348552179 0.0085267853834197667 0.019197714210233904
leaf_count=182 503 50 1190 51 242 37 21 265 65 23 23 462 29 30 22 417 47 30 43 38 241 268 982 65 22 51 131 123 467 22
internal_value=0 6.27858 -2.37949 15.7645 4.72159 20.066 7.34821 -4.71958 -0.689124 26.6399 6.73877 0.47465 3.38091 15.1964 -3.70962 -6.8592 9.51171 -1.58525 8.95585 12.798 0.360685 4.76015 -3.85224 7.43057 10.6887 3.85174 3.17794 7.54398 -0.0956895 7.02089
internal_count=6142 1688 4454 238 1450 141 490 1868 2586 60 469 1125 960 81 1269 599 97 1461 227 61 271 457 1247 116 51 341 196 166 929 73
shrinkage=0.01


Tree=20
num_leaves=31
num_cat=0
split_feature=161 161 161 143 161 161 2 152 161 25 8 122 80 8 152 161 107 140 80 103 131 71 8 62 98 147 104 59 137 41
split_gain=89934.3 24434.8 17267.7 6273.98 5004.48 4423.91 3983.63 3956.26 2655.06 2534.41 2119.41 2100.6 1626.18 1594.97 1433.95 1284.53 1260.64 1211.13 1210.4 1086.55 1075.64 1058.39 1027.34 954.51 1023.09 946.934 924.116 914.319 874.392 840.49
threshold=0.086382113821138237 0.14837398373983743 0.053861788617886187 0.12804878048780491 0.11178861788617889 0.19308943089430899 0.73529411764706165 0.037601626016260173 0.067073170731707335 0.86250000000000016 0.086382113821138237 0.35000000000000003 0.082317073170731739 0.12703252032520329 0.10365853658536588 0.025406504065040653 0.082317073170731739 0.82142857142857151 0.070121951219512216 0.20454545454545459 0.83571428571428585 0.043699186991869927 0.10772357723577237 0.049796747967479689 0.082317073170731739 0.62333333333333341 0.60714285714285732 0.73571428571428588 0.54687500000000011 0.36428571428571438
decision_type=2 2 2 2 2 2 2 2 2 2 2 2 2 2 2 2 2 2 2 2 2 2 2 2 2 2 2 2 2 2
left_child=2 4 7 16 12 13 10 15 22 -7 -6 23 -2 -5 21 -1 -3 28 -13 25 -19 -9 -4 -10 -25 26 -14 -21 -12 -26
right_child=1 3 8 5 6 9 -8 14 11 -11 17 18 19 -15 -16 -17 -18 20 -20 27 -22 -23 -24 24 29 -27 -28 -29 -30 -31
leaf_value=-0.090072201942349536 0.02106530929565667 0.059213822954893115 -0.022998770378965878 0.12419234691063563 0.046125274873223189 0.21249351611008516 0.20749409056845167 -0.054687164812774983 0.090239538780667566 0.34616818697556206 0.050807479893839033 -0.01319006576628437 0.068742267509986618 0.22545134112948464 0.043305613073435695 -0.058231614248858365 0.13134912128144122 0.18521269332278859 0.0062548526180291218 0.029586191736717723 0.08632613482800397 -0.033008812884095774 0.0066671471764792253 0.0056204076492423682 0.012414496009679216 0.048254578315294706 0.15469072439453818 0.069506800031825286 0.09534741557656079 0.074286495959654877
leaf_count=182 503 50 906 60 242 37 21 295 22 23 74 663 29 21 22 417 47 22 619 268 22 952 134 152 38 65 22 73 109 52
internal_value=0 6.2158 -2.35569 15.6068 4.67437 19.8654 7.27473 -4.67238 -0.682232 26.3735 6.67138 0.148833 3.34711 15.0445 -3.67253 -6.7906 9.4166 8.86629 -0.380129 4.71255 13.5769 -3.81372 -1.91764 2.71751 2.14419 7.35627 10.5818 3.81322 7.73367 4.81628
internal_count=6142 1688 4454 238 1450 141 490 1868 2586 60 469 1546 960 81 1269 599 97 227 1282 457 44 1247 1040 264 242 116 51 341 183 90
shrinkage=0.01


Tree=21
num_leaves=31
num_cat=0
split_feature=161 161 161 161 161 152 113 116 5 89 17 132 41 62 98 122 95 98 5 54 116 38 152 103 68 122 73 161 86 45
split_gain=88162.2 21510.7 19554.7 6531.77 5697.34 5019 3927.73 3971.11 2979.74 2269.76 2139.92 2033.14 1697.03 1631.68 1531.26 1512.68 1429.26 1321.23 1248.36 1176.22 1053.02 924.001 846.035 843.223 833.234 844.762 826.781 809.672 808.678 891.01
threshold=0.090447154471544736 0.17276422764227647 0.061991869918699198 0.1239837398373984 0.037601626016260173 0.13211382113821143 0.27857142857142864 0.12703252032520329 0.82142857142857151 0.078252032520325226 0.14430894308943096 0.84042553191489378 0.55000000000000016 0.041666666666666678 0.049796747967479689 0.36428571428571438 0.45000000000000001 0.061991869918699198 0.50714285714285723 0.36764705882352938 0.16869918699186995 0.54687500000000011 0.095528455284552866 0.29545454545454547 0.76428571428571435 0.76428571428571435 0.73437500000000011 0.025406504065040653 0.76428571428571435 0.49999999999999994
decision_type=2 2 2 2 2 2 2 2 2 2 2 2 2 2 2 2 2 2 2 2 2 2 2 2 2 2 2 2 2 2
left_child=2 3 4 10 13 -3 7 12 11 23 17 -7 -5 27 -6 16 -11 -2 -8 -12 -13 26 -16 -4 -19 -26 -20 -1 -17 -30
right_child=1 5 9 6 14 8 18 -9 -10 15 19 20 -14 -15 22 28 -18 24 21 -21 -22 -23 -24 -25 25 -27 -28 -29 29 -31
leaf_value=-0.10048344648361207 0.017042315099470056 0.062391693529983361 0.0027372808327688364 0.16186831091389511 -0.044689647842170603 0.28129103456224719 0.042883635087516803 0.27565802592039107 0.33255963647365572 0.029315036965388779 0.1358842701442978 0.20067187879536605 0.056022396172795981 -0.050589389166306883 -0.025972241956618135 0.0021935618498618225 0.11279507582386336 0.039873404157739406 0.12229833905343655 0.059951444251426296 0.11562123025457063 0.11887700142254205 0.020749616075307131 -0.013505594277809282 0.090310734158588771 0.033445326322462499 0.060192519455897403 -0.067609187692085057 0.0094324417859315869 0.066859745566140522
leaf_count=125 228 24 541 33 532 21 87 20 20 141 34 37 28 420 1247 521 24 552 27 51 24 66 40 781 72 41 104 187 70 44
internal_value=0 6.7573 -2.12422 5.5852 -3.98993 19.2504 9.19514 15.3376 22.3118 0.118683 4.23793 19.6425 11.3283 -6.34575 -3.04191 1.44818 4.14576 3.78157 7.44325 9.03246 16.7209 8.83653 -2.45201 -0.685855 4.4938 6.96782 7.2993 -8.078 0.747236 3.15974
internal_count=6142 1469 4673 1343 2551 126 365 81 102 2122 978 82 61 732 1819 800 165 893 284 85 61 197 1287 1322 665 113 131 312 635 114
shrinkage=0.01


Tree=22
num_leaves=31
num_cat=0
split_feature=161 161 161 143 161 161 110 152 161 133 122 80 8 8 152 116 80 107 140 116 112 80 62 122 137 41 62 50 156 152
split_gain=86454.1 23481.1 16610 6061.31 4820.33 4287.98 3920.11 3830.31 2563.61 2493.31 1649.02 1576.53 1544.64 1475.29 1394.05 1257.69 1221.98 1217.12 1135.47 1210.1 1066.95 1028.26 918.459 901.82 837.024 982.605 827.333 824.831 827.008 799.204
threshold=0.086382113821138237 0.14837398373983743 0.053861788617886187 0.12804878048780491 0.11178861788617889 0.19308943089430899 0.78125000000000011 0.037601626016260173 0.070121951219512216 0.72916666666666674 0.35000000000000003 0.082317073170731739 0.12703252032520329 0.086382113821138237 0.10365853658536588 0.025406504065040653 0.11178861788617889 0.082317073170731739 0.82142857142857151 0.10772357723577237 0.34090909090909099 0.041666666666666678 0.055894308943089444 0.30714285714285722 0.54687500000000011 0.70714285714285718 0.049796747967479689 0.76428571428571435 0.32666666666666672 0.090447154471544736
decision_type=2 2 2 2 2 2 2 2 2 2 2 2 2 2 2 2 2 2 2 2 2 2 2 2 2 2 2 2 2 2
left_child=2 4 7 17 11 12 13 15 16 -7 22 -2 -5 29 21 -1 23 -3 -15 -20 27 -9 -10 -4 -22 -26 -12 28 -13 -6
right_child=1 3 8 5 6 9 -8 14 10 -11 26 20 -14 18 -16 -17 -18 -19 19 -21 24 -23 -24 -25 25 -27 -28 -29 -30 -31
leaf_value=-0.095610592643419909 0.020591897580098682 0.057815235465764996 0.0085284109027083735 0.12156284085909526 0.011264673539747794 0.20810955356907201 0.19084134266926694 -0.054852547275851357 0.095236928850412378 0.34069607216378922 -0.020082583654651324 0.11223244923353196 0.22121147564479285 0.072451118621551847 0.042929533747109498 -0.059407757669706712 0.011922194923141173 0.12869432175797013 0.18399539482025873 0.076642085696969717 0.0097159233316779139 -0.032654938184923654 0.023723652485482902 -0.021020864226873177 0.033229864230181309 0.10167400424127225 0.0037437953670474301 0.097692787890531596 0.044119925527129233 0.056747059743813798
leaf_count=120 503 50 113 60 48 37 26 265 20 23 181 20 21 176 22 479 147 47 21 21 103 982 176 1201 94 27 748 49 164 198
internal_value=0 6.09434 -2.30967 15.3003 4.5833 19.486 7.13536 -4.58181 -0.668379 25.8934 0.466268 3.28068 14.7398 6.46582 -3.598 -6.66604 -1.54208 9.21587 8.35999 13.0319 4.62512 -3.73722 3.10209 -1.84797 3.06676 4.85025 -0.0898373 6.12329 5.15235 4.78724
internal_count=6142 1688 4454 238 1450 141 490 1868 2586 60 1125 960 81 464 1269 599 1461 97 218 42 457 1247 196 1314 224 121 929 233 184 246
shrinkage=0.01


Tree=23
num_leaves=31
num_cat=0
split_feature=161 161 161 143 161 161 2 161 89 25 8 122 80 8 80 161 114 120 107 151 112 44 86 152 103 83 137 41 9 152
split_gain=84733.7 23013.8 16279.5 5940.69 4724.4 4202.65 3859.67 3768.06 2521.86 2477.09 2022.5 1598.14 1545.16 1519.68 1399.55 1373.61 1193.23 1308.74 1192.9 1163.19 1045.72 1012.88 942.869 895.92 835.591 824.224 820.367 963.051 815.74 834.054
threshold=0.086382113821138237 0.14837398373983743 0.053861788617886187 0.12804878048780491 0.11178861788617889 0.19308943089430899 0.73529411764706165 0.030487804878048787 0.078252032520325226 0.86250000000000016 0.086382113821138237 0.36428571428571438 0.082317073170731739 0.11178861788617889 0.043699186991869927 0.067073170731707335 0.84042553191489378 0.70000000000000018 0.082317073170731739 0.1521739130434783 0.34090909090909099 0.041666666666666678 0.76428571428571435 0.064024390243902454 0.34090909090909099 0.48437500000000006 0.54687500000000011 0.70714285714285718 0.56944444444444442 0.086382113821138237
decision_type=2 2 2 2 2 2 2 2 2 2 2 2 2 2 2 2 2 2 2 2 2 2 2 2 2 2 2 2 2 2
left_child=2 4 7 18 12 13 10 21 15 -7 -6 19 -2 -5 -9 24 17 -12 -3 -10 28 -1 -13 -16 -4 -18 -22 -28 29 -14
right_child=1 3 8 5 6 9 -8 14 11 -11 16 22 20 -15 23 -17 25 -19 -20 -21 26 -23 -24 -25 -26 -27 27 -29 -30 -31
leaf_value=-0.09300948310936942 0.02038597815745986 0.057237083669006823 -0.010218937571408151 0.11270296534048577 0.044588913923699007 0.20568585492469169 0.2032737746692839 -0.055126108518894268 0.1001928416842028 0.33784025555071623 0.18789098052751449 -0.0048362750093922146 0.03820330094466818 0.20239893611272178 -0.038506068272013083 -0.0060097725206251116 0.10993097497280253 0.090402618110179897 0.12740737821391604 0.023919566617852529 0.009618764040105551 -0.058842894019243495 0.025432925845286058 -0.018694156092957041 -0.032494466038785356 0.059069388430353593 0.032897565757974666 0.1006572632988294 0.033462687285741172 0.088462469097193297
leaf_count=165 503 50 267 51 242 37 21 382 23 23 21 605 47 30 822 958 43 40 47 153 103 183 124 316 456 123 94 27 75 111
internal_value=0 6.0334 -2.28657 15.1473 4.53746 19.2912 7.06401 -4.53599 -0.661695 25.6345 6.47013 0.684184 3.24787 14.5924 -3.85642 -1.38628 8.61427 12.3964 9.12371 3.38871 4.57887 -7.50426 0.0312396 -3.30047 -2.42682 7.22444 3.03609 4.80175 6.06206 7.3512
internal_count=6142 1688 4454 238 1450 141 490 1868 2586 60 469 905 960 81 1520 1681 227 61 97 176 457 348 729 1138 723 166 224 121 233 158
shrinkage=0.01


Tree=24
num_leaves=31
num_cat=0
split_feature=161 161 161 161 161 152 113 91 5 89 8 132 125 98 39 122 89 95 5 114 116 113 38 143 8 80 134 73 8 98
split_gain=83069.6 20271.3 18462 6179.7 5409.94 4798.87 3802.28 3842.45 2901.08 2167.33 2064.47 1962.33 1571.51 1467.89 1463.33 1438.45 1430.69 1398.81 1231.29 1089.08 1043.21 914.721 893.393 860.689 824.74 823.542 1289.05 801.52 799.154 811.038
threshold=0.090447154471544736 0.17276422764227647 0.061991869918699198 0.1239837398373984 0.037601626016260173 0.13211382113821143 0.27857142857142864 0.76562500000000011 0.82142857142857151 0.078252032520325226 0.082317073170731739 0.84042553191489378 0.043699186991869927 0.049796747967479689 0.86217948717948723 0.36428571428571438 0.1199186991869919 0.45000000000000001 0.50714285714285723 0.73404255319148948 0.16869918699186995 0.078571428571428584 0.54687500000000011 0.049796747967479689 0.061991869918699198 0.13617886178861791 0.064024390243902454 0.73437500000000011 0.095528455284552866 0.082317073170731739
decision_type=2 2 2 2 2 2 2 2 2 2 2 2 2 2 2 2 2 2 2 2 2 2 2 2 2 2 2 2 2 2
left_child=2 3 4 10 12 -3 7 16 11 24 23 -7 -1 -6 19 17 -5 28 -8 -12 -13 -21 27 -2 -4 -15 -27 -20 -11 -30
right_child=1 5 9 6 13 8 18 -9 -10 15 14 20 -14 25 -16 -17 -18 -19 22 21 -22 -23 -24 -25 -26 26 -28 -29 29 -31
leaf_value=-0.077137907521332205 -0.026933020694112339 0.05964361130842008 -0.01522123252110342 0.071860765344218203 -0.043482078045704649 0.27384249914260139 0.040757763262880949 0.26618268048479443 0.32479319405555729 0.0051525588116298118 0.13287693919105964 0.19507132449665585 -0.047793913602925737 -0.025308790935673793 0.011040677173157869 0.0073300725358912324 0.17319228637201545 0.11104431460301081 0.11935815891733877 0.12437591700326829 0.11041802684466044 0.056328087979564082 0.11592953781286874 0.030985346184971261 0.00062293117779589602 0.078223829322494567 -0.026890565875905201 0.058208475368670548 0.0026663846217773179 0.076233700006566152
leaf_count=347 27 24 610 38 532 21 87 21 20 72 22 37 385 1239 59 635 22 24 27 21 24 333 66 516 712 20 28 104 22 47
internal_value=0 6.55924 -2.06196 5.42141 -3.8748 18.687 8.93271 14.9763 21.6806 0.117383 4.11095 19.0468 -6.17042 -2.95099 5.73422 1.41654 10.9016 4.04709 7.20902 6.46076 16.1765 6.03648 8.59274 2.81054 -0.668792 -2.37343 1.69071 7.08118 2.84584 5.27775
internal_count=6142 1469 4673 1343 2551 126 365 81 102 2122 978 82 732 1819 435 800 60 165 284 376 61 354 197 543 1322 1287 48 131 141 69
shrinkage=0.01


Tree=25
num_leaves=31
num_cat=0
split_feature=161 161 161 143 161 161 110 152 161 102 122 80 8 80 152 116 8 107 140 26 103 124 71 147 62 104 103 66 58 89
split_gain=81453.6 22122.8 15658.5 5751.03 4544.97 4066.35 3803.86 3665.5 2446.37 2442.18 1578.89 1499.19 1473.57 1411.53 1358.74 1209.8 1180.62 1152.56 1151.15 1040.69 1027.51 1000.06 990.48 926.459 906.718 902.406 881.601 898.806 940.228 1031.92
threshold=0.086382113821138237 0.14837398373983743 0.053861788617886187 0.12804878048780491 0.11178861788617889 0.19308943089430899 0.78125000000000011 0.037601626016260173 0.070121951219512216 0.66000000000000003 0.35000000000000003 0.082317073170731739 0.12703252032520329 0.11178861788617889 0.10365853658536588 0.025406504065040653 0.095528455284552866 0.082317073170731739 0.22142857142857145 0.17682926829268297 0.20454545454545459 0.80434782608695665 0.043699186991869927 0.62333333333333341 0.055894308943089444 0.60714285714285732 0.47727272727272735 0.40666666666666673 0.38636363636363641 0.055894308943089444
decision_type=2 2 2 2 2 2 2 2 2 2 2 2 2 2 2 2 2 2 2 2 2 2 2 2 2 2 2 2 2 2
left_child=2 4 7 17 11 12 13 15 16 -7 24 -2 -5 19 22 -1 -4 -3 -18 26 23 -15 -9 25 -10 -13 27 -6 29 -29
right_child=1 3 8 5 6 9 -8 14 10 -11 -12 20 -14 21 -16 -17 18 -19 -20 -21 -22 -23 -24 -25 -26 -27 -28 28 -30 -31
leaf_value=-0.093262319250653189 0.019927620546185 0.055825181612372397 -0.019307671760024989 0.11783069990101891 0.1073881508409977 0.19200178794562817 0.18697148689856896 -0.052240286614556437 0.094196957185864447 0.31988396993705204 -0.00084047874582147454 0.065925569297938511 0.21515972659701393 0.0772196653717524 0.043048375763676379 -0.057755556944891373 0.062235137025515246 0.12479899867735011 -0.0034521328734380824 0.12346526205539704 0.036204070710082734 0.14894955534201404 -0.031268930117141831 0.045625516767685233 0.023142251723355996 0.15085843552242625 -0.015171369433403015 -0.0030936767347157002 0.079761683684839324 0.049278887032434861
leaf_count=120 503 50 1190 60 28 32 26 295 20 28 929 29 21 77 22 479 30 47 241 20 341 26 952 65 176 22 20 48 71 174
internal_value=0 5.91547 -2.24187 14.8512 4.44878 18.9284 6.92688 -4.44798 -0.648293 25.168 0.460104 3.18391 14.3064 6.26734 -3.48557 -6.48688 -1.50178 8.92455 0.381952 5.33569 4.49496 9.53262 -3.62301 7.06585 3.03927 10.2563 4.9245 5.32585 4.80857 3.79551
internal_count=6142 1688 4454 238 1450 141 490 1868 2586 60 1125 960 81 464 1269 599 1461 97 271 361 457 103 1247 116 196 51 341 321 293 222
shrinkage=0.01


Tree=26
num_leaves=31
num_cat=0
split_feature=161 161 161 161 161 152 113 116 86 89 17 132 41 62 98 122 116 95 98 5 41 89 38 103 80 134 112 113 73 8
split_gain=79833.8 19484.7 17756.4 5945.92 5228.53 4643 3705.57 3826.76 2883.97 2112.67 2010.47 1677.18 1628.41 1543.29 1424.41 1394 1372.67 1367.24 1248.56 1210.81 1150.6 1127.08 866.105 810.24 803.185 1264.15 798.841 785.334 781.045 779.219
threshold=0.090447154471544736 0.17276422764227647 0.061991869918699198 0.1239837398373984 0.037601626016260173 0.13211382113821143 0.27857142857142864 0.12703252032520329 0.76428571428571435 0.078252032520325226 0.14430894308943096 0.84042553191489378 0.55000000000000016 0.041666666666666678 0.049796747967479689 0.36428571428571438 0.17276422764227647 0.45000000000000001 0.061991869918699198 0.50714285714285723 0.37857142857142861 0.090447154471544736 0.54687500000000011 0.29545454545454547 0.13617886178861791 0.064024390243902454 0.34090909090909099 0.3357142857142858 0.73437500000000011 0.095528455284552866
decision_type=2 2 2 2 2 2 2 2 2 2 2 2 2 2 2 2 2 2 2 2 2 2 2 2 2 2 2 2 2 2
left_child=2 3 4 10 13 -3 7 12 11 23 18 -7 -5 -1 -6 17 21 29 27 -8 -12 -13 28 -4 -16 -26 -20 -2 -21 -11
right_child=1 5 9 6 14 8 19 -9 -10 15 20 16 -14 -15 24 -17 -18 -19 26 22 -22 -23 -24 -25 25 -27 -28 -29 -30 -31
leaf_value=-0.077407395806975476 0.056531290564781581 0.058060401910915972 0.0028031737814948323 0.15548668500148888 -0.042674372187864622 0.26601654660701751 0.039502258945641848 0.2672903833799064 0.32031775403022766 0.0049919662363309822 0.1454209325524668 0.13884118604660034 0.051802965498396331 -0.048045929179260767 -0.024776189676602469 0.0072566769602965186 0.092516516759991646 0.10965387056271235 0.053902240880287999 0.11733393559853235 0.063687166469018966 0.24256416337056594 0.11383497776745846 -0.013118855667058451 0.077636105973273514 -0.026457803546051897 0.031979788369347152 0.0072444091812170373 0.056970337298340522 0.052019109843649727
leaf_count=312 39 24 541 33 532 20 87 20 20 72 24 20 28 420 1239 635 20 24 328 27 61 22 66 781 20 28 337 189 104 69
internal_value=0 6.43021 -2.0214 5.31468 -3.79925 18.3204 8.75893 14.7251 21.265 0.115887 4.02925 18.6389 10.7894 -6.05607 -2.89107 1.39855 16.0703 3.98814 3.5869 7.0573 8.67649 19.3172 8.42946 -0.660311 -2.32213 1.69147 4.27927 1.56751 6.94117 2.80052
internal_count=6142 1469 4673 1343 2551 126 365 81 102 2122 978 82 61 732 1819 800 62 165 893 284 85 42 197 1322 1287 48 665 228 131 141
shrinkage=0.01


Tree=27
num_leaves=31
num_cat=0
split_feature=161 161 161 143 161 161 2 161 161 133 8 122 152 80 8 80 114 120 80 107 8 103 62 98 147 104 44 59 41 83
split_gain=78302.8 21258.2 15067.4 5549.46 4376.21 3924.87 3727.49 3414.34 2919.32 2412.61 1923.32 1897.15 1612.68 1453.47 1425.72 1216.99 1151.63 1268.76 1143.86 1112.52 1054.02 998.315 927.673 955.382 907.94 882.622 874.734 866.699 812.197 800.48
threshold=0.086382113821138237 0.14837398373983743 0.049796747967479689 0.12804878048780491 0.11178861788617889 0.19308943089430899 0.73529411764706165 0.067073170731707335 0.025406504065040653 0.72916666666666674 0.086382113821138237 0.35000000000000003 0.095528455284552866 0.082317073170731739 0.12703252032520329 0.053861788617886187 0.84042553191489378 0.70000000000000018 0.070121951219512216 0.082317073170731739 0.10772357723577237 0.20454545454545459 0.049796747967479689 0.082317073170731739 0.62333333333333341 0.60714285714285732 0.045731707317073184 0.73571428571428588 0.36428571428571438 0.48437500000000006
decision_type=2 2 2 2 2 2 2 2 2 2 2 2 2 2 2 2 2 2 2 2 2 2 2 2 2 2 2 2 2 2
left_child=2 4 8 19 13 14 10 20 26 -7 -6 22 15 -2 -5 -10 17 -12 -13 -3 -4 24 -9 -24 25 -15 -1 -23 -25 -18
right_child=1 3 7 5 6 9 -8 11 12 -11 16 18 -14 21 -16 -17 29 -19 -20 -21 -22 27 23 28 -26 -27 -28 -29 -30 -31
leaf_value=-0.097323705554008488 0.019481766412171645 0.054539903137087828 -0.02338625168598682 0.11541511214027801 0.042489134447633727 0.19694972347568823 0.19828117404665269 0.088043050508607515 -0.053043972043125262 0.3273728466293086 0.1831102202052162 -0.012693697147669767 0.047450611948966978 0.064810707404695717 0.21115095774332684 -0.033393338132684532 0.10649721334839976 0.087122621536254885 0.0062092275509192506 0.12230496753274681 0.0031224555528739039 0.027178317645648077 0.0049304597550316864 0.010899571142110384 0.044678745015309405 0.14880736882036383 -0.058517109798356177 0.06604545903022159 0.071721270286406458 0.056373593136668204
leaf_count=130 503 50 1221 60 242 37 21 22 620 23 21 663 20 29 21 641 43 40 619 47 171 268 152 38 65 22 105 73 52 123
internal_value=0 5.79993 -2.19809 14.5593 4.36218 18.5644 6.79384 -0.87689 -4.75856 24.6945 6.21022 0.146032 -4.1642 3.12102 14.0236 -4.3055 8.30112 12.0168 -0.356662 8.73745 -2.01298 4.41193 2.58715 2.02195 6.94603 10.1045 -7.99846 3.54988 4.6041 6.93574
internal_count=6142 1688 4454 238 1450 141 490 2938 1516 60 469 1546 1281 960 81 1261 227 61 1282 97 1392 457 264 242 116 51 235 341 90 166
shrinkage=0.01


Tree=28
num_leaves=31
num_cat=0
split_feature=161 161 161 113 161 152 91 147 86 161 8 132 116 80 89 98 116 146 80 112 104 89 66 16 8 29 123 159 50 140
split_gain=76781.6 19217.1 17368.5 5300.32 5047.95 4496.91 4133.35 6938.68 2817.01 2576.81 2375.13 1624.91 1505.38 1419.7 1394.5 1388.78 1342.69 1304.08 1239.28 1202.56 1218.42 1089.39 1022.95 917.444 891.14 881.9 1217.18 1027.43 877.448 862.831
threshold=0.095528455284552866 0.064024390243902454 0.17276422764227647 0.27857142857142864 0.037601626016260173 0.13211382113821143 0.76562500000000011 0.65666666666666684 0.76428571428571435 0.078252032520325226 0.099593495934959378 0.84042553191489378 0.045731707317073184 0.049796747967479689 0.1199186991869919 0.061991869918699198 0.17276422764227647 0.32812500000000006 0.067073170731707335 0.43181818181818193 0.53571428571428581 0.090447154471544736 0.4333333333333334 0.9125000000000002 0.066056910569105717 0.45588235294118112 0.84042553191489378 0.92021276595744694 0.79285714285714304 0.42142857142857149
decision_type=2 2 2 2 2 2 2 2 2 2 2 2 2 2 2 2 2 2 2 2 2 2 2 2 2 2 2 2 2 2
left_child=1 4 3 6 12 -4 14 -8 11 18 15 -7 -1 -6 -2 22 21 -11 -3 20 -12 -13 -5 -22 28 -15 27 -27 -19 -14
right_child=2 9 5 10 13 8 7 -9 -10 17 19 16 29 25 -16 -17 -18 24 -20 -21 23 -23 -24 -25 -26 26 -28 -29 -30 -31
leaf_value=-0.073627380938307063 0.061291526626667071 -0.015949333446706796 0.056449876589079698 0.06951515072473774 -0.041824635825846175 0.26101061606407167 0.32638732537627219 0.078636218263552743 0.31499831998348238 -0.020571338143199683 0.053924529529136164 0.13604869306087494 -0.02300591550922642 -0.034007625054017727 0.13253581436143982 0.044869828913550514 0.089913218751549714 -0.00041346942619062388 0.002990172173094345 0.024171786226180134 0.083544872396879577 0.23802297286011956 0.0028796874643985631 0.14297890616690412 0.028120309656956204 0.082394150614738454 -0.020494779652514998 -3.3230324005407673e-05 0.049362006434580177 -0.055779393434317578
leaf_count=369 116 645 24 27 545 20 20 26 20 88 115 20 120 440 36 491 20 260 744 49 110 22 157 34 503 20 755 62 41 243
internal_value=0 -1.83829 6.8004 5.60969 -3.72236 17.9609 10.33 18.6354 20.8587 0.271282 4.65891 18.2634 -5.94038 -2.83126 7.81652 3.6089 15.7351 1.5976 -0.580463 6.96005 7.81951 18.9464 1.26577 9.75779 1.99762 -2.25459 -1.65206 2.0071 0.636658 -4.49452
internal_count=6142 4835 1307 1181 2554 126 198 46 102 2281 983 82 732 1822 152 675 62 892 1389 308 259 42 184 144 804 1277 837 82 301 363
shrinkage=0.01


Tree=29
num_leaves=31
num_cat=0
split_feature=161 161 161 113 161 152 91 147 5 161 8 132 62 80 89 98 137 80 112 104 115 66 112 142 128 41 29 123 159 83
split_gain=75253.7 18834.7 17022.9 5194.84 4947.5 4407.42 4051.09 6800.6 2794.02 2525.53 2327.87 1820.1 1482.16 1391.45 1366.74 1361.14 1283.87 1220.21 1178.63 1194.17 1031.05 1002.6 912.567 1002.63 910.115 886.405 864.35 1192.96 1006.98 848.014
threshold=0.095528455284552866 0.064024390243902454 0.17276422764227647 0.27857142857142864 0.037601626016260173 0.13211382113821143 0.76562500000000011 0.65666666666666684 0.82142857142857151 0.078252032520325226 0.099593495934959378 0.84042553191489378 0.041666666666666678 0.049796747967479689 0.1199186991869919 0.061991869918699198 0.32812500000000006 0.10772357723577237 0.43181818181818193 0.53571428571428581 0.45652173913043487 0.4333333333333334 0.34090909090909099 0.14583333333333334 0.67187500000000011 0.82142857142857151 0.45588235294118112 0.84042553191489378 0.92021276595744694 0.26562500000000006
decision_type=2 2 2 2 2 2 2 2 2 2 2 2 2 2 2 2 2 2 2 2 2 2 2 2 2 2 2 2 2 2
left_child=1 4 3 6 12 -4 14 -8 11 17 15 -7 -1 -6 -2 21 -11 -3 19 -12 -13 -5 23 -18 -21 -24 -15 28 -28 -17
right_child=2 9 5 10 13 8 7 -9 -10 16 18 20 -14 26 -16 29 22 -19 -20 24 -22 -23 25 -25 -26 -27 27 -29 -30 -31
leaf_value=-0.075319478678254365 0.060678611923137622 -0.0093861395600865274 0.055885377638041973 0.068819998557920814 -0.041406389095777769 0.26095021770113991 0.32312344706058505 0.077849856317043303 0.31247745921462772 -0.021890094610976012 0.053385284311097604 0.10982397812193838 -0.046545458621611559 -0.033667548678441975 0.13121045480999682 0.099998816469540966 0.076644841992231302 0.018390466608311777 0.023930068393142854 0.086214319351999982 0.19214887477457523 0.0028508902864328996 0.005481277748997977 0.025262050199623291 0.15744501147951398 0.054842300087213518 0.081570210874080659 -0.020289832152771633 -3.289830209987779e-05 0.041313561219121178
leaf_count=312 116 1207 24 27 545 21 20 26 20 82 115 29 420 440 36 26 43 182 49 123 32 157 402 325 21 40 20 755 62 465
internal_value=0 -1.8199 6.73239 5.55359 -3.68514 17.7813 10.2267 18.4491 20.6502 0.268569 4.61232 18.0654 -5.88098 -2.80295 7.73835 3.57282 1.58162 -0.574658 6.89045 7.74132 15.3011 1.25311 1.96334 3.1266 9.66021 0.994834 -2.23204 -1.63554 1.98703 4.44211
internal_count=6142 4835 1307 1181 2554 126 198 46 102 2281 983 82 732 1822 152 675 892 1389 308 259 61 184 810 368 144 442 1277 837 82 491
shrinkage=0.01


Tree=30
num_leaves=31
num_cat=0
split_feature=161 161 161 143 161 161 110 161 161 25 122 152 80 8 80 80 80 107 71 26 124 112 8 62 98 103 66 58 89 44
split_gain=73766.9 20116.2 14243.6 5284.33 4176.62 3719.63 3641.89 3204.43 2794.02 2364.47 1846.32 1572.05 1395.27 1363.43 1332.48 1154.27 1094.68 1061.77 1033.11 975.932 971.754 962.279 957.341 912.488 929.097 850.301 873.081 922.824 979.816 844.994
threshold=0.086382113821138237 0.14837398373983743 0.049796747967479689 0.12804878048780491 0.11178861788617889 0.19308943089430899 0.78125000000000011 0.067073170731707335 0.025406504065040653 0.86250000000000016 0.35000000000000003 0.095528455284552866 0.082317073170731739 0.12703252032520329 0.11178861788617889 0.045731707317073184 0.070121951219512216 0.082317073170731739 0.037601626016260173 0.17682926829268297 0.80434782608695665 0.34090909090909099 0.10772357723577237 0.049796747967479689 0.082317073170731739 0.47727272727272735 0.40666666666666673 0.38636363636363641 0.055894308943089444 0.045731707317073184
decision_type=2 2 2 2 2 2 2 2 2 2 2 2 2 2 2 2 2 2 2 2 2 2 2 2 2 2 2 2 2 2
left_child=2 4 8 17 12 13 14 18 29 -7 23 15 -2 -5 19 -10 -12 -3 -4 25 -16 -14 -20 -9 -25 26 -6 28 -28 -1
right_child=1 3 7 5 6 9 -8 10 11 -11 16 -13 21 -15 20 -17 -18 -19 22 -21 -22 -23 -24 24 -26 -27 27 -29 -30 -31
leaf_value=-0.094967522868743312 0.01869187706268613 0.052614952152967451 -0.043485557616881609 0.11210782447271049 0.10386778627123151 0.19076802477643298 0.1812336538388179 0.087163280885327946 -0.054565797700353857 0.31988328653833142 -0.012467069159518944 0.047548283398151397 0.057058919131892732 0.20572894618624735 0.073487431437938247 -0.034634006472403715 0.0060250122415545808 0.11881632597522533 -0.019877049230534894 0.118450692653656 0.14419481158256531 0.028031618250700246 0.005938336423272828 0.0048198970132752464 0.0453609614363975 -0.016685749635100364 -0.0046153188372651741 0.076801605992753749 0.046417969565774347 -0.056826320384052539
leaf_count=130 503 50 159 60 28 37 26 22 454 23 663 20 233 21 77 807 619 47 1067 20 26 224 166 152 90 20 48 71 174 105
internal_value=0 5.62943 -2.13347 14.1503 4.23084 18.0585 6.6064 -0.848902 -4.62296 24.0262 0.142078 -4.04149 3.01832 13.638 5.96106 -4.18101 -0.353837 8.46919 -1.94952 5.05587 9.13359 4.28311 -1.64015 2.55027 1.98972 4.65768 5.05184 4.54202 3.53837 -7.79257
internal_count=6142 1688 4454 238 1450 141 490 2938 1516 60 1546 1281 960 81 464 1261 1282 97 1392 361 103 457 1233 264 242 341 321 293 222 235
shrinkage=0.01


Tree=31
num_leaves=31
num_cat=0
split_feature=161 161 161 113 161 152 91 147 86 161 8 141 116 125 98 89 98 137 161 80 112 104 66 152 112 142 41 83 89 62
split_gain=72339.7 18098.2 16358.9 5060.47 4768.05 4264.92 3962.68 6640.01 2734.1 2433.11 2254.52 1565.73 1546.07 1452.6 1352.23 1323.96 1318.43 1254.96 1248.72 1187.96 1146.22 1169.2 975.363 890.436 886.264 983.076 867.155 826.776 787.666 786.673
threshold=0.095528455284552866 0.064024390243902454 0.17276422764227647 0.27857142857142864 0.037601626016260173 0.13211382113821143 0.76562500000000011 0.65666666666666684 0.76428571428571435 0.078252032520325226 0.099593495934959378 0.92021276595744694 0.17276422764227647 0.043699186991869927 0.049796747967479689 0.1199186991869919 0.061991869918699198 0.32812500000000006 0.20121951219512199 0.067073170731707335 0.43181818181818193 0.53571428571428581 0.4333333333333334 0.14024390243902443 0.34090909090909099 0.14583333333333334 0.82142857142857151 0.26562500000000006 0.090447154471544736 0.15650406504065045
decision_type=2 2 2 2 2 2 2 2 2 2 2 2 2 2 2 2 2 2 2 2 2 2 2 2 2 2 2 2 2 2
left_child=1 4 3 6 13 -4 15 -8 11 19 16 -7 18 -1 -6 -2 22 -11 -13 -3 21 -12 -5 28 25 -19 -26 -18 -23 -16
right_child=2 9 5 10 14 8 7 -9 -10 17 20 12 -14 -15 29 -17 27 24 -20 -21 -22 23 -24 -25 26 -27 -28 -29 -30 -31
leaf_value=-0.072522066208917754 0.05952273187620951 -0.015579850426218076 0.054380155553420385 0.067620594413192181 -0.04088176938362028 0.25390910577774045 0.31888211530447008 0.076521777499180571 0.3073747958689928 -0.021762195045991643 0.052196631337050353 0.13134230858087539 0.08237909938962687 -0.044310060286507399 -0.022914380759426107 0.12894180749853454 0.098364428519987723 0.07568906732076823 0.2417503002711705 0.0029633800828108387 0.023229360362248763 0.053687223689103468 0.0025536462344573274 0.1414808016596362 0.0053283704494807259 0.024809723184966985 0.054150476671755314 0.040418700749515209 0.10680209903898887 0.040294051274657246
leaf_count=347 116 645 24 27 532 20 20 26 20 82 115 20 21 385 1270 36 26 43 21 744 49 53 157 32 402 325 40 465 59 20
internal_value=0 -1.78432 6.60076 5.44518 -3.61273 17.432 10.0574 18.1896 20.2542 0.262914 4.51616 17.6973 15.2154 -5.76838 -2.74668 7.59641 3.49316 1.55172 18.7893 -0.564741 6.75811 7.5972 1.21015 9.49593 1.92911 3.07549 0.974666 4.34871 8.16674 -2.19344
internal_count=6142 4835 1307 1181 2554 126 198 46 102 2281 983 82 62 732 1822 152 675 892 41 1389 308 259 184 144 810 368 442 491 112 1290
shrinkage=0.01


Tree=32
num_leaves=31
num_cat=0
split_feature=161 161 161 113 161 152 91 147 5 161 8 132 71 98 89 98 146 80 121 143 0 44 115 66 89 26 122 55 95 52
split_gain=70900.2 17738.2 16033.4 4959.77 4665.48 4180.05 3883.82 6507.87 2711.73 2392.08 2209.65 1755.51 1437.36 1322.72 1297.61 1292.19 1236 1206.88 1132.4 1082.56 1137.69 1052.08 1006.68 955.954 870.49 828.144 821.908 1619.12 874.038 981.537
threshold=0.095528455284552866 0.061991869918699198 0.17276422764227647 0.27857142857142864 0.037601626016260173 0.13211382113821143 0.76562500000000011 0.65666666666666684 0.82142857142857151 0.078252032520325226 0.099593495934959378 0.84042553191489378 0.043699186991869927 0.049796747967479689 0.1199186991869919 0.061991869918699198 0.32812500000000006 0.067073170731707335 0.34090909090909099 0.095528455284552866 0.56944444444444442 0.10365853658536588 0.45652173913043487 0.4333333333333334 0.078252032520325226 0.14837398373983743 0.36428571428571438 0.79166666666666663 0.69285714285714295 0.38750000000000007
decision_type=2 2 2 2 2 2 2 2 2 2 2 2 2 2 2 2 2 2 2 2 2 2 2 2 2 2 2 2 2 2
left_child=1 4 3 6 12 -4 14 -8 11 17 15 -7 -1 -6 -2 23 -11 -3 19 25 21 -21 -13 -5 -18 -12 27 -26 -28 -30
right_child=2 9 5 10 13 8 7 -9 -10 16 18 22 -14 -15 -16 -17 24 -19 -20 20 -22 -23 -24 -25 26 -27 28 -29 29 -31
leaf_value=-0.073594387416827958 0.058927504172034822 -0.015606216724517208 0.053836353309452536 0.066944388162206728 -0.040472951493492088 0.25391062520799179 0.31569329893589021 0.075756559165624474 0.30491966667771342 -0.020218644915995274 0.02555296732319726 0.10523035926744342 -0.045197194988236704 -0.021727102625076301 0.12765238871177037 0.043052238777067417 0.0094548417734060912 0.0030627762204998694 0.043068213710977028 0.18276476758447563 0.062284476248702661 0.10002977809777447 0.18657663196325303 0.0025281095974277823 0.0320340757840313 0.10160465836524964 0.010003504611782192 0.13148000942035157 0.10546389674598521 0.029615162227694926
leaf_count=307 116 647 24 27 532 21 20 26 20 88 45 29 425 1287 36 491 426 745 121 22 48 51 32 157 64 21 194 22 22 76
internal_value=0 -1.76648 6.53475 5.39073 -3.57886 17.2577 9.95688 18.0077 20.0516 0.257769 4.471 17.5052 -5.71069 -2.72097 7.52045 3.45823 1.5362 -0.561455 6.69053 8.23293 10.0099 12.4964 14.7904 1.19805 1.92564 4.97512 3.03026 5.74737 2.23001 4.66424
internal_count=6142 4835 1307 1181 2551 126 198 46 102 2284 983 82 732 1819 152 675 892 1392 308 187 121 73 61 184 804 66 378 86 292 98
shrinkage=0.01


Tree=33
num_leaves=31
num_cat=0
split_feature=161 161 161 143 161 2 161 152 133 89 8 122 80 8 152 103 103 116 140 107 131 86 88 103 18 71 59 161 45 137
split_gain=69493.4 19022.9 13470.1 5036.99 3984.11 3597.4 3523.76 3311.83 2321.64 2218.38 1751.32 1481.03 1332.52 1302.11 1285.08 1231.58 1215.29 1115.31 1088.69 1009.97 997.993 996.445 994.684 926.372 891.998 886.504 825.419 801.528 797.913 797.217
threshold=0.086382113821138237 0.14837398373983743 0.053861788617886187 0.12804878048780491 0.11178861788617889 0.73529411764706165 0.19308943089430899 0.037601626016260173 0.72916666666666674 0.076219512195121977 0.086382113821138237 0.36428571428571438 0.082317073170731739 0.12703252032520329 0.10365853658536588 0.34090909090909099 0.43181818181818193 0.025406504065040653 0.82142857142857151 0.082317073170731739 0.83571428571428585 0.76428571428571435 0.80434782608695665 0.20454545454545459 0.49999999999999994 0.037601626016260173 0.73571428571428588 0.064024390243902454 0.49999999999999994 0.54687500000000011
decision_type=2 2 2 2 2 2 2 2 2 2 2 2 2 2 2 2 2 2 2 2 2 2 2 2 2 2 2 2 2 2
left_child=2 4 7 19 12 10 13 17 -8 15 -6 16 -2 -5 25 -4 22 -1 29 -3 -20 -13 -11 24 -14 -9 -25 -17 -23 -12
right_child=1 3 9 6 5 -7 8 14 -10 11 18 21 23 -15 -16 27 -18 -19 20 -21 -22 28 -24 26 -26 -27 -28 -29 -30 -31
leaf_value=-0.087811687249690296 0.017966442343354906 0.050750045180320738 -0.0023150475907144051 0.10891136613115668 0.039791492196646606 0.19228862140859879 0.1846975337170266 -0.051726992508988774 0.31263823659523676 0.032474931490689737 0.042389335384642755 -0.0054176165861391703 0.089681876986774045 0.2004027617545355 0.043741937360980296 -0.034791999568613313 -0.019137559086084367 -0.053719587928502739 0.17074650699442084 0.11531634014971713 0.075495957420630894 0.0041140303892247812 0.10495027964765376 0.025132607861852913 0.033541463417362194 -0.029487493922915289 0.063062840306633852 -0.014624862424902716 0.052222589370794596 0.084918302356376554
leaf_count=120 503 50 611 60 242 21 37 217 23 136 74 679 67 21 22 278 40 479 22 47 22 85 22 268 49 1030 73 677 58 109
internal_value=0 5.46394 -2.07075 13.75 4.10388 6.42405 17.5657 -4.1169 23.3741 -0.592717 5.8507 0.554905 2.91963 13.2631 -3.20209 -1.34021 3.0101 -6.05494 7.84592 8.20347 12.3121 -0.0364913 4.25664 4.15566 6.59674 -3.33576 3.32526 -2.04955 2.36266 6.77208
internal_count=6142 1688 4454 238 1450 490 141 1868 60 2586 469 1020 960 81 1269 1566 198 599 227 97 44 822 158 457 116 1247 341 955 143 183
shrinkage=0.01


Tree=34
num_leaves=31
num_cat=0
split_feature=161 161 161 113 161 152 91 147 86 8 8 50 138 161 143 80 89 98 112 104 50 113 66 57 73 29 123 159 32 84
split_gain=68153.4 17057 15407.4 4823.1 4515.62 4048.53 3806.5 6359.1 2662.87 2375.92 2131.58 1527.9 1701.15 1489.09 1415.18 1306.41 1258.98 1257.4 1105.58 1132.52 1079.61 932.693 932.504 905.011 876.705 838.734 1165.58 982.454 818.724 1385.02
threshold=0.095528455284552866 0.064024390243902454 0.17276422764227647 0.27857142857142864 0.037601626016260173 0.13211382113821143 0.76562500000000011 0.65666666666666684 0.76428571428571435 0.061991869918699198 0.099593495934959378 0.65000000000000013 0.64666666666666683 0.078252032520325226 0.025406504065040653 0.049796747967479689 0.1199186991869919 0.061991869918699198 0.43181818181818193 0.53571428571428581 0.79285714285714304 0.32142857142857145 0.4333333333333334 0.86217948717948723 0.73437500000000011 0.45588235294118112 0.84042553191489378 0.92021276595744694 0.52142857142857146 0.54000000000000015
decision_type=2 2 2 2 2 2 2 2 2 2 2 2 2 2 2 2 2 2 2 2 2 2 2 2 2 2 2 2 2 2
left_child=1 4 3 6 14 -4 16 -8 11 20 17 12 -7 21 -1 -6 -2 22 19 -12 -3 -11 -5 -15 -21 -17 27 -27 -19 -30
right_child=2 9 5 10 15 8 7 -9 -10 13 18 -13 -14 23 -16 25 -18 28 -20 24 -22 -23 -24 -25 -26 26 -28 -29 29 -31
leaf_value=-0.082765343309595035 0.057729070403227771 -0.014714310007557071 0.052326912184556325 0.06582776455967515 -0.039603127524632652 0.15816682861532486 0.31164255940914154 0.074464183873855158 0.30013927584886552 0.026486266256542879 0.050425877901603994 0.10809674484225421 0.27201367900485085 0.027597043396551491 -0.04881156069381784 -0.032287277191454036 0.12542327705356809 0.024685501259014097 0.022026124474953633 0.12436672196068146 0.020728374394520962 -0.0028850394770390643 0.0022064774749936998 -0.0060146874840322296 0.073399644457036631 0.08151791544258595 -0.01912261697346505 0.00091474030084247066 0.11012735254234737 0.044260562357388712
leaf_count=156 116 754 24 27 545 35 20 26 20 128 115 26 21 511 576 440 36 173 49 54 97 696 157 95 90 20 755 62 36 282
internal_value=0 -1.73192 6.40692 5.28545 -3.50695 16.9185 9.78825 17.7585 19.6681 0.255546 4.37848 17.1447 20.0859 1.04286 -5.60476 -2.66414 7.37619 3.38377 6.55845 7.38253 -1.06744 0.167749 1.15422 2.23279 9.25123 -2.11096 -1.52336 2.05741 4.21928 5.17172
internal_count=6142 4835 1307 1181 2554 126 198 46 102 2281 983 82 56 1430 732 1822 152 675 308 259 851 824 184 606 144 1277 837 82 491 318
shrinkage=0.01


Tree=35
num_leaves=31
num_cat=0
split_feature=161 161 161 113 161 152 91 147 5 8 8 114 161 116 80 158 89 98 121 50 152 63 104 113 66 57 140 62 23 147
split_gain=66797.2 16717.5 15100.8 4727.12 4425.76 3967.96 3730.75 6232.55 2639.83 2328.64 2089.16 1701.01 1459.45 1402.19 1280.42 1263.37 1233.93 1232.38 1093.68 1058.13 1050.63 1051.3 928.023 914.132 913.947 887.001 831.416 824.05 803.797 1154.96
threshold=0.095528455284552866 0.064024390243902454 0.17276422764227647 0.27857142857142864 0.037601626016260173 0.13211382113821143 0.76562500000000011 0.65666666666666684 0.82142857142857151 0.061991869918699198 0.099593495934959378 0.84042553191489378 0.078252032520325226 0.045731707317073184 0.049796747967479689 0.45000000000000001 0.1199186991869919 0.061991869918699198 0.34090909090909099 0.79285714285714304 0.095528455284552866 0.36764705882352938 0.59285714285714297 0.32142857142857145 0.4333333333333334 0.86217948717948723 0.42142857142857149 0.15650406504065045 0.45000000000000001 0.44666666666666677
decision_type=2 2 2 2 2 2 2 2 2 2 2 2 2 2 2 2 2 2 2 2 2 2 2 2 2 2 2 2 2 2
left_child=1 4 3 6 13 -4 16 -8 11 19 17 -7 23 -1 -6 -13 -2 24 20 -3 -12 22 -22 -11 -5 28 -15 -16 -14 -30
right_child=2 9 5 10 14 8 7 -9 -10 12 18 15 25 26 27 -17 -18 -19 -20 -21 21 -23 -24 -25 -26 -27 -28 -29 29 -31
leaf_value=-0.069214511074751697 0.057151779503529447 -0.014567166985511602 0.051803644100824997 0.065169486712526398 -0.039207096235715534 0.23116167759073192 0.30852613580226901 0.073719543144106864 0.29772395616769792 0.026221403812523931 0.040851214063540101 0.18956752796967824 0.012545847446074551 -0.019996695159624021 -0.021962044123408062 0.091483599235271579 0.12416904368334347 0.041770852321186033 0.041502668143919674 0.020521090414336661 0.080319725842702958 0.073405726633794702 0.16760795559862565 -0.002856189195306212 0.0021844129337021596 -0.0059545407993228817 -0.05216800849010915 0.039774044359272176 0.10768764267590912 0.032389559112895622
leaf_count=369 116 754 24 27 545 29 20 26 20 128 50 24 214 120 1255 29 36 491 121 97 21 87 29 696 157 95 243 22 22 275
internal_value=0 -1.7146 6.34285 5.2326 -3.47188 16.7493 9.69037 17.5809 19.4714 0.252991 4.33469 16.9589 1.03243 -5.54871 -2.6375 13.5899 7.30243 3.34993 6.49287 -1.05677 8.00867 9.44062 13.0947 0.166072 1.14268 2.21046 -4.15329 -2.08985 2.73211 3.79672
internal_count=6142 4835 1307 1181 2554 126 198 46 102 2281 983 82 1430 732 1822 53 152 675 308 851 187 137 50 824 184 606 363 1277 511 297
shrinkage=0.01


Tree=36
num_leaves=31
num_cat=0
split_feature=161 161 161 143 161 110 161 161 161 133 122 152 80 80 26 63 80 113 80 34 71 152 80 112 8 62 126 98 26 135
split_gain=65494 17994.7 12750.5 4799.93 3797.12 3650.81 3328.97 2842.39 2579.43 2268.62 1736.79 1510.25 1509.5 1275.1 1250.7 1404.85 1060.08 1027.29 1022.65 975.186 975.135 969.672 1287.89 941.406 917.577 904.625 899.942 877.035 817.127 806.835
threshold=0.086382113821138237 0.14837398373983743 0.049796747967479689 0.12804878048780491 0.1158536585365854 0.78125000000000011 0.19308943089430899 0.067073170731707335 0.025406504065040653 0.72916666666666674 0.35000000000000003 0.095528455284552866 0.11178861788617889 0.082317073170731739 0.099593495934959378 0.36764705882352938 0.053861788617886187 0.078571428571428584 0.070121951219512216 0.52500000000000013 0.037601626016260173 0.099593495934959378 0.10365853658536588 0.34090909090909099 0.10772357723577237 0.049796747967479689 0.69444444444444442 0.082317073170731739 0.066056910569105717 0.40277777777777773
decision_type=2 2 2 2 2 2 2 2 2 2 2 2 2 2 2 2 2 2 2 2 2 2 2 2 2 2 2 2 2 2
left_child=2 4 8 21 13 12 14 20 -1 -8 25 16 26 17 -5 -16 -10 -2 -12 -14 -4 -3 -23 29 -22 -9 28 -27 -6 -15
right_child=1 3 7 6 5 -7 9 10 11 -11 18 -13 19 23 15 -17 -18 -19 -20 -21 24 22 -24 -25 -26 27 -28 -29 -30 -31
leaf_value=-0.074111448692514542 0.080537370661130314 0.022777223535206007 -0.041622286723844659 0.085129965626531176 0.029485264478776699 0.19126174894246187 0.17885782713825638 0.086135260320522558 -0.048760132268461737 0.30532901292261871 -0.012055550080328634 0.048146879553794861 0.065769293424451633 0.034189960210850197 0.22667773219943047 0.11423381301760674 -0.030419999329582465 0.016121156212467427 0.0058177654258004105 0.13724040075285093 -0.01871180399324511 0.066412915438413628 0.1538001315181072 0.027175830255357587 0.0065617678601698707 0.0045108087654960787 0.0098973967909812936 0.043899651147425181 0.068471507461784639 0.069713026918720888
leaf_count=235 26 23 159 36 78 22 37 22 620 23 663 20 42 112 20 25 641 518 619 35 1067 48 26 245 166 152 50 90 173 149
internal_value=0 5.30438 -2.01028 13.3634 3.98159 6.60344 17.0882 -0.794902 -4.36568 22.7338 0.138419 -3.80699 5.87461 2.98279 12.9063 16.4209 -3.94374 1.91999 -0.342561 9.82562 -1.83148 7.94897 9.71165 4.12541 -1.53092 2.47409 4.86388 1.91596 5.63563 5.44694
internal_count=6142 1688 4454 238 1450 400 141 2938 1516 60 1546 1281 378 1050 81 45 1261 544 1282 77 1392 97 74 506 1233 264 301 242 251 261
shrinkage=0.01


Tree=37
num_leaves=31
num_cat=0
split_feature=161 161 161 113 161 152 91 147 86 8 8 50 138 161 152 98 98 89 121 26 50 149 113 66 62 57 18 0 134 50
split_gain=64211.5 16063 14517.2 4587.62 4258.46 3836.52 3652.49 6084.67 2592.53 2210.76 2019.86 1474.3 1649.03 1433.41 1369.73 1248.4 1198.36 1194.59 1067.55 1032.17 1023.19 1017.75 900.4 891.672 872.247 866.824 856.203 868.9 800.227 799.579
