tree
version=v2
num_class=1
num_tree_per_iteration=1
label_index=0
max_feature_idx=89
objective=regression
feature_names=Column_0 Column_1 Column_2 Column_3 Column_4 Column_5 Column_6 Column_7 Column_8 Column_9 Column_10 Column_11 Column_12 Column_13 Column_14 Column_15 Column_16 Column_17 Column_18 Column_19 Column_20 Column_21 Column_22 Column_23 Column_24 Column_25 Column_26 Column_27 Column_28 Column_29 Column_30 Column_31 Column_32 Column_33 Column_34 Column_35 Column_36 Column_37 Column_38 Column_39 Column_40 Column_41 Column_42 Column_43 Column_44 Column_45 Column_46 Column_47 Column_48 Column_49 Column_50 Column_51 Column_52 Column_53 Column_54 Column_55 Column_56 Column_57 Column_58 Column_59 Column_60 Column_61 Column_62 Column_63 Column_64 Column_65 Column_66 Column_67 Column_68 Column_69 Column_70 Column_71 Column_72 Column_73 Column_74 Column_75 Column_76 Column_77 Column_78 Column_79 Column_80 Column_81 Column_82 Column_83 Column_84 Column_85 Column_86 Column_87 Column_88 Column_89
feature_infos=[0:1] [0:0.99999999999999978] [0:1] [0:0.99999999999999989] [0:1] [0:1] [0:1.0000000000000002] [0:1] [0:1] [0:1] [0:0.99999999999999978] [0:1] [0:0.99999999999999989] [0:1] [0:1] [0:1.0000000000000002] [0:1] [0:1] [0:1] [0:0.99999999999999978] [0:1] [0:0.99999999999999989] [0:1] [0:1] [0:1.0000000000000002] [0:1] [0:1] [0:1] [0:0.99999999999999978] [0:1] [0:0.99999999999999989] [0:1] [0:1] [0:1.0000000000000002] [0:1] [0:1] [0:1] [0:0.99999999999999978] [0:1] [0:0.99999999999999989] [0:1] [0:1] [0:1.0000000000000002] [0:1] [0:1] [0:1] [0:0.99999999999999978] [0:1] [0:0.99999999999999989] [0:1] [0:1] [0:1.0000000000000002] [0:1] [0:1] [0:1] [0:0.99999999999999978] [0:1] [0:0.99999999999999989] [0:1] [0:1] [0:1.0000000000000002] [0:1] [0:1] [0:1] [0:1] [0:1] [0:1] [0:1] [0:1] [0:1.0000000000000002] [0:1] [0:1] [0:1] [0:1] [0:1] [0:1] [0:1] [0:1] [0:1.0000000000000002] [0:1] [0:1] [0:1] [0:1] [0:1] [0:1] [0:1] [0:1] [0:1.0000000000000002] [0:1] [0:1]
tree_sizes=2414 2491 2487 2487 2490 2489 2497 2493 2492 2488 2490 2482 2483 2489 2468 2486 2498 2490 2489 2488 2476 2498 2511 2490 2492 2491 2490 2501 2488 2496 2489 2488 2490 2486 2488 2500 2496 2487 2479 2490 2481 2492 2481 2486 2477 2487 2487 2478 2505 2497 2491 2482 2491 2490 2490 2491 2501 2494 2500 2490 2495 2492 2502 2487 2514 2499 2506 2491 2493 2494 2495 2496 2488 2501 2499 2491 2513 2491 2499 2477 2500 2503 2482 2499 2509 2500 2491 2498 2482 2509 2498 2488 2501 2491 2485 2491 2491 2500 2503 2499 2495 2497 2490 2485 2498 2499 2487 2502 2490 2494 2506 2498 2504 2505 2495 2492 2493 2496 2497 2495 2500 2489 2501 2502 2500 2494 2510 2503 2516 2497 2504 2505 2490 2499 2512 2510 2506 2496 2505 2509 2509 2510 2502 2500 2504 2494 2514 2505 2503 2511 2509 2490 2506 2514 2509 2509 2494 2507 2506 2496 2507 2491 2500 2496 2487 2506 2503 2495 2490 2499 2504 2508 2492 2509 2488 2499 2499 2510 2499 2488 2492 2504 2494 2495 2494 2515 2498 2509 2495 2496 2498 2505 2502 2507 2485 2504 2514 2506 2497 2499 2485 2477 2499 2495 2507 2501 2486 2487 2489 2502 2502 2490 2504 2503 2510 2504 2501 2524 2500 2498 2502 2495 2496 2525 2502 2503 2499 2494 2495 2484 2499 2509 2513 2497 2494 2509 2506 2513 2496 2496 2526 2509 2510 2511 2494 2505 2517 2508 2512 2501 2510 2514 2510 2508 2502 2504 2494 2513 2506 2491 2505 2492 2511 2501 2500 2514 2505 2516 2510 2515 2507 2494 2496 2501 2506 2512 2510 2522 2492 2519 2509 2508 2516 2503 2504 2490 2502 2500 2516 2500 2515 2522 2513 2496 2509 2512 2510 2523 2505 2516 2521 2518 2504 2510 2506 2505 2530 2503 2509 2500 2516 2496 2526 2510 2512 2526 2504 2516 2495 2516 2513 2524 2531 2522 2518 2504 2521 2523 2500 2526 2515 2494 2502 2515 2526 2517 2533 2526 2518 2505 2524 2512 2521 2532 2513 2516 2515 2516 2503 2523 2503 2533 2512 2518 2508 2532 2507 2495 2522 2498 2537 2523 2532 2512 2505 2534 2509 2529 2536 2533 2521 2531 2514 2506 2518 2509 2511 2508 2518 2504 2522 2519 2511 2524 2507 2517 2496 2520 2528 2526 2512 2513 2498 2487 2519 2508 2524 2499 2525 2509 2520 2514 2535 2511 2499 2512 2524 2525 2527 2534 2530 2507 2526 2497 2523 2524 2508 2522 2527 2536 2534 2509 2510 2532 2528 2525 2520 2497 2522 2534 2537 2500 2527 2529 2508 2536 2503 2526 2528 2526 2508 2295 2522 2512 2527 2300 2512 2531 2533 2527 2508 2218 2215 2529 2499 2532 2522 2214 2508 2515 2522 2528 2536 2519 2522 2521 2531 2526 2522 2219 2522 2514 2521 2505 2517 2531 2524 2511 2524 2528 2529 2538 2528 2515 2523 2511 2514 2527 2534 2541 2522 2538 2521 2530 2534 2524 2512 2533 2526 2525 2499 2541 2512 2521 2518 2509 2519 2522 2538 2506 2541 2514 2521 2532 2539 2529 2506 2516 2522 2532 2530 2518 2511 2525 2535 2532 2515 2535 2511 2512 2522 2520 2522 2523 2528 2539 2531 2514 2521 2518 2516 2519 2521 2531 2527 2539 2510 2523 2509 2516 2508 2525 2513 2526 2513 2512 2516 2537 2509 2530 2510 2531 2504 2528 2532 2526 2526 2518 2512 2523 2520 2526 2448 2532 2523 2524 2520 2525 2517 2518 2529 2524 2516 2520 2525 2535 2532 2523 2526 2532 2536 2523 2517 2513 2512 2512 2524 2512 2526 2513 2515 2522 2534 2515 2516 2525 2526 2517 2525 2537 2536 2526 2519 2527 2512 2380 2537 2537 2506 2526 2530 2515 2540 2537 1441 2058 2512 2535 2509 2525 2515 2384 2505 2500 2535 2541 2513 2512 2507 2537 2520 2538 2524 2526 2512 2524 2525 2515 2528 2523 2534 2524 2513 2523 2520 2531 2508 2538 2526 2526 2503 2521 2536 2534 2516 2505 2526 2524 2506 2233 2520 2529 2504 2523 2522 2520 2228 2529 2515 2489 2512 2519 2511 2511 2516 2507 2535 2524 2532 2509 2533 2530 2523 2508 2513 2498 2523 2525 2522 2529

Tree=0
num_leaves=31
num_cat=0
split_feature=62 89 53 89 26 71 86 83 41 87 68 29 86 50 89 85 14 5 86 6 89 86 84 8 85 2 11 30 61 18
split_gain=59542.6 18781.2 14363.2 12111.4 8142.27 5760.33 5664.9 4789.72 4184.5 3850.96 3475.97 4044.13 3265.56 3247.23 3144.57 2750.65 2186.06 3237.79 3071.85 2113.15 2077.19 1898.25 1802.55 1705.36 1702.67 1851.72 1629.08 1560.3 1433.16 1402.99
threshold=0.082317073170731739 0.28252032520325215 0.043699186991869927 0.080284552845528476 0.10365853658536588 0.070121951219512216 0.36428571428571438 0.78125000000000011 0.82142857142857151 0.72826086956521752 0.76428571428571435 0.45588235294118112 0.35000000000000003 0.62142857142857155 0.041666666666666678 0.34090909090909099 0.46428571428571436 0.24285714285714285 0.16428571428571431 0.72826086956521752 0.045731707317073184 0.078571428571428584 0.71333333333333349 0.0579268292682927 0.43181818181818193 0.4264705882352971 0.45588235294118112 0.62179487179487192 0.35869565217391308 0.77941176470588236
decision_type=2 2 2 2 2 2 2 2 2 2 2 2 2 2 2 2 2 2 2 2 2 2 2 2 2 2 2 2 2 2
left_child=2 3 14 8 9 12 7 16 23 13 19 -12 -4 -5 -1 21 17 -6 -19 -8 -14 -7 -23 -2 25 -11 -25 -13 -24 -22
right_child=1 -3 5 4 6 15 10 -9 -10 24 11 27 20 -15 -16 -17 -18 18 -20 -21 29 22 28 26 -26 -27 -28 -29 -30 -31
leaf_value=18.40459512231989 18.453208906294723 18.826719266447334 18.487577931597681 18.698719273361473 18.532219267901684 18.576340481332032 18.611460651183755 18.758219273599892 18.55397536590548 18.490753359915022 18.703834652174574 18.628132311376838 18.43615443565934 18.534219269248752 18.440272366211993 18.47192367166679 18.549911576422957 18.758132315419587 18.609362125642292 18.522279205931824 18.457154777014047 18.526376131664271 18.544497048074579 18.461474170889694 18.482173814646739 18.529736945633061 18.501008259831281 18.529502287716312 18.477687282346693 18.498587085108451
leaf_count=439 193 20 329 20 25 33 29 20 82 176 26 23 509 30 565 636 65 23 35 317 1349 153 36 153 176 396 327 53 297 87
internal_value=0 4.26722 -2.10714 3.98595 5.71265 -1.13314 8.44388 13.396 0.752116 3.60432 6.58684 11.7171 -2.05685 12.101 -5.43369 0.685493 11.4332 14.8342 18.9348 5.07446 -2.5497 2.39382 1.89548 -0.0696483 3.03636 3.87326 0.939741 8.03415 0.59006 -1.93444
internal_count=6622 2189 4433 2169 1414 3429 616 168 755 798 448 102 2274 50 1004 1155 148 83 58 346 1945 519 486 673 748 572 480 76 333 1436
shrinkage=1


Tree=1
num_leaves=31
num_cat=0
split_feature=62 89 62 89 85 26 2 86 35 41 87 80 50 86 14 23 68 29 8 2 44 6 8 85 76 71 11 71 14 39
split_gain=58357.7 18407.4 14153.1 11870.3 7996.05 7038.2 5155.19 5000.81 4560.13 4101.22 3918.35 3813.02 2435.59 2338.73 3523.78 5514.14 2304.45 4849.65 2086.12 1814.87 1790.93 1771.7 1671.42 1668.92 1651.03 1613.96 1596.66 1487.03 1439.16 3749.57
threshold=0.082317073170731739 0.28252032520325215 0.045731707317073184 0.080284552845528476 0.43181818181818193 0.10365853658536588 0.73529411764706165 0.3357142857142858 0.045731707317073184 0.82142857142857151 0.72826086956521752 0.080284552845528476 0.62142857142857155 0.26428571428571429 0.46428571428571436 0.36428571428571438 0.76428571428571435 0.45588235294118112 0.074186991869918714 0.4264705882352971 0.045731707317073184 0.72826086956521752 0.0579268292682927 0.29545454545454547 0.25000000000000006 0.025406504065040653 0.45588235294118112 0.095528455284552866 0.52142857142857146 0.72435897435897445
decision_type=2 2 2 2 2 2 2 2 2 2 2 2 2 2 2 2 2 2 2 2 2 2 2 2 2 2 2 2 2 2
left_child=2 3 8 9 5 10 13 23 -1 22 12 20 -5 14 15 -7 21 -18 -13 -12 -9 -15 -2 27 -20 -10 -24 -4 -22 -30
right_child=1 -3 7 4 -6 6 -8 11 25 -11 19 18 -14 16 -16 -17 17 -19 24 -21 28 -23 26 -25 -26 -27 -28 -29 29 -31
leaf_value=-0.067523485136797928 -0.025542451918433986 0.34423280621320013 0.032803993839966628 0.21751280856132507 0.0082682674464540206 0.086280532889068132 0.24881933280399868 -0.040362749417207883 -0.081726311212236225 0.074216343782296995 0.011626558107408612 -0.0093048992926394181 0.069457806205749512 0.14631708860397338 0.0625008848839336 0.27341481354928787 0.25205256364562295 0.076378478201952857 0.080885412680341842 0.050220307391701323 -0.025947612340076583 0.05858033948931201 -0.017359839888180004 0.0014048355396141063 0.016243527154287986 -0.025082753229323389 0.021778908796631233 0.11343894256995274 0.0188526150637758 -0.023639851931231488
leaf_count=646 193 20 190 20 276 32 21 383 55 82 176 361 25 25 45 31 22 55 47 396 823 290 153 182 248 589 327 26 334 549
internal_value=0 4.22455 -2.08607 3.94609 5.65552 6.82663 9.53297 -0.941347 -4.87511 0.744595 4.54136 -1.42165 13.526 8.88831 13.0087 17.8362 7.75311 12.6571 0.681546 3.83453 -2.08211 6.55436 -0.0689518 2.37132 2.65424 -2.99203 0.930343 4.25101 -1.6434 -0.756682
internal_count=6622 2189 4433 2169 1414 1138 521 3143 1290 755 617 2745 45 500 108 63 392 77 656 572 2089 315 673 398 295 644 480 216 1706 883
shrinkage=0.01


Tree=2
num_leaves=31
num_cat=0
split_feature=62 89 62 89 85 26 2 86 35 41 87 80 50 86 14 23 68 29 8 2 44 6 8 85 76 71 11 71 36 32
split_gain=57196.4 18041.1 13871.5 11634.1 7836.92 6898.14 5052.61 4901.3 4469.39 4019.61 3840.37 3737.14 2387.12 2292.19 3453.65 5404.41 2258.59 4753.14 2044.6 1778.76 1755.29 1736.44 1638.16 1635.71 1618.18 1581.84 1564.88 1457.44 1415.46 2791.2
threshold=0.082317073170731739 0.28252032520325215 0.045731707317073184 0.080284552845528476 0.43181818181818193 0.10365853658536588 0.73529411764706165 0.3357142857142858 0.045731707317073184 0.82142857142857151 0.72826086956521752 0.080284552845528476 0.62142857142857155 0.26428571428571429 0.46428571428571436 0.36428571428571438 0.76428571428571435 0.45588235294118112 0.074186991869918714 0.4264705882352971 0.045731707317073184 0.72826086956521752 0.0579268292682927 0.29545454545454547 0.25000000000000006 0.025406504065040653 0.45588235294118112 0.095528455284552866 0.67647058823529416 0.55000000000000016
decision_type=2 2 2 2 2 2 2 2 2 2 2 2 2 2 2 2 2 2 2 2 2 2 2 2 2 2 2 2 2 2
left_child=2 3 8 9 5 10 13 23 -1 22 12 20 -5 14 15 -7 21 -18 -13 -12 -9 -15 -2 27 -20 -10 -24 -4 -22 -30
right_child=1 -3 7 4 -6 6 -8 11 25 -11 19 18 -14 16 -16 -17 17 -19 24 -21 28 -23 26 -25 -26 -27 -28 -29 29 -31
leaf_value=-0.066848250195937639 -0.025287028022998356 0.34079048145562413 0.03247595401657255 0.21533767892420294 0.008185584720062174 0.085417726989835505 0.24633114389010838 -0.039959121390048889 -0.080909046612002627 0.073474179797056241 0.011510290864177725 -0.0092118500474417317 0.068763229322433478 0.14485391712188719 0.061875874413384331 0.27068066673894087 0.24953203949061309 0.075614691712639556 0.080076557657820124 0.049718103366668778 -0.02040039300055049 0.057994535923004145 -0.017186242201749018 0.001390787554331697 0.016081092725357703 -0.024831925661940323 0.02156111960473046 0.11230455114291264 -0.028347978242806025 0.033637400243850736
leaf_count=646 193 20 190 20 276 32 21 383 55 82 176 361 25 25 45 31 22 55 47 396 1415 290 153 182 248 589 327 26 140 151
internal_value=0 4.1823 -2.06521 3.90663 5.59896 6.75836 9.43764 -0.931933 -4.82635 0.737149 4.49595 -1.40744 13.3907 8.79943 12.8786 17.6579 7.67558 12.5305 0.67473 3.79619 -2.06129 6.48881 -0.0682623 2.34761 2.6277 -2.96211 0.92104 4.2085 -1.62697 0.381626
internal_count=6622 2189 4433 2169 1414 1138 521 3143 1290 755 617 2745 45 500 108 63 392 77 656 572 2089 315 673 398 295 644 480 216 1706 291
shrinkage=0.01


Tree=3
num_leaves=31
num_cat=0
split_feature=62 89 53 89 26 71 86 83 41 87 68 47 86 50 89 85 14 5 86 6 89 84 61 40 85 2 8 30 11 17
split_gain=56058.2 17682.1 13661.2 11402.6 7685.27 5514.89 5432.15 4679.57 3939.62 3623.05 3315.37 3839.17 3118.91 3078.61 3020.59 2643.98 2063.02 3106.81 2945.99 2001.27 2000.38 1817.68 1724.68 1677.48 1612.54 1743.36 1605.56 1581.66 1533.74 1380.11
threshold=0.082317073170731739 0.28252032520325215 0.043699186991869927 0.080284552845528476 0.10365853658536588 0.070121951219512216 0.36428571428571438 0.78125000000000011 0.82142857142857151 0.72826086956521752 0.76428571428571435 0.42187500000000006 0.35000000000000003 0.65000000000000013 0.041666666666666678 0.34090909090909099 0.46428571428571436 0.24285714285714285 0.16428571428571431 0.72826086956521752 0.045731707317073184 0.71333333333333349 0.35869565217391308 0.20454545454545459 0.43181818181818193 0.4264705882352971 0.0579268292682927 0.62179487179487192 0.45588235294118112 0.049796747967479689
decision_type=2 2 2 2 2 2 2 2 2 2 2 2 2 2 2 2 2 2 2 2 2 2 2 2 2 2 2 2 2 2
left_child=2 3 14 8 9 12 7 16 26 13 19 -12 -4 -5 -1 21 17 -6 -19 -8 -14 23 -23 -7 25 -11 -2 -13 -28 -17
right_child=1 -3 5 4 6 15 10 -9 -10 24 11 27 20 -15 -16 29 -18 18 -20 -21 -22 22 -24 -25 -26 -27 28 -29 -30 -31
leaf_value=-0.072565396316434369 -0.025034156679489449 0.33738257983326914 0.0084905606064390633 0.19903285562371215 0.050907606315612794 0.11024367488719321 0.12852364849427653 0.27402772480249404 0.072739438545413135 0.01139518871226094 0.23087376816706226 0.14963067168990771 -0.041835302156643224 0.041971303362112779 -0.037598590439927262 -0.034546711708818165 0.06886689927944771 0.27218042623737587 0.12648970950075558 0.041735158083190678 -0.018763560862967894 0.07259481579065323 0.0028616803103742512 0.03386240315760753 0.0029682687195864595 0.049220924370668148 -0.017014379871436974 0.05260154379265649 0.021345507788731056 0.0010066640681602181
leaf_count=439 193 20 329 24 25 37 29 20 82 176 22 24 509 26 565 140 65 23 35 317 1436 40 313 129 176 396 153 56 327 496
internal_value=0 4.14048 -2.04456 3.86756 5.54297 -1.09465 8.19645 13.0458 0.729778 3.49467 6.37796 11.3883 -1.99847 11.7361 -5.28879 0.684808 11.1056 14.4096 18.4264 4.90093 -2.48014 2.35968 1.07635 5.08871 2.94378 3.75822 -0.0675797 8.17103 0.911829 -0.681955
internal_count=6622 2189 4433 2169 1414 3429 616 168 755 798 448 102 2274 50 1004 1155 148 83 58 346 1945 519 353 166 748 572 673 80 480 636
shrinkage=0.01


Tree=4
num_leaves=31
num_cat=0
split_feature=62 89 62 89 85 26 2 86 35 41 87 80 50 86 14 23 68 29 8 17 2 44 85 76 8 71 11 71 14 39
split_gain=54942.6 17330.2 13405.7 11175.7 7588.35 6650.48 4932.95 4741.6 4336.25 3861.22 3694.41 3624.01 2297.27 2195.39 3323.59 5258.08 2169.39 4597.58 1990.3 1722.96 1708.67 1702.73 1590.81 1579.42 1573.61 1538.13 1503.22 1417.59 1399.51 3630.5
threshold=0.082317073170731739 0.28252032520325215 0.045731707317073184 0.080284552845528476 0.43181818181818193 0.10365853658536588 0.73529411764706165 0.3357142857142858 0.045731707317073184 0.82142857142857151 0.72826086956521752 0.080284552845528476 0.62142857142857155 0.26428571428571429 0.46428571428571436 0.36428571428571438 0.76428571428571435 0.45588235294118112 0.074186991869918714 0.23780487804878056 0.4264705882352971 0.045731707317073184 0.29545454545454547 0.25000000000000006 0.0579268292682927 0.025406504065040653 0.45588235294118112 0.095528455284552866 0.52142857142857146 0.72435897435897445
decision_type=2 2 2 2 2 2 2 2 2 2 2 2 2 2 2 2 2 2 2 2 2 2 2 2 2 2 2 2 2 2
left_child=2 3 8 9 5 10 13 22 -1 24 12 21 -5 14 15 -7 19 -18 -13 -15 -12 -9 27 -20 -2 -10 -26 -4 -23 -30
right_child=1 -3 7 4 -6 6 -8 11 25 -11 20 18 -14 16 -16 -17 17 -19 23 -21 -22 28 -24 -25 26 -27 -28 -29 29 -31
leaf_value=-0.065690841087292964 -0.02478381482121858 0.33400874316692353 0.032031402787095625 0.21119397832453252 0.0078356214083623206 0.083172286599874495 0.24273620946066721 -0.039270322475358652 -0.079596647647294128 0.072012044314931078 0.011281236469406972 -0.0090188869107463016 0.067404586744308478 0.056939351338496327 0.060568448278639053 0.26590999318707376 0.24504493312402204 0.073997252377596773 0.079146863653304728 0.14509302695592247 0.048728714634222216 -0.025319924454859945 0.0013764023038834988 0.015922498811156517 -0.016844235483337851 -0.024299805608083116 0.02113205299829489 0.11076117086869021 0.018802463943194486 -0.02300985680903242
leaf_count=646 193 20 190 20 276 32 21 383 55 82 176 361 25 291 45 31 22 55 47 24 396 823 182 248 153 589 327 26 334 549
internal_value=0 4.09908 -2.02411 3.82889 5.48754 6.6284 9.25915 -0.910025 -4.7385 0.72248 4.40698 -1.37772 13.1311 8.62854 12.6207 17.3091 7.52868 12.2868 0.672693 6.36558 3.72064 -2.0216 2.31564 2.59955 -0.0669039 -2.90224 0.902711 4.15081 -1.59383 -0.71941
internal_count=6622 2189 4433 2169 1414 1138 521 3143 1290 755 617 2745 45 500 108 63 392 77 656 315 572 2089 398 295 673 644 480 216 1706 883
shrinkage=0.01


Tree=5
num_leaves=31
num_cat=0
split_feature=62 89 53 89 85 26 71 2 41 87 86 89 85 50 86 14 23 68 29 89 86 81 17 2 8 11 18 14 68 78
split_gain=53849.2 16985.4 13189.8 10953.3 7437.35 6518.14 5340.44 4834.79 3784.38 3620.89 3018.33 2930.75 2566.2 2251.55 2151.7 3257.45 5153.45 2126.22 4506.09 1943.63 1779.34 1766.09 1688.67 1674.66 1542.3 1473.31 1355.84 1579.58 1447.99 1350.94
threshold=0.082317073170731739 0.28252032520325215 0.043699186991869927 0.080284552845528476 0.43181818181818193 0.10365853658536588 0.070121951219512216 0.73529411764706165 0.82142857142857151 0.72826086956521752 0.35000000000000003 0.041666666666666678 0.34090909090909099 0.62142857142857155 0.26428571428571429 0.46428571428571436 0.36428571428571438 0.76428571428571435 0.45588235294118112 0.045731707317073184 0.078571428571428584 0.33823529411764702 0.23780487804878056 0.4264705882352971 0.0579268292682927 0.45588235294118112 0.77941176470588236 0.73571428571428588 0.8928571428571429 0.8369565217391306
decision_type=2 2 2 2 2 2 2 2 2 2 2 2 2 2 2 2 2 2 2 2 2 2 2 2 2 2 2 2 2 2
left_child=2 3 11 8 5 9 10 14 24 13 -4 -1 20 -5 15 16 -7 22 -19 -12 -8 -22 -16 -11 -2 -26 28 -28 -21 -25
right_child=1 -3 6 4 -6 7 12 -9 -10 23 19 -13 -14 -15 17 -17 -18 18 -20 26 21 -23 -24 29 25 -27 27 -29 -30 -31
leaf_value=-0.071299059677164753 -0.024535976509356128 0.33066865837574005 0.0084132930545821379 0.20908203421533109 0.0077572647515900331 0.0823405653538066 0.094363488130497206 0.24030885537465413 0.071291924627815806 0.011168424231423573 -0.041128002714021734 -0.036856148198906299 -0.0066591950795326215 0.066730539000034325 0.056369958232409763 0.059962763425376688 0.26325089816124209 0.24259448831731623 0.073257279309359463 -0.022389152179613261 -0.010187215333016926 0.031157186295759785 0.14364209840695064 0.089541932448293227 -0.016675791888455162 0.02092073115369231 -0.0041585974214654979 0.095415951297396703 0.049044467036066387 0.039981326524055366
leaf_count=439 193 20 329 20 276 32 33 21 82 176 509 565 636 25 291 45 31 22 55 1320 149 337 24 66 153 327 66 21 29 330
internal_value=0 4.05809 -2.00387 3.7906 5.43267 6.56212 -1.0705 9.16656 0.715255 4.36291 -1.95991 -5.19163 0.680591 12.9998 8.54226 12.4944 17.136 7.45339 12.1639 -2.43374 2.33065 1.84816 6.30193 3.68343 -0.0662348 0.893684 -1.83859 1.98766 -2.08535 4.82414
internal_count=6622 2189 4433 2169 1414 1138 3429 521 755 617 2274 1004 1155 45 500 108 63 392 77 1945 519 486 315 572 673 480 1436 87 1349 396
shrinkage=0.01


Tree=6
num_leaves=31
num_cat=0
split_feature=62 89 62 89 85 26 2 86 35 41 87 80 50 0 5 86 1 8 3 44 2 66 76 8 71 11 14 39 0 53
split_gain=52777.6 16647.4 12957.7 10735.3 7289.34 6388.43 4738.58 4582.31 4205.54 3709.07 3548.83 3516.17 2206.74 2113.79 2357.74 2423.85 1995.31 1942.4 1655.72 1650.77 1641.34 1571.3 1539.77 1511.61 1495.13 1443.99 1373.61 3545.43 1573.4 1360.54
threshold=0.082317073170731739 0.28252032520325215 0.045731707317073184 0.080284552845528476 0.43181818181818193 0.10365853658536588 0.73529411764706165 0.3357142857142858 0.045731707317073184 0.82142857142857151 0.72826086956521752 0.080284552845528476 0.62142857142857155 0.56944444444444442 0.3357142857142858 0.16428571428571431 0.73611111111111116 0.074186991869918714 0.74679487179487192 0.045731707317073184 0.4264705882352971 0.56333333333333346 0.25000000000000006 0.0579268292682927 0.025406504065040653 0.45588235294118112 0.52142857142857146 0.72435897435897445 0.4583333333333332 0.029471544715447159
decision_type=2 2 2 2 2 2 2 2 2 2 2 2 2 2 2 2 2 2 2 2 2 2 2 2 2 2 2 2 2 2
left_child=2 3 8 9 5 10 13 21 29 23 12 19 -5 14 18 -16 -17 -13 -7 -9 -12 -4 -19 -2 -10 -25 28 -28 -21 -1
right_child=1 -3 7 4 -6 6 -8 11 24 -11 20 17 -14 -15 15 16 -18 22 -20 26 -22 -23 -24 25 -26 -27 27 -29 -30 -31
leaf_value=-0.083553848018979318 -0.02429061808425528 0.32736197614669799 -0.00030420475193029323 0.20699121433496476 0.0076796916592866181 0.096944656131996043 0.23790576792898635 -0.03858650380069531 -0.078303422656926247 0.070579004107815466 0.011056739682839677 -0.0088413010533496626 0.066063234150409697 0.056300235571974964 0.2015761430348669 0.13988178782583624 0.079154549071268329 0.078229224130194244 0.0010360333985752529 -0.0062124735070872555 0.047759011572960655 0.039894302787674051 0.015803328605909502 -0.016509034329769658 -0.023785024998750674 0.02071152602404994 0.018739842131823125 -0.022579691962683356 -0.035133740417939381 -0.053468656856201439
leaf_count=238 193 20 169 20 276 36 21 383 55 82 176 361 25 173 28 89 138 47 36 291 396 229 248 153 589 327 334 549 532 408
internal_value=0 4.0175 -1.98383 3.75269 5.37834 6.4965 9.0749 -0.888517 -4.65249 0.708103 4.31928 -1.34829 12.8698 8.45684 9.95237 11.3792 10.2964 0.671386 4.89903 -1.98252 3.6466 2.28251 2.57491 -0.0655724 -2.84411 0.884747 -1.56132 -0.695033 -2.49076 -6.45527
internal_count=6622 2189 4433 2169 1414 1138 521 3143 1290 755 617 2745 45 500 327 255 227 656 72 2089 572 398 295 673 644 480 1706 883 823 646
shrinkage=0.01


Tree=7
num_leaves=31
num_cat=0
split_feature=62 89 53 89 85 26 2 71 89 41 87 86 85 50 86 14 23 77 29 17 84 89 40 2 26 18 50 85 86 44
split_gain=51727.4 16316.1 12736.8 10521.7 7144.29 6261.3 4644.28 4601.63 3733 3635.26 3478.21 2600.96 2425.8 2162.83 2084.56 3184.58 5020.49 2073.92 3635.72 1903.72 1712.89 1630.02 1616.98 1608.67 1534.62 1524.04 1601.34 1499.84 1416.45 1351.37
threshold=0.082317073170731739 0.28252032520325215 0.045731707317073184 0.080284552845528476 0.43181818181818193 0.10365853658536588 0.73529411764706165 0.070121951219512216 0.041666666666666678 0.82142857142857151 0.72826086956521752 0.35000000000000003 0.34090909090909099 0.62142857142857155 0.26428571428571429 0.46428571428571436 0.36428571428571438 0.77857142857142869 0.45588235294118112 0.23780487804878056 0.64666666666666683 0.034552845528455299 0.20454545454545459 0.4264705882352971 0.045731707317073184 0.77941176470588236 0.55000000000000016 0.25000000000000006 0.064285714285714293 0.034552845528455299
decision_type=2 2 2 2 2 2 2 2 2 2 2 2 2 2 2 2 2 2 2 2 2 2 2 2 2 2 2 2 2 2
left_child=2 3 8 9 5 10 14 11 29 27 13 -4 20 -5 15 16 -7 19 -19 -16 22 -13 -9 -12 -10 -23 -27 -2 -22 -1
right_child=1 -3 7 4 -6 6 -8 12 24 -11 23 21 -14 -15 17 -17 -18 18 -20 -21 28 25 -24 -25 -26 26 -28 -29 -30 -31
leaf_value=-0.085870336376627276 0.029431407483000504 0.32408835941553116 0.0087361823915480044 0.2049212976023555 0.0076028951138689899 0.080652810810133813 0.23552670331228348 0.11540181941155231 -0.050552987450793022 0.069873214888999738 0.010946172535080801 -0.054005432447652942 -0.0059152547309328594 0.065402601933479312 0.05565211959133546 0.058372226892246137 0.25921424627304079 0.2288691908358173 0.073107901291644323 0.15005353826543558 0.088693741443364504 -0.02210726590806179 0.034365168413550584 0.047281422253434714 -0.02081990744495445 -0.011067046705219481 0.074089527436915562 -0.0080579012339865724 0.0076440871124682222 -0.053111834191469719
leaf_count=225 133 20 312 20 276 32 21 33 283 82 176 151 619 25 300 45 31 22 47 23 23 1513 97 396 449 63 34 540 345 286
internal_value=0 3.97733 -1.96399 3.71517 5.32456 6.43153 8.98415 -0.905903 -4.67944 0.701022 4.27609 -1.78754 0.730287 12.7411 8.37227 12.2623 16.8516 7.30053 12.2771 6.23742 2.37326 -2.25902 5.4936 3.61013 -3.23151 -1.96438 1.87816 -0.0649167 1.27097 -6.75358
internal_count=6622 2189 4433 2169 1414 1138 521 3190 1243 755 617 2073 1117 45 500 108 63 392 69 323 498 1761 130 572 732 1610 97 673 368 511
shrinkage=0.01


Tree=8
num_leaves=31
num_cat=0
split_feature=62 89 62 89 85 26 2 86 35 41 80 87 50 0 5 86 86 8 3 44 2 64 71 76 8 71 11 14 57 0
split_gain=50698 15991.4 12513.5 10312.3 7002.11 6136.7 4551.86 4425.13 4064.16 3562.92 3417.1 3408.99 2119.79 2055.19 2293.21 2346.51 1957.22 1894.17 1617.78 1598.05 1576.66 1538.08 1618.68 1505.15 1480.01 1452.25 1415.75 1348.14 3491.02 1537.11
threshold=0.082317073170731739 0.28252032520325215 0.045731707317073184 0.080284552845528476 0.43181818181818193 0.10365853658536588 0.73529411764706165 0.3357142857142858 0.045731707317073184 0.82142857142857151 0.080284552845528476 0.72826086956521752 0.62142857142857155 0.56944444444444442 0.3357142857142858 0.16428571428571431 0.76428571428571435 0.074186991869918714 0.74679487179487192 0.045731707317073184 0.4264705882352971 0.40625000000000006 0.090447154471544736 0.25000000000000006 0.0579268292682927 0.025406504065040653 0.45588235294118112 0.52142857142857146 0.5705128205128206 0.4583333333333332
decision_type=2 2 2 2 2 2 2 2 2 2 2 2 2 2 2 2 2 2 2 2 2 2 2 2 2 2 2 2 2 2
left_child=2 3 8 9 5 11 13 21 -1 24 19 12 -5 14 18 -16 -17 -12 -7 -9 -13 -4 -23 -19 -2 -10 -26 29 -29 -21
right_child=1 -3 7 4 -6 6 -8 10 25 -11 17 20 -14 -15 15 16 -18 23 -20 27 -22 22 -24 -25 26 -27 -28 28 -30 -31
leaf_value=-0.063390831496947145 -0.024029291631953088 0.32084747290611271 -0.01610898518344251 0.20287208806723356 0.0075268664275822432 0.095196604720420311 0.23317144050484612 -0.03790959793928398 -0.077033615052700052 0.069174481994676879 -0.0086485815576569196 0.010836710625074127 0.064748575207591058 0.055011912535208499 0.19807611771992276 0.083050238070388624 0.14895170570381228 0.077396424583932186 0.00039344369123379388 -0.0060356105915254747 0.046808608774885983 0.024003580506312718 0.092813676420885796 0.015676353545559029 -0.016346674444628697 -0.023302597904827679 0.020508175115884261 0.035382779375736757 -0.016113367802218389 -0.03462143978426107
leaf_count=646 193 20 82 20 276 36 21 383 55 82 361 176 25 173 28 165 62 47 36 291 396 277 39 248 153 589 327 161 722 532
internal_value=0 3.93756 -1.94435 3.67802 5.27131 6.36722 8.89431 -0.867978 -4.56686 0.694011 -1.31979 4.23333 12.6137 8.28855 9.7632 11.1704 10.105 0.671224 4.7795 -1.94502 3.57403 2.24819 3.2496 2.55097 -0.0642676 -2.78914 0.876069 -1.53061 -0.672392 -2.45139
internal_count=6622 2189 4433 2169 1414 1138 521 3143 1290 755 2745 617 45 500 327 255 227 656 72 2089 572 398 316 295 673 644 480 1706 883 823
shrinkage=0.01


Tree=9
num_leaves=31
num_cat=0
split_feature=62 89 53 89 85 26 71 2 41 87 86 89 85 50 86 14 23 68 29 89 84 61 6 40 2 85 17 78 18 14
split_gain=49689.1 15673.2 12303.6 10107.1 6862.77 6014.58 5016.34 4461.27 3492.02 3341.16 2816.99 2751.63 2436.8 2077.61 2026.41 3116.7 4895.58 2017.97 4327.34 1848.36 1709.63 1672.24 1665.93 1599.64 1545.29 1468.99 1331.17 1324.06 1295.9 1520.59
threshold=0.082317073170731739 0.28252032520325215 0.043699186991869927 0.080284552845528476 0.43181818181818193 0.10365853658536588 0.070121951219512216 0.73529411764706165 0.82142857142857151 0.72826086956521752 0.35000000000000003 0.041666666666666678 0.34090909090909099 0.62142857142857155 0.26428571428571429 0.46428571428571436 0.36428571428571438 0.76428571428571435 0.45588235294118112 0.045731707317073184 0.71333333333333349 0.35869565217391308 0.72826086956521752 0.20454545454545459 0.4264705882352971 0.25000000000000006 0.049796747967479689 0.8369565217391306 0.77941176470588236 0.73571428571428588
decision_type=2 2 2 2 2 2 2 2 2 2 2 2 2 2 2 2 2 2 2 2 2 2 2 2 2 2 2 2 2 2
left_child=2 3 11 8 5 9 10 14 25 13 -4 -1 20 -5 15 16 -7 22 -19 -12 23 -22 -16 -8 -11 -2 -14 -26 -21 -30
right_child=1 -3 6 4 -6 7 12 -9 -10 24 19 -13 26 -15 17 -17 -18 18 -20 28 21 -23 -24 -25 27 -27 -28 -29 29 -31
leaf_value=-0.068818363607914143 0.029133383571205283 0.31763899970054627 0.0082075826864474455 0.20084337088465692 0.007451598083573408 0.079048545323312278 0.10724574378616102 0.23083972868465241 0.068482738493419279 0.010728344145146283 -0.039805836500874436 -0.035444560322892005 -0.03361542317909854 0.064101090294122698 0.13859728052616122 0.056848265295227372 0.25537468310325379 0.23591230970892038 0.069967611811377783 -0.020040559432157944 0.071254143804311762 0.0025892004561119571 0.053519793026149273 0.032657744893732001 0.087228020518227964 -0.0079683991554710606 0.0013018306170500093 0.038163021809675478 -0.0038031785506190676 0.093894623766342791
leaf_count=439 133 20 329 20 276 32 37 21 82 176 509 565 140 25 25 45 31 22 55 1349 40 313 290 129 66 540 496 330 66 21
internal_value=0 3.89818 -1.92491 3.64124 5.2186 6.30355 -1.02344 8.80536 0.687071 4.19099 -1.88544 -5.00373 0.673686 12.4875 8.20566 12.0411 16.5812 7.14897 11.738 -2.34319 2.2816 1.03699 6.0272 4.92828 3.53829 -0.0636249 -0.638436 4.63405 -1.76281 1.9779
internal_count=6622 2189 4433 2169 1414 1138 3429 521 755 617 2274 1004 1155 45 500 108 63 392 77 1945 519 353 315 166 572 673 636 396 1436 87
shrinkage=0.01


Tree=10
num_leaves=31
num_cat=0
split_feature=62 89 62 89 26 86 83 86 44 41 80 87 68 47 50 6 14 5 86 8 44 66 76 2 3 76 30 8 11 26
split_gain=48700.3 15361.3 12091.3 9905.96 6727.97 5017.18 4535.85 4280.95 3980.75 3422.53 3313.47 3140.21 3053.93 3536.35 2726.55 1910.71 1883.21 2856.81 2721.3 1844.44 1549.46 1518.41 1511.19 1636.14 1521.46 1469.45 1457.65 1449.08 1388.07 1329.53
threshold=0.082317073170731739 0.28252032520325215 0.045731707317073184 0.080284552845528476 0.10365853658536588 0.36428571428571438 0.78125000000000011 0.3357142857142858 0.041666666666666678 0.82142857142857151 0.080284552845528476 0.72826086956521752 0.76428571428571435 0.42187500000000006 0.65000000000000013 0.72826086956521752 0.46428571428571436 0.24285714285714285 0.16428571428571431 0.074186991869918714 0.045731707317073184 0.56333333333333346 0.43181818181818193 0.4264705882352971 0.36538461538461542 0.25000000000000006 0.66025641025641035 0.0579268292682927 0.45588235294118112 0.034552845528455299
decision_type=2 2 2 2 2 2 2 2 2 2 2 2 2 2 2 2 2 2 2 2 2 2 2 2 2 2 2 2 2 2
left_child=2 3 8 9 11 6 16 21 29 27 20 14 15 -14 -5 -7 17 -6 -19 -12 -9 -4 23 -13 -25 -21 -15 -2 -29 -1
right_child=1 -3 7 4 5 12 -8 10 -10 -11 19 22 13 26 -16 -17 -18 18 -20 25 -22 -23 -24 24 -26 -27 -28 28 -30 -31
leaf_value=-0.081098725297898064 -0.023770830686845931 0.31446260380744934 -0.00056284046913745132 0.18608590602874756 0.046201071953773501 0.12253336295485497 0.26444368959963321 -0.037253230401453397 -0.028197688739068864 0.06779791021855866 -0.0084718346529720229 0.0098719011452691307 0.21938419389453803 0.13774082431426415 0.038277462984506905 0.037731192364924435 0.063685397391709003 0.25857667804736162 0.11855199064101492 0.076502879423663975 -0.014996023690251575 0.038953284523307492 0.0022133381037010673 -0.01938206598162651 0.052562421444297833 0.015519107810011314 0.046605260118290234 -0.016185973099633759 0.020306759098436489 -0.051079930298392563
leaf_count=250 193 20 169 24 25 29 20 383 680 82 361 174 22 26 26 317 65 23 35 47 1706 229 181 32 361 248 54 153 327 360
internal_value=0 3.8592 -1.90566 3.60482 5.16641 7.64914 12.3095 -0.847597 -4.48356 0.680201 -1.29199 3.24993 5.90149 10.7102 10.9226 4.48389 10.3994 13.5562 17.4079 0.668604 -1.90767 2.21738 2.73705 3.54013 4.67043 2.52352 7.62243 -0.0629887 0.86747 -6.33827
internal_count=6622 2189 4433 2169 1414 616 168 3143 1290 755 2745 798 448 102 50 346 148 83 58 656 2089 398 748 567 393 295 80 673 480 610
shrinkage=0.01


Tree=11
num_leaves=31
num_cat=0
split_feature=62 89 53 89 85 26 2 71 89 50 87 21 86 85 50 0 5 79 29 74 67 86 81 3 89 2 79 54 18 50
split_gain=47731.2 15055.6 11884.8 9708.83 6668.5 5790.74 4355.23 4322.86 3521.17 3364.19 3211.67 2544.89 2424.32 2300.47 1999.08 1966.18 2216.98 2279.49 3999.05 3066.04 1833.82 1641.75 1808.53 1578.11 1558.95 1486.93 1483.34 2625.78 1463.8 1544.95
threshold=0.082317073170731739 0.28252032520325215 0.045731707317073184 0.080284552845528476 0.43181818181818193 0.10365853658536588 0.73529411764706165 0.070121951219512216 0.041666666666666678 0.76428571428571435 0.72826086956521752 0.60897435897435903 0.35000000000000003 0.34090909090909099 0.62142857142857155 0.56944444444444442 0.3357142857142858 0.75000000000000011 0.45588235294118112 0.57812500000000011 0.25000000000000006 0.078571428571428584 0.33823529411764702 0.78846153846153855 0.034552845528455299 0.4264705882352971 0.35869565217391308 0.48529411764705882 0.77941176470588236 0.55000000000000016
decision_type=2 2 2 2 2 2 2 2 2 2 2 2 2 2 2 2 2 2 2 2 2 2 2 2 2 2 2 2 2 2
left_child=2 3 8 9 5 10 15 12 -1 20 14 -11 -4 21 -5 16 23 19 -19 -18 -2 -9 -23 -7 -14 -12 27 -24 -26 -30
right_child=1 -3 7 4 -6 6 -8 13 -10 11 25 -13 24 -15 -16 -17 17 18 -20 -21 -22 22 26 -25 28 -27 -28 -29 29 -31
leaf_value=-0.065240916398275506 0.0328344646738521 0.3113179788589478 0.0085017504999175281 0.19697407272458076 0.0070508058199092094 0.090171503605026959 0.22746938387552898 0.091369787495244631 -0.031034051140342824 0.10697806950372001 0.010529738673093645 0.017335145775182748 -0.052464983592192267 -0.0056587670146456062 0.062840810585021972 0.053201941045894791 0.048871633956289816 0.26800243930383161 0.10888401848929269 0.13217681598970119 -0.011248309202639481 -0.011518821690944916 0.163320371048017 -0.0036070407116237809 -0.021275026904433222 0.045463026489388096 0.02160527974954431 0.023112567680723527 -0.010520773345515842 0.073122846203691819
leaf_count=511 116 20 312 20 276 38 21 33 732 52 176 81 151 619 25 173 92 22 56 85 506 141 22 34 1513 396 268 34 63 34
internal_value=0 3.82061 -1.8866 3.56877 5.11475 6.18423 8.63905 -0.864516 -4.50966 0.673399 4.11136 5.23835 -1.71903 0.72134 12.2456 8.04652 9.48889 10.8725 15.3764 8.88769 -0.302708 2.32131 1.83762 4.58872 -2.17422 3.47143 3.13861 7.81942 -1.88607 1.87976
internal_count=6622 2189 4433 2169 1414 1138 521 3190 1243 755 617 133 2073 1117 45 500 327 255 78 177 622 498 465 72 1761 572 324 56 1610 97
shrinkage=0.01


Tree=12
num_leaves=31
num_cat=0
split_feature=80 8 44 53 86 76 83 89 41 28 89 80 66 81 89 0 10 65 64 30 36 12 87 23 59 76 58 8 30 81
split_gain=46858.5 13956 12946.7 6402.77 5455.4 4795.34 4694.65 3485.59 3389.5 3884.28 2927.51 2906.86 2713.24 2160.03 1995.5 1931.4 3154.94 1904.13 3386.43 2284.7 1835.75 1793.04 1789.22 1698.98 1610.44 1588.02 1535.83 1468.85 1434.59 1413.07
threshold=0.080284552845528476 0.074186991869918714 0.045731707317073184 0.095528455284552866 0.29285714285714287 0.34090909090909099 0.78125000000000011 0.24593495934959356 0.76428571428571435 0.73611111111111116 0.034552845528455299 0.041666666666666678 0.59333333333333338 0.54411764705882359 0.14430894308943096 0.56944444444444442 0.73611111111111116 0.67187500000000011 0.73437500000000011 0.66025641025641035 0.54411764705882359 0.86217948717948723 0.72826086956521752 0.75000000000000011 0.79285714285714304 0.11363636363636365 0.34090909090909099 0.045731707317073184 0.60897435897435903 0.49999999999999994
decision_type=2 2 2 2 2 2 2 2 2 2 2 2 2 2 2 2 2 2 2 2 2 2 2 2 2 2 2 2 2 2
left_child=2 14 11 21 12 7 24 15 10 -10 -6 -1 -4 -14 23 16 17 18 -5 -19 -11 -3 -18 -2 -7 -12 29 -27 -26 -16
right_child=1 3 4 5 8 6 -8 -9 9 20 25 -13 13 -15 26 -17 22 19 -20 -21 -22 -23 -24 -25 28 27 -28 -29 -30 -31
leaf_value=-0.066240161631238609 -0.0052857888753387377 0.037702292293020821 -0.0044865812392521449 0.075096303531253294 -0.055041164405606122 0.02726391330779511 0.18439010376515597 0.22298714050650595 0.084395927932452083 -0.024700000068048636 0.03549274299476967 -0.034094144701619603 0.043088901513111517 0.15327877163887024 0.14638124009837275 0.054116552618988713 0.1531228853420665 0.25558165788650511 0.21447710358578229 0.12148669991228316 0.026748000139933687 -0.0080030224796890925 0.060375937422594193 0.033468795341175438 0.14191893827915192 -0.035364803848980449 0.0017594864603244897 -0.012707867607801687 0.043312144122189943 0.03427948007529432
leaf_count=525 726 515 131 72 197 294 23 20 66 150 61 606 161 20 23 122 24 24 23 27 129 103 156 134 25 339 33 1835 36 22
internal_value=0 3.5259 -2.00692 5.45531 -0.947067 7.24271 4.59359 9.38239 -1.39251 1.54076 -1.80862 -4.9016 3.01768 5.52646 0.514533 8.80576 10.076 13.5301 10.8841 18.459 -0.0912215 3.00847 7.27422 0.0752716 3.69656 -1.48289 5.35767 -1.62408 8.37248 9.15759
internal_count=6622 2402 4220 1464 3089 846 378 468 2777 345 2432 1131 312 181 938 448 326 146 95 51 279 618 180 860 355 2235 78 2174 61 45
shrinkage=0.01


Tree=13
num_leaves=31
num_cat=0
split_feature=62 89 62 89 85 26 2 86 35 80 87 50 68 21 32 53 86 3 83 8 59 2 64 71 44 76 85 71 31 14
split_gain=46033.3 14651.7 11503.6 9368 7055.68 6065.28 4284.78 4072.11 3806.24 3131.07 3057.35 2753.42 2459.81 2160.97 1799.66 2205.93 1939.13 2013.16 1892.84 1764.21 1662.28 1534.5 1482.47 1559.16 1462.78 1433.83 1415.55 1379.98 1349.7 1315.7
threshold=0.082317073170731739 0.28252032520325215 0.045731707317073184 0.076219512195121977 0.43181818181818193 0.10365853658536588 0.73529411764706165 0.3357142857142858 0.045731707317073184 0.080284552845528476 0.72826086956521752 0.76428571428571435 0.65000000000000013 0.60897435897435903 0.83571428571428585 0.12296747967479678 0.42142857142857149 0.53846153846153855 0.54687500000000011 0.074186991869918714 0.73571428571428588 0.4264705882352971 0.40625000000000006 0.090447154471544736 0.045731707317073184 0.25000000000000006 0.25000000000000006 0.025406504065040653 0.20454545454545459 0.52142857142857146
decision_type=2 2 2 2 2 2 2 2 2 2 2 2 2 2 2 2 2 2 2 2 2 2 2 2 2 2 2 2 2 2
left_child=2 3 8 11 5 10 14 22 -1 24 12 26 -5 -13 16 -16 17 -7 -19 -11 -18 -12 -4 -24 -9 -21 -2 -10 -22 -26
right_child=1 -3 7 4 -6 6 -8 9 27 19 21 13 -14 -15 15 -17 20 18 -20 25 28 -23 23 -25 29 -27 -28 -29 -30 -31
leaf_value=-0.060822737097340832 0.027755910800053525 0.3069439970254898 -0.016201158612512236 0.20029480271041394 0.0056777680946802937 0.061898150791268834 0.22415624691262132 -0.036187055201850851 -0.07437205778468739 -0.0083072407357910657 0.0095895907205621207 0.10356535678560085 0.056138010533719224 0.013362071849961779 0.20469148367643356 0.076066285118460655 0.034404218242526423 0.037055994637987831 0.13950930308401585 0.075301039686545418 0.037509875475398954 0.043785274443625496 0.023182240527674609 0.09071542934729504 -0.023657788297439839 0.015060927571549039 -0.013204800682913272 -0.021995018047046594 0.12117781398343105 -0.0060831312133824101
leaf_count=646 104 20 82 20 303 109 21 383 55 361 193 44 29 67 24 30 164 22 100 47 31 410 277 39 823 248 447 589 51 883
internal_value=0 3.75204 -1.85275 3.50361 4.88103 5.96651 8.40581 -0.820718 -4.36721 -1.25414 3.90133 0.368007 11.4978 4.91183 7.85175 13.3233 7.23233 9.31301 12.1034 0.651729 5.27852 3.28404 2.16856 3.1517 -1.85263 2.46585 -0.547356 -2.64682 8.95473 -1.45614
internal_count=6622 2189 4433 2169 1507 1204 552 3143 1290 2745 652 662 49 111 531 54 477 231 122 656 246 603 398 316 2089 295 551 644 82 1706
shrinkage=0.01


Tree=14
num_leaves=31
num_cat=0
split_feature=62 89 26 89 86 71 77 21 41 0 71 71 14 83 44 35 86 85 85 10 2 8 80 78 9 40 41 12 36 39
split_gain=45117.3 14360.1 11343.5 9186.97 6417.27 5364.26 3614.94 4199.35 3231.5 3221.87 3211.56 3025.35 5273.52 5220.87 4321.73 2368.06 2344 2220.44 2147.79 1966.84 1843.69 2319.53 1811.11 1676.53 1476.2 1468.98 1862.48 2525.94 1632.3 1438.53
threshold=0.082317073170731739 0.28252032520325215 0.045731707317073184 0.080284552845528476 0.36428571428571438 0.070121951219512216 0.77857142857142869 0.67307692307692313 0.82142857142857151 0.37499999999999994 0.043699186991869927 0.10365853658536588 0.46428571428571436 0.57812500000000011 0.10772357723577237 0.10772357723577237 0.35000000000000003 0.34090909090909099 0.43181818181818193 0.79166666666666663 0.4264705882352971 0.1199186991869919 0.037601626016260173 0.8369565217391306 0.40277777777777773 0.34090909090909099 0.63571428571428579 0.83012820512820529 0.33823529411764702 0.51923076923076927
decision_type=2 2 2 2 2 2 2 2 2 2 2 2 2 2 2 2 2 2 2 2 2 2 2 2 2 2 2 2 2 2
left_child=2 3 10 8 9 16 18 15 -2 -5 -1 19 13 -13 -15 -8 -4 25 20 -11 -6 23 -18 24 -22 26 27 -7 -29 -23
right_child=1 -3 5 4 6 17 7 -9 -10 11 -12 12 -14 14 -16 -17 22 -19 -20 -21 21 29 -24 -25 -26 -27 -28 28 -30 -31
leaf_value=-0.065074793360700517 -0.00070061724782432872 0.303874560713768 0.0062632416237167199 0.033960379876873711 0.01476979958570057 0.036170078395097928 0.080963585999878962 0.038893427537861937 0.06579008240525315 0.038761964170655736 -0.031228581068274575 0.090044750427377626 0.069345039541522657 0.15085601848363875 0.34638260291172907 0.1879864270794086 -0.044855527291628755 -0.0035162780244713246 0.0020184431309407612 0.14042301347622504 0.13950427627517806 0.032731194290390703 -0.017831635363047431 0.025519457737923683 0.047509810193529671 0.0058135518172667145 0.0082217501586391815 0.05144269336806611 0.16807227230072022 0.11206328840181233
leaf_count=480 673 20 346 77 223 114 44 121 82 71 674 29 60 20 26 39 294 575 212 26 26 32 1585 275 53 210 105 20 30 80
internal_value=0 3.71452 -1.83422 3.46857 4.97243 -0.885236 3.84588 7.64705 0.652089 9.00101 -4.53067 10.8613 13.9223 19.5125 26.1371 13.1251 -1.76555 0.97312 2.98524 6.60113 3.84167 4.97327 -2.206 3.71836 7.77865 2.56337 4.11067 6.2161 12.142 8.9397
internal_count=6622 2189 4433 2169 1414 3279 1105 204 755 309 1154 232 135 75 46 83 2225 1054 901 97 689 466 1879 354 79 479 269 164 50 112
shrinkage=0.01


Tree=15
num_leaves=31
num_cat=0
split_feature=80 8 44 53 86 76 83 89 41 28 89 80 66 81 89 86 34 2 5 36 12 77 70 23 85 40 89 59 58 30
split_gain=44392.9 13280.4 12297.4 6094.81 5205.1 4588.79 4543.89 3306.11 3272.28 3778.06 2816.46 2779.07 2628.5 2100.35 1913.02 1859.64 2809.42 2803.15 1859.61 1780.79 1747.71 1714.82 2717.37 1644.88 1563.44 1590.55 1593.6 1545.59 1491.67 1461.4
threshold=0.080284552845528476 0.074186991869918714 0.045731707317073184 0.095528455284552866 0.29285714285714287 0.34090909090909099 0.78125000000000011 0.24593495934959356 0.76428571428571435 0.73611111111111116 0.034552845528455299 0.041666666666666678 0.59333333333333338 0.54411764705882359 0.14430894308943096 0.77857142857142869 0.86250000000000016 0.45588235294118112 0.1785714285714286 0.54411764705882359 0.86217948717948723 0.25000000000000006 0.45652173913043487 0.75000000000000011 0.34090909090909099 0.20454545454545459 0.095528455284552866 0.79285714285714304 0.34090909090909099 0.66025641025641035
decision_type=2 2 2 2 2 2 2 2 2 2 2 2 2 2 2 2 2 2 2 2 2 2 2 2 2 2 2 2 2 2
left_child=2 14 11 20 12 7 27 15 10 -10 -6 -1 -4 -14 23 17 29 -5 -19 -11 -3 22 -20 -2 25 -12 -27 -7 -16 -17
right_child=1 3 4 5 8 6 -8 -9 9 19 24 -13 13 -15 28 16 -18 18 21 -21 -22 -23 -24 -25 -26 26 -28 -29 -30 -31
leaf_value=-0.064587004836022838 -0.0052993645577001352 0.03678809299182545 -0.0045952362868622058 0.028141127248386761 -0.053891565527596753 0.026335152692547967 0.18087745380142461 0.2173037393242121 0.083303829782614205 -0.02425886344263951 0.024712925731174406 -0.033155506859647216 0.042209198393436696 0.15086614145338537 0.08981191111935509 0.14832451596856117 0.20210398314520717 0.031767796746693382 0.23508271010025689 0.02641314765626146 -0.0083358094956979007 0.089297271581376847 0.085864541851557216 0.032833214357717716 -0.021496871090405024 -0.01365064975953832 0.052760999367425322 0.081647514063315316 0.0012963207066059113 0.037969008396069211
leaf_count=525 726 515 131 91 197 294 23 20 66 150 155 606 161 20 45 20 32 43 23 129 103 183 26 134 1307 735 38 61 33 30
internal_value=0 3.43188 -1.95341 5.31401 -0.92047 7.0579 4.46646 9.15098 -1.35558 1.52653 -1.76443 -4.77457 2.95225 5.42155 0.49431 8.5894 12.8938 7.62504 9.21702 -0.0829869 2.92674 10.3365 15.5906 0.0642223 -1.44493 -0.45235 -1.03859 3.58395 5.2363 8.21112
internal_count=6622 2402 4220 1464 3089 846 378 468 2777 345 2432 1131 312 181 938 448 82 366 275 279 618 232 49 860 2235 928 773 355 78 50
shrinkage=0.01


Tree=16
num_leaves=31
num_cat=0
split_feature=62 89 53 26 89 85 89 83 87 85 80 59 86 17 21 83 0 59 12 61 86 21 71 45 14 32 3 26 85 52
split_gain=43519.6 13973 11008.9 8883.08 4599.07 3907.07 3885.26 3815.3 3524.39 2978.89 2494.86 2468.17 2270.12 2240.87 2027.07 1980.68 1856.08 1853.67 2561.37 4273.76 2045.34 1795.04 1718.42 1618.43 2090.38 1611.59 1449.01 1413.12 1411.76 1608.52
threshold=0.082317073170731739 0.28252032520325215 0.043699186991869927 0.10772357723577237 0.061991869918699198 0.34090909090909099 0.076219512195121977 0.78125000000000011 0.72826086956521752 0.43181818181818193 0.025406504065040653 0.73571428571428588 0.35000000000000003 0.049796747967479689 0.67307692307692313 0.54687500000000011 0.68055555555555547 0.79285714285714304 0.78846153846153855 0.80434782608695665 0.42142857142857149 0.67307692307692313 0.070121951219512216 0.54411764705882359 0.53571428571428581 0.37857142857142861 0.53846153846153855 0.045731707317073184 0.34090909090909099 0.35869565217391308
decision_type=2 2 2 2 2 2 2 2 2 2 2 2 2 2 2 2 2 2 2 2 2 2 2 2 2 2 2 2 2 2
left_child=2 3 10 5 12 8 -5 9 15 17 -1 -7 -4 -6 -13 -2 21 20 19 -19 26 -10 -15 25 -25 -14 -8 -12 29 -24
right_child=1 -3 4 6 13 11 7 -9 16 -11 27 14 23 22 -16 -17 -18 18 -20 -21 -22 -23 28 24 -26 -27 -28 -29 -30 -31
leaf_value=-0.081686542341216445 0.061805126732215283 0.29959161806106571 0.0086213872462164529 0.016523980917717448 -0.021092019837683024 -0.003943700484420041 0.06456634765592488 0.17779972270582661 0.060369274780969137 0.013351469102433358 -0.052845071251193677 0.093726315933465948 -0.00098796921116965164 -0.0030783603798017925 0.012941555958695528 0.1819818542773525 -0.026160842343321385 0.086275570609352814 0.047055047554895285 0.26384903596795123 0.043598758871316583 0.022202150326081398 0.10208582907449454 -0.033669037919556881 0.014231207024067258 -0.037435636597934481 0.11773283187920848 -0.026762857370558956 0.0059019077064593629 0.026997727105117796
leaf_count=173 32 20 215 151 352 641 110 33 192 87 420 50 140 777 82 24 53 33 32 23 186 344 32 171 195 909 96 411 375 263
internal_value=0 3.64816 -1.80145 3.40555 -0.94873 1.93278 6.18635 7.3274 3.74996 6.71904 -4.71377 0.416509 -2.1654 0.153646 4.35418 11.3309 3.02919 7.69488 11.8425 15.9208 6.76378 3.5874 0.70411 -2.62542 -0.814842 -3.25713 8.9343 -3.99452 1.87767 3.51429
internal_count=6622 2189 4433 2169 3429 1418 751 600 645 567 1004 773 1630 1799 132 56 589 480 88 56 392 536 1447 1415 366 1049 206 831 670 295
shrinkage=0.01


Tree=17
num_leaves=31
num_cat=0
split_feature=80 8 44 53 86 76 83 89 41 28 89 80 66 81 89 5 0 10 65 64 36 12 87 23 76 43 59 58 73 8
split_gain=42826.1 12835.1 11869.8 5878.43 5039.82 4444.24 4409.79 3185.97 3179.99 3686.69 2729.18 2681.74 2564.24 2056.93 1859.28 1835 2098.75 2448.25 1869.56 3356.47 1728.74 1707.83 1630.81 1601.42 1525.28 1513.98 1498.27 1455.37 1452.67 1404.66
threshold=0.080284552845528476 0.074186991869918714 0.045731707317073184 0.095528455284552866 0.29285714285714287 0.34090909090909099 0.78125000000000011 0.24593495934959356 0.76428571428571435 0.73611111111111116 0.034552845528455299 0.041666666666666678 0.59333333333333338 0.54411764705882359 0.14430894308943096 0.24285714285714285 0.56944444444444442 0.73611111111111116 0.67187500000000011 0.73437500000000011 0.54411764705882359 0.86217948717948723 0.72826086956521752 0.75000000000000011 0.11363636363636365 0.92500000000000016 0.79285714285714304 0.34090909090909099 0.67187500000000011 0.045731707317073184
decision_type=2 2 2 2 2 2 2 2 2 2 2 2 2 2 2 2 2 2 2 2 2 2 2 2 2 2 2 2 2 2
left_child=2 14 11 21 12 7 26 15 10 -10 -6 -1 -4 -14 23 28 17 18 19 -17 -11 -3 -19 -2 -12 -18 -7 -16 -5 -26
right_child=1 3 4 5 8 6 -8 -9 9 20 24 -13 13 -15 27 16 25 22 -20 -21 -22 -23 -24 -25 29 -27 -28 -29 -30 -31
leaf_value=-0.063446749416987108 -0.0052738909772276554 0.03620015990256685 -0.0046288491299247923 0.074768151078711861 -0.053031220953476614 0.025782740140241907 0.17802227012975061 0.2134231705367565 0.082302972081145551 -0.023891181918978689 0.035112517604329548 -0.032570564290341497 0.041577034606511555 0.14910497112199664 0.088568192654185834 0.071744412990673537 0.033429501115144054 0.16209134015170013 0.20094172124346521 0.21867866292595864 0.026034784989301549 -0.0084059939678143535 0.069044768833022088 0.032351567899606734 -0.034290061447505668 0.11687426580985387 0.080241930493321581 0.0011361322168147924 -0.016395139139274071 -0.012133786316771042
leaf_count=525 726 515 131 44 197 294 23 20 66 150 61 606 161 20 45 53 79 22 38 22 129 103 131 134 339 30 61 33 29 1835
internal_value=0 3.37077 -1.91863 5.22108 -0.90381 6.93374 4.38344 8.99359 -1.33195 1.50922 -1.735 -4.6903 2.90693 5.34586 0.482871 8.44231 9.33525 10.8496 14.3798 11.4845 -0.0807133 2.87658 8.2424 0.0588681 -1.42049 5.6396 3.51405 5.15777 3.85526 -1.55887
internal_count=6622 2402 4220 1464 3089 846 378 468 2777 345 2432 1131 312 181 938 448 375 266 113 75 279 618 153 860 2235 109 355 78 73 2174
shrinkage=0.01


Tree=18
num_leaves=31
num_cat=0
split_feature=62 89 35 89 85 26 80 2 62 87 50 89 50 21 86 36 23 85 76 32 53 86 3 83 59 2 85 31 78 30
split_gain=41974.6 13601.2 10674.6 8619.18 6572.45 5560.75 4618.28 4130.5 3228.93 2892.62 2603.32 2580.15 2344.37 2078.17 1968.52 1905.95 3177.6 1847.31 1786.57 1726.87 2129.37 1835.84 1894.08 1807.36 1563.9 1444.52 1343.3 1296.99 1265.81 1236.85
threshold=0.082317073170731739 0.28252032520325215 0.045731707317073184 0.076219512195121977 0.43181818181818193 0.10365853658536588 0.076219512195121977 0.73529411764706165 0.045731707317073184 0.72826086956521752 0.76428571428571435 0.034552845528455299 0.62142857142857155 0.60897435897435903 0.36428571428571438 0.60294117647058831 0.62142857142857155 0.25000000000000006 0.34090909090909099 0.83571428571428585 0.12296747967479678 0.42142857142857149 0.53846153846153855 0.54687500000000011 0.73571428571428588 0.4264705882352971 0.25000000000000006 0.20454545454545459 0.8369565217391306 0.37500000000000006
decision_type=2 2 2 2 2 2 2 2 2 2 2 2 2 2 2 2 2 2 2 2 2 2 2 2 2 2 2 2 2 2
left_child=2 3 8 10 5 9 11 19 -1 12 26 -4 -5 -12 -13 18 -17 -8 -16 21 -21 22 -7 -24 -23 -11 -2 -26 -27 -18
right_child=1 -3 6 4 -6 7 17 -9 -10 25 13 14 -14 -15 15 16 29 -19 -20 20 -22 24 23 -25 27 28 -28 -29 -30 -31
leaf_value=-0.058396171772443106 0.026827582066448835 0.29541350507736203 -0.048974856078044846 0.19110870094526383 0.0050174907395745269 0.058923022950734573 0.041151485208083288 0.21803245603328658 -0.02539535151780957 0.0087859073211800868 0.10093387321992354 0.009818290103049505 0.051335927790829114 0.012475645631106931 -0.0097918042416481194 -0.026630002886916974 0.10196181113069708 0.0041530720629149925 -0.032398588622136917 0.19884497920672101 0.07247136152846119 0.032132703393425152 0.034223569685762581 0.13433657549619674 0.034607969301362194 0.081368814316194721 -0.013074160418837797 0.11662592831779929 0.034129037087924821 0.022382559043665731
leaf_count=646 104 20 212 21 303 109 165 21 548 193 44 336 28 67 651 183 22 741 755 24 30 164 22 100 31 68 447 51 342 174
internal_value=0 3.58282 -1.76918 3.34346 4.66468 5.71233 -0.827023 8.04797 -4.32501 3.7349 0.335782 -1.57114 11.1239 4.75402 -1.23866 -1.65664 0.333624 1.08912 -2.19313 7.50398 12.8637 6.89722 8.92173 11.6283 4.99615 3.13448 -0.55428 8.56191 4.19639 3.13149
internal_count=6622 2189 4433 2169 1507 1204 3239 552 1194 652 662 2333 49 111 2121 1785 379 906 1406 531 54 477 231 122 246 603 551 82 410 196
shrinkage=0.01


Tree=19
num_leaves=31
num_cat=0
split_feature=80 8 44 53 86 76 83 89 41 28 89 80 89 89 5 0 10 14 77 86 21 48 45 12 51 87 23 3 43 59
split_gain=41235.6 12429.9 11469.9 5677.88 4892.81 4315.7 4306.13 3716.4 3453.58 3714.77 3070.79 2597.69 2304.93 1800.23 1791.7 2039.86 2384.81 1839.45 1936.42 1706.74 2587.24 1687.52 1673.7 1669.73 1622.22 1579.98 1558.2 1493.31 1478.84 1456.32
threshold=0.080284552845528476 0.074186991869918714 0.045731707317073184 0.095528455284552866 0.35000000000000003 0.34090909090909099 0.78125000000000011 0.11178861788617889 0.76428571428571435 0.73611111111111116 0.24593495934959356 0.041666666666666678 0.034552845528455299 0.14430894308943096 0.24285714285714285 0.56944444444444442 0.73611111111111116 0.75000000000000011 0.62142857142857155 0.49285714285714294 0.71153846153846156 0.83012820512820529 0.54411764705882359 0.86217948717948723 0.80978260869565233 0.72826086956521752 0.75000000000000011 0.60897435897435903 0.92500000000000016 0.79285714285714304
decision_type=2 2 2 2 2 2 2 2 2 2 2 2 2 2 2 2 2 2 2 2 2 2 2 2 2 2 2 2 2 2
left_child=2 13 11 23 7 10 29 24 12 -10 14 -1 -6 26 -5 16 17 18 -16 21 -21 -14 -11 -3 -4 -18 -2 -19 -17 -7
right_child=1 3 4 5 8 6 -8 -9 9 22 -12 -13 19 -15 15 28 25 27 -20 20 -22 -23 -24 -25 -26 -27 -28 -29 -30 -31
leaf_value=-0.062354970774196446 -0.0052986873214238275 0.03559385570623342 0.064136102907359605 0.037676586804732883 -0.052465989572253638 0.025168022407712987 0.17558625326208446 0.14103619452565908 0.083160714154060081 -0.023660547994327225 0.20964938142895698 -0.031966476844894169 -0.030386584413927865 0.050657028431693715 0.13537243555610379 0.032693194650773763 0.15943943673914129 0.14997213494777678 0.2453844916323821 0.014765708400571549 -0.017761391316460314 0.018864896664101828 0.025438868179344213 -0.0085118829390233002 0.0068855185768711318 0.06785453241745025 0.031815479149791728 0.029234736851815667 0.11516397807995478 0.078859334917219942
leaf_count=525 726 515 56 73 188 294 23 24 65 149 20 606 822 78 48 79 22 20 24 352 801 76 130 103 426 131 134 21 30 61
internal_value=0 3.30759 -1.88266 5.12845 -0.885082 6.81164 4.29849 1.95844 -1.44212 1.50787 8.84148 -4.60725 -1.89535 0.465637 8.30026 9.18261 10.6756 14.1597 17.2043 -1.58817 -0.783118 -2.62183 -0.0782684 2.82429 1.3537 8.10236 0.0484218 8.8131 5.53916 3.43939
internal_count=6622 2402 4220 1464 3089 846 378 506 2583 344 468 1131 2239 938 448 375 266 113 72 2051 1153 898 279 618 482 153 860 41 109 355
shrinkage=0.01


Tree=20
num_leaves=31
num_cat=0
split_feature=62 89 26 17 85 71 89 86 32 73 23 71 8 80 76 50 86 46 6 86 47 89 36 14 89 83 89 50 32 30
split_gain=40480.2 13231.6 10372 8357.03 5253.98 4909.58 4706.41 3346.71 3841.98 3422.7 6588.44 2907.99 2156.36 2130.54 2102.87 2027.1 1866.26 1854.45 2265.23 1866.31 1793.63 1789.53 1681 2980.45 1664.38 1610.42 1434.89 1351.1 1825.86 1340.39
threshold=0.082317073170731739 0.28252032520325215 0.045731707317073184 0.082317073170731739 0.43181818181818193 0.070121951219512216 0.070121951219512216 0.36428571428571438 0.83571428571428585 0.76562500000000011 0.42142857142857149 0.043699186991869927 0.21747967479674804 0.10772357723577237 0.25000000000000006 0.76428571428571435 0.35000000000000003 0.875 0.72826086956521752 0.72142857142857153 0.42187500000000006 0.095528455284552866 0.60294117647058831 0.59285714285714297 0.11178861788617889 0.70312500000000011 0.061991869918699198 0.36428571428571438 0.43571428571428578 0.72435897435897445
decision_type=2 2 2 2 2 2 2 2 2 2 2 2 2 2 2 2 2 2 2 2 2 2 2 2 2 2 2 2 2 2
left_child=2 3 11 13 6 12 -5 9 17 21 -11 -1 16 15 24 -2 -4 18 -9 -20 -10 -8 26 -24 -7 -15 -18 -23 -29 -17
right_child=1 -3 5 4 -6 14 7 8 20 10 -12 -13 -14 25 -16 29 22 -19 19 -21 -22 27 23 -25 -26 -27 -28 28 -30 -31
leaf_value=-0.061968638318746043 -0.0073837354539907267 0.2912188579440117 0.0038876134065965956 0.013104678597620557 0.0064190909861181894 0.028478323007807317 0.041129493764601649 0.13699327496868191 0.20715984162830173 0.3148903359770775 0.061284982306616644 -0.029761756115181247 0.086646199908107527 0.024701230836651038 0.0029402551944378318 0.063454054125437614 -0.034232092813231356 0.0087473001455267273 0.036755229630338809 0.085309876302878063 0.093031924419105058 0.065881822751118591 -0.031498950737798535 0.027462741581872962 0.11771016832441092 0.097901806077536402 -0.014509334937004955 0.18034134261119061 0.084764081966586233 -0.0059002863683483824
leaf_count=480 544 20 340 175 223 162 64 33 21 20 21 674 20 259 868 76 894 96 276 111 40 52 169 174 24 34 628 39 41 44
internal_value=0 3.51846 -1.7374 3.28238 5.0266 -0.829972 6.01526 7.02673 5.72721 10.1905 18.4995 -4.3158 -1.67215 1.0734 0.947882 0.0822505 -1.76591 4.83999 5.74634 5.06818 13.2322 8.45244 -2.15872 -0.158835 3.99921 3.31955 -2.60942 10.5564 13.1358 3.80241
internal_count=6622 2189 4433 2169 1212 3279 989 814 577 237 41 1154 2225 957 1054 664 2205 516 420 387 61 196 1865 343 186 293 1522 132 80 120
shrinkage=0.01


Tree=21
num_leaves=31
num_cat=0
split_feature=80 8 44 53 86 76 83 89 41 28 89 89 26 51 36 76 5 0 10 65 64 89 12 5 57 87 23 43 30 58
split_gain=39746.9 12005.9 11099.5 5479.89 5233.9 4176.16 4200.34 3622.86 3586.11 3993.81 2964.01 2547.62 2057.67 1816.98 1784.91 1766.1 1753.66 1989.25 2320.68 1809.37 3257.49 1745.02 1628.03 1527.67 2958.2 1518.43 1513.84 1446.77 1439.75 1418.98
threshold=0.080284552845528476 0.074186991869918714 0.041666666666666678 0.095528455284552866 0.35000000000000003 0.34090909090909099 0.78125000000000011 0.11178861788617889 0.76428571428571435 0.73611111111111116 0.24593495934959356 0.034552845528455299 0.034552845528455299 0.80978260869565233 0.54411764705882359 0.11363636363636365 0.24285714285714285 0.56944444444444442 0.73611111111111116 0.67187500000000011 0.73437500000000011 0.14430894308943096 0.86217948717948723 0.53571428571428581 0.5705128205128206 0.72826086956521752 0.75000000000000011 0.92500000000000016 0.86217948717948723 0.34090909090909099
decision_type=2 2 2 2 2 2 2 2 2 2 2 2 2 2 2 2 2 2 2 2 2 2 2 2 2 2 2 2 2 2
left_child=2 21 12 22 7 10 -7 13 11 -10 16 -6 -1 -4 -11 -13 -5 18 19 20 -18 26 -3 -17 -25 -20 -2 -19 -26 -23
right_child=1 3 4 5 8 6 -8 -9 9 14 -12 15 -14 -15 -16 23 17 27 25 -21 -22 29 -24 24 28 -27 -28 -29 -30 -31
leaf_value=-0.070355277196786845 -0.0052649564232379606 0.034990960992945054 0.065792738204372342 0.036712485372203674 -0.051863249724945132 0.033697776957926619 0.17314508540474852 0.13892002097020548 0.082841285151593821 -0.024666793674219006 0.20598001736402513 0.035154280308634045 -0.038597772134016599 0.0062784170009602741 0.024440188177310637 -0.026494294298130581 0.068453710973262791 0.031853651485488389 0.15651703536510467 0.19561352279625444 0.21320515019776806 0.086357695009973312 -0.0085605012386747933 0.034688655815341252 -0.005799116998638363 0.066733537678045171 0.031317182948896245 0.11342508317033451 -0.031330573889630453 2.5606900453567506e-05
leaf_count=313 726 515 58 73 226 355 23 24 68 161 20 64 586 444 137 1084 53 79 22 38 22 45 103 132 557 131 134 30 366 33
internal_value=0 3.24733 -1.84836 5.03687 -1.00456 6.69045 4.21827 1.88929 -1.54916 1.3689 8.68721 -1.98885 -4.96546 1.31546 -0.209077 -1.66083 8.15548 9.02841 10.5028 13.9397 11.0914 0.454274 2.77324 -1.81571 -0.959071 7.96436 0.0435051 5.43045 -1.59232 4.98326
internal_count=6622 2402 4220 1464 3321 846 378 526 2795 366 468 2429 899 502 298 2203 448 375 266 113 75 938 618 2139 1055 153 860 109 923 78
shrinkage=0.01


Tree=22
num_leaves=31
num_cat=0
split_feature=62 89 53 17 85 89 89 2 86 73 32 80 17 86 80 50 47 6 89 71 83 45 14 32 50 71 85 52 30 26
split_gain=39038.5 12866.5 10038.1 8070.82 5100.45 4550.85 4175.53 3268.85 2702.61 4704.19 3204.05 2303.26 2092.35 2077.58 2050.45 1967.59 1857.94 1816.86 1788.04 1581.7 1565.88 1504.59 1914.3 1569.23 1392.7 1358.06 1332.96 1552.08 1303.95 1272.54
threshold=0.082317073170731739 0.28252032520325215 0.043699186991869927 0.082317073170731739 0.43181818181818193 0.070121951219512216 0.061991869918699198 0.30882352941176811 0.36428571428571438 0.76562500000000011 0.83571428571428585 0.025406504065040653 0.049796747967479689 0.35000000000000003 0.10772357723577237 0.76428571428571435 0.42187500000000006 0.72826086956521752 0.095528455284552866 0.070121951219512216 0.70312500000000011 0.54411764705882359 0.53571428571428581 0.37857142857142861 0.36428571428571438 0.070121951219512216 0.34090909090909099 0.35869565217391308 0.72435897435897445 0.045731707317073184
decision_type=2 2 2 2 2 2 2 2 2 2 2 2 2 2 2 2 2 2 2 2 2 2 2 2 2 2 2 2 2 2
left_child=2 3 11 14 5 -5 13 -7 9 18 17 -1 -8 -4 15 -2 -12 -10 -9 -14 -16 23 -23 25 -20 -15 27 -21 -17 -13
right_child=1 -3 6 4 -6 7 12 8 10 -11 16 29 19 21 20 28 -18 -19 24 26 -22 22 -24 -25 -26 -27 -28 -29 -30 -31
leaf_value=-0.078067115474535376 -0.0072922205484663959 0.28702937045693394 0.0084508237682532003 0.012842523598458087 0.0061637335738392689 -0.004674430085080011 -0.020281188439588402 0.040307212928310035 0.12158698375440306 0.20804715785715316 0.21012899485230446 -0.050202015783105576 -0.0028048538898706359 -0.015062792897306845 0.024175434053433219 0.062526049581601434 0.091053206042239529 0.047651672965694239 0.064606754413017858 0.099823540672659875 0.096356658760239092 -0.031877836679593166 0.013960674778629953 -0.035803876158233723 0.13124885110160972 0.063878160375687804 0.0056524579898516334 0.026064593833676424 -0.00587898620150306 -0.025451086941073193
leaf_count=173 544 20 215 175 223 56 352 64 36 36 20 420 777 113 259 76 38 433 52 32 34 171 195 909 79 27 375 263 44 411
internal_value=0 3.45524 -1.70618 3.22243 4.93652 5.91063 -0.89193 6.90525 7.44993 10.302 6.19979 -4.48714 0.158458 -2.05122 1.05161 0.0792675 13.2114 5.33269 8.36301 0.690369 3.25514 -2.4913 -0.745568 -3.10039 10.4795 0.0161534 1.81627 3.40656 3.74442 -3.79606
internal_count=6622 2189 4433 2169 1212 989 3429 814 758 231 527 1004 1799 1630 957 664 58 469 195 1447 293 1415 366 1049 131 140 670 295 120 831
shrinkage=0.01


Tree=23
num_leaves=31
num_cat=0
split_feature=80 53 44 8 86 89 41 28 83 8 19 89 40 4 41 14 38 76 14 26 51 36 76 12 5 21 32 84 50 60
split_gain=38294.6 11609.6 10721.4 5117.68 5065.85 3517.53 3477.16 3891.33 2938.11 2892.66 2537.67 2465.28 2431.34 2569.26 3011.12 3021.02 2248.21 2046.19 2435.88 1992.62 1770.6 1729.87 1725.33 1589.66 1495.35 2888.21 1413.63 1409.37 1350.24 1343.67
threshold=0.080284552845528476 0.095528455284552866 0.041666666666666678 0.10772357723577237 0.35000000000000003 0.11178861788617889 0.76428571428571435 0.73611111111111116 0.78125000000000011 0.074186991869918714 0.84722222222222221 0.034552845528455299 0.34090909090909099 0.20454545454545459 0.79285714285714304 0.43571428571428578 0.57812500000000011 0.34090909090909099 0.8928571428571429 0.034552845528455299 0.80978260869565233 0.54411764705882359 0.11363636363636365 0.86217948717948723 0.53571428571428581 0.78846153846153855 0.53571428571428581 0.71333333333333349 0.73571428571428588 0.8369565217391306
decision_type=2 2 2 2 2 2 2 2 2 2 2 2 2 2 2 2 2 2 2 2 2 2 2 2 2 2 2 2 2 2
left_child=2 9 19 8 5 20 11 -8 17 -2 12 -6 13 16 15 27 -5 18 -3 -1 -4 -9 -13 29 -24 26 -26 -15 -19 -11
right_child=1 3 4 10 6 -7 7 21 -10 23 -12 22 -14 14 -16 -17 -18 28 -20 -21 -22 -23 24 -25 25 -27 -28 -29 -30 -31
leaf_value=-0.06914902757579526 -0.0026983388178160412 0.04375381617214192 0.064928074890169607 0.021739967323677695 -0.050991016096905269 0.13688972495496274 0.081785634843742142 -0.024274869295797363 0.13419632065296175 0.079726473868920886 0.023322049310574165 0.034851116476347671 0.06209923131964528 0.12131766594201328 0.22590539032413112 0.072099503150322666 0.12357737171940687 0.005780972601803205 0.15790758588910103 -0.037897493749596306 0.0061782371497876645 0.024068963969819737 -0.026089836899650786 -0.0086492230728702629 -0.02507322365114855 -0.022769121957756069 0.020419045943789276 0.23861292569410231 0.062973193761379442 0.028631569157381027
leaf_count=313 678 286 58 46 226 24 68 161 30 58 65 64 169 20 31 66 41 262 20 586 444 137 1084 103 86 637 332 21 49 457
internal_value=0 3.18745 -1.81428 5.56729 -0.984976 1.86204 -1.52076 1.35263 3.75548 1.15651 8.12119 -1.95373 9.07623 11.2291 13.9122 11.3979 6.97323 3.28558 5.12148 -4.87782 1.29661 -0.204968 -1.63105 2.72134 -1.78413 -0.936598 1.10594 18.1396 1.4792 3.43859
internal_count=6622 2402 4220 1106 3321 526 2795 366 647 1296 459 2429 394 225 138 107 87 617 306 899 502 298 2203 618 2139 1055 418 41 311 515
shrinkage=0.01


Tree=24
num_leaves=31
num_cat=0
split_feature=71 8 44 3 68 86 86 89 71 73 85 89 66 2 80 59 21 0 70 5 19 76 86 71 23 70 17 36 32 5
split_gain=37658.5 10688.7 9420.63 5014.07 4948.53 5362.51 4189.15 3449.87 3225.39 4472.09 2688.81 2492.9 2389.3 2178.47 2336.18 1934.69 1929.6 1903.02 1804.35 1788.59 2761.29 1775.19 1751.11 1619.98 1576.8 1567.45 1553.96 1537.55 3391.86 1417.88
threshold=0.078252032520325226 0.086382113821138237 0.037601626016260173 0.86217948717948723 0.76428571428571435 0.36428571428571438 0.29285714285714287 0.061991869918699198 0.10365853658536588 0.76562500000000011 0.34090909090909099 0.13211382113821143 0.59333333333333338 0.30882352941176811 0.1158536585365854 0.76428571428571435 0.67307692307692313 0.56944444444444442 0.80434782608695665 0.39285714285714296 0.79166666666666663 0.25000000000000006 0.42142857142857149 0.025406504065040653 0.80714285714285727 0.80434782608695665 0.049796747967479689 0.54411764705882359 0.62142857142857155 0.53571428571428581
decision_type=2 2 2 2 2 2 2 2 2 2 2 2 2 2 2 2 2 2 2 2 2 2 2 2 2 2 2 2 2 2
left_child=2 10 23 4 5 8 12 27 -3 -10 13 25 -4 -2 18 -12 -17 -16 -15 20 -14 -7 -20 -1 -13 -6 -9 -8 -29 -28
right_child=1 3 6 -5 11 21 7 26 9 -11 15 24 19 14 17 16 -18 -19 22 -21 -22 -23 -24 -25 -26 -27 29 28 -30 -31
leaf_value=-0.079261700376903388 -0.027014885402642765 0.049538941312919964 -0.0077896089470457465 0.0054910212842261665 0.063783856065649736 0.068823524172433079 -0.030447365593024026 -0.024414816798082183 0.095480337212483099 0.24014237004977004 -0.0082851627875203913 0.12158044191924008 0.045011635876364177 0.0099941186667388288 0.087696238388972628 0.088651589071378115 0.0017682509851015982 -0.0044753616835389821 0.14478354462236165 0.023426144172953182 0.18623001751303672 0.025648316423342164 0.036272381138184977 -0.043121873883819266 0.24426426136493681 0.14314886847359909 -0.0098635731167214611 -0.032962023007946754 0.022156065057473952 0.012385855643141506
leaf_count=159 65 110 147 184 76 122 1234 286 120 26 612 22 45 294 112 44 61 28 20 121 20 434 58 564 20 37 554 256 198 593
internal_value=0 3.11695 -1.8245 5.33388 6.24432 5.25597 -1.13741 -1.49714 9.04321 12.1242 1.14501 11.422 2.23412 2.7519 3.44422 -0.148115 3.81765 6.92619 2.1338 4.61542 8.84634 3.5122 6.40958 -5.10696 18.0001 8.97706 -0.356053 -2.46584 -0.892374 0.16394
internal_count=6622 2445 4177 1151 967 812 3454 3121 256 146 1294 155 333 577 512 717 105 140 372 186 65 556 78 723 42 113 1433 1688 454 1147
shrinkage=0.01


Tree=25
num_leaves=31
num_cat=0
split_feature=62 89 35 89 86 89 77 21 66 84 41 77 35 71 17 89 85 2 8 71 85 89 77 36 41 6 5 41 8 11
split_gain=37023.4 12470.9 9615 7687.89 5551.88 4819.29 3148.11 3760.01 2941.03 5717.08 2869.06 2538.22 2128.12 2016.21 2014.06 1974.2 1855.05 1684.92 1795.87 1562.5 1680.89 1912.75 1368.66 1524.57 2745.76 1336.85 1312.09 1472.53 1273.94 1295.97
threshold=0.082317073170731739 0.28252032520325215 0.041666666666666678 0.080284552845528476 0.36428571428571438 0.070121951219512216 0.77857142857142869 0.67307692307692313 0.71333333333333349 0.6066666666666668 0.82142857142857151 0.3357142857142858 0.10772357723577237 0.041666666666666678 0.10365853658536588 0.034552845528455299 0.25000000000000006 0.45588235294118112 0.061991869918699198 0.061991869918699198 0.34090909090909099 0.14024390243902443 0.86428571428571443 0.60294117647058831 0.62142857142857155 0.72826086956521752 0.42142857142857149 0.37857142857142861 0.0579268292682927 0.45588235294118112
decision_type=2 2 2 2 2 2 2 2 2 2 2 2 2 2 2 2 2 2 2 2 2 2 2 2 2 2 2 2 2 2
left_child=2 3 13 10 8 11 16 12 14 -10 28 -4 -8 -1 -5 -13 -6 -18 -19 -7 21 -21 23 -17 -25 -20 27 -11 -2 -30
right_child=1 -3 5 4 6 19 7 -9 9 26 -12 15 -14 -15 -16 22 17 18 25 20 -22 -23 -24 24 -26 -27 -28 -29 29 -31
leaf_value=-0.060262251184196085 -0.022909839749529263 0.28221434217691421 0.014008297804608254 0.023088825767816502 0.057250354421658461 -0.0096430773993362064 0.07427190039984205 0.03455082847929198 0.27236132298197069 0.069144707378886991 0.061438747862490213 -0.04792346448871334 0.17572799107967277 -0.031183055941123989 0.08743321395795127 -0.024204365638793295 -0.0025062457974234123 -0.012478231928053212 0.10391539348096684 0.024775208810447816 0.0018555505013353722 0.12295696789310093 0.027154444505982665 -0.028412584636168071 0.026368089684612725 0.033577470126740561 0.052601049111244524 0.18621459820053793 -0.016509904628193458 0.018751393946860304
leaf_count=444 193 20 228 86 162 387 44 121 21 21 82 243 39 515 112 1338 231 83 29 360 465 21 66 184 182 396 47 22 153 327
internal_value=0 3.36488 -1.66157 3.13568 4.51138 -0.887782 3.46354 7.01079 8.2585 12.3789 0.559214 -1.76143 12.1944 -4.46462 5.94857 -2.1196 2.66039 1.98858 3.0068 0.700092 1.46147 3.01868 -1.75267 -1.92573 -0.117192 3.8377 8.91223 12.9041 -0.121235 0.751186
internal_count=6622 2189 4433 2169 1414 3474 1105 204 309 111 755 2241 83 959 198 2013 901 739 508 1233 846 381 1770 1704 366 425 90 43 673 480
shrinkage=0.01


Tree=26
num_leaves=31
num_cat=0
split_feature=80 53 44 8 86 83 41 28 8 12 40 59 14 66 80 89 32 23 81 16 86 12 45 66 85 40 89 2 60 82
split_gain=36304.3 11054.4 10193.4 4882.25 4381.23 2855.23 2778.39 3295.82 2750.24 2440.61 3260.27 3212.32 3425.77 2403.22 2381.88 2361.95 2038.65 1964.03 1958.64 1621.99 1550.05 1536.35 1529.71 1507.95 1461.19 1535.42 1451.8 1304.19 1302.28 1310.83
threshold=0.080284552845528476 0.095528455284552866 0.045731707317073184 0.10772357723577237 0.29285714285714287 0.78125000000000011 0.76428571428571435 0.73611111111111116 0.074186991869918714 0.86217948717948723 0.34090909090909099 0.79285714285714304 0.43571428571428578 0.59333333333333338 0.041666666666666678 0.034552845528455299 0.32142857142857145 0.8928571428571429 0.54411764705882359 0.57500000000000018 0.078571428571428584 0.86217948717948723 0.54411764705882359 0.71333333333333349 0.34090909090909099 0.20454545454545459 0.095528455284552866 0.51470588235294212 0.8369565217391306 0.76562500000000011
decision_type=2 2 2 2 2 2 2 2 2 2 2 2 2 2 2 2 2 2 2 2 2 2 2 2 2 2 2 2 2 2
left_child=2 8 14 5 13 17 15 -8 -2 10 11 12 16 -4 -1 -6 -5 20 -15 -13 23 28 -9 -3 25 -17 -27 -11 29 -10
right_child=1 3 4 9 6 -7 7 22 21 27 -12 19 -14 18 -16 24 -18 -19 -20 -21 -22 -23 -24 -25 -26 26 -28 -29 -30 -31
leaf_value=-0.058941548171923278 -0.002690591821529433 0.026157985627651214 -0.0053533707026619717 0.077358601147478279 -0.04921399551873961 0.13182983018954594 0.077852511981671507 -0.022600040837822345 0.13278294835090637 -0.015597090752991408 0.057637863836981156 0.1321253885626793 0.06238403355104661 0.039286518638363535 -0.029842741418562264 0.025226828553984244 0.19668538914675393 0.10360395934018823 0.14421391554246657 0.25948260042071342 0.02304639833254564 -0.0087807521397627684 0.024339768069688805 0.14895652490854264 -0.019907390941093412 -0.012374453222493127 0.051013679425967365 0.078563327913482986 0.027861726250381288 0.036785223475008302
leaf_count=525 678 20 131 22 197 30 66 149 25 38 185 20 109 161 606 155 41 36 20 20 541 103 130 20 1307 735 38 24 457 33
internal_value=0 3.10352 -1.76651 5.42576 -0.826077 3.65611 -1.22527 1.43044 1.12173 7.92023 8.83149 11.5085 9.63131 2.72696 -4.33501 -1.602 15.5016 3.19289 5.08807 19.5804 2.74878 2.64755 -0.0728445 8.75573 -1.30942 -0.349843 -0.925835 2.08521 3.35268 7.81636
internal_count=6622 2402 4220 1106 3089 647 2777 345 1296 459 397 212 172 312 1131 2432 63 617 181 40 581 618 279 40 2235 928 773 62 515 58
shrinkage=0.01


Tree=27
num_leaves=31
num_cat=0
split_feature=62 89 26 17 85 71 89 2 71 86 73 32 8 85 80 32 47 6 89 86 27 32 83 40 41 12 27 50 80 45
split_gain=35696.7 12179.2 9330.07 7451.58 4787.5 4392.88 4216.19 3140.23 2590.72 2499.99 4503.36 3020.99 2062.51 1966.78 1881.29 1852.82 1787.96 1764.25 1688.2 1666.46 1541.64 2989.91 1499.84 1353.51 1783.96 2346.55 1696.76 1347.35 1229.82 1185.62
threshold=0.082317073170731739 0.28252032520325215 0.045731707317073184 0.082317073170731739 0.43181818181818193 0.070121951219512216 0.070121951219512216 0.30882352941176811 0.043699186991869927 0.36428571428571438 0.76562500000000011 0.83571428571428585 0.21747967479674804 0.34090909090909099 0.10772357723577237 0.76428571428571435 0.42187500000000006 0.72826086956521752 0.095528455284552866 0.35000000000000003 0.60294117647058831 0.59285714285714297 0.70312500000000011 0.34090909090909099 0.62142857142857155 0.83012820512820529 0.33823529411764702 0.36428571428571438 0.067073170731707335 0.54411764705882359
decision_type=2 2 2 2 2 2 2 2 2 2 2 2 2 2 2 2 2 2 2 2 2 2 2 2 2 2 2 2 2 2
left_child=2 3 8 14 6 12 -5 -8 -1 10 18 17 19 23 15 -2 -13 -11 -9 -4 28 -22 -16 24 25 -7 -27 -20 -21 -17
right_child=1 -3 5 4 -6 13 7 9 -10 11 -12 16 -14 -15 22 29 -18 -19 27 20 21 -23 -24 -25 -26 26 -28 -29 -30 -31
leaf_value=-0.058524730885440177 -0.0069619232744397687 0.2786818051636219 0.0037686576999669129 0.012152829810125488 0.0053904637323500329 0.035672856149585729 -0.0060052617825567724 0.037958453564788212 -0.028125483420553467 0.11841632918558187 0.20178665177689659 0.2041867424249649 0.085418125797063121 -0.0033595777291642584 0.022825912413435439 0.0030251230749319185 0.087375102121579021 0.045559398462742089 0.061091306986143956 -0.030674904677193988 -0.030693006164989198 0.024902543648317153 0.093468585066935589 0.0050496835843438191 0.0093516984286493264 0.051831905258353801 0.17434639435548049 0.126639527063581 -0.010405897196132146 0.06793305397530397
leaf_count=480 551 20 340 175 223 107 56 64 674 36 36 20 20 575 259 53 38 433 52 1061 191 196 34 210 116 20 26 79 417 60
internal_value=0 3.30404 -1.63152 3.07754 4.72456 -0.770875 5.66831 6.62566 -4.07699 7.15952 9.90257 5.95715 -1.56751 0.910827 0.991655 0.0602854 12.7655 5.11518 8.00544 -1.6592 -2.03039 -0.253609 3.10234 2.40749 3.89273 6.13506 12.1079 10.062 -2.49562 3.74895
internal_count=6622 2189 4433 2169 1212 3279 989 814 1154 758 231 527 2225 1054 957 664 58 469 195 2205 1865 387 293 479 269 153 46 131 1478 113
shrinkage=0.01


Tree=28
num_leaves=31
num_cat=0
split_feature=71 8 44 3 68 86 86 89 71 73 85 2 66 2 80 17 59 0 70 38 5 19 76 5 71 17 36 32 9 5
split_gain=35009 10016 8841.37 4780.85 4729.46 5059.17 3908.01 3234.59 3069.97 4282 2554.62 2415.53 2287.14 2097.62 2212.57 1870.07 2094.57 1834.62 1755.88 1739.57 1736.06 2668.33 1689.57 1592.25 1538.77 1477.46 1461.55 3213.32 1446.88 1376.01
threshold=0.078252032520325226 0.086382113821138237 0.037601626016260173 0.86217948717948723 0.76428571428571435 0.36428571428571438 0.29285714285714287 0.061991869918699198 0.10365853658536588 0.76562500000000011 0.34090909090909099 0.39705882352941307 0.59333333333333338 0.30882352941176811 0.1158536585365854 0.045731707317073184 0.76428571428571435 0.56944444444444442 0.80434782608695665 0.54687500000000011 0.39285714285714296 0.79166666666666663 0.25000000000000006 0.60714285714285732 0.025406504065040653 0.049796747967479689 0.54411764705882359 0.62142857142857155 0.56944444444444442 0.53571428571428581
decision_type=2 2 2 2 2 2 2 2 2 2 2 2 2 2 2 2 2 2 2 2 2 2 2 2 2 2 2 2 2 2
left_child=2 10 24 4 5 8 12 26 -3 -10 13 -6 -4 -2 18 -12 -17 -16 -15 -20 21 -14 -7 -13 -1 -9 -8 -28 -18 -27
right_child=1 3 6 -5 11 22 7 25 9 -11 15 23 20 14 17 16 28 -19 19 -21 -22 -23 -24 -25 -26 29 27 -29 -30 -31
leaf_value=-0.076867297582427899 -0.026885322955938484 0.047631206995384263 -0.0078505342479060301 0.0047917110509234076 0.19509591426168169 0.066682840657771622 -0.029433637534432729 -0.02369505921704369 0.092377237928410363 0.23393132449199375 -0.037843376205561045 0.13715934062490659 0.043896690722968847 0.0094771821543472978 0.085406547633631688 -0.0021582392452251888 0.025025507413271454 -0.0050935777276754383 0.1100724692375232 0.015622008162049146 0.022535679047419266 0.18271780786663291 0.024561607350384995 0.064421216581876467 -0.04164493382720158 -0.0096221268720286454 -0.031845788109567369 0.021802076654075974 0.11514326972961426 0.012296364358084476
leaf_count=159 65 110 147 184 28 122 1234 286 120 26 119 49 45 294 112 511 62 28 39 39 121 20 434 78 564 554 256 198 25 593
internal_value=0 3.0053 -1.75915 5.15135 6.04036 5.07413 -1.09352 -1.44097 8.7527 11.7585 1.09642 11.1022 2.16291 2.66269 3.34205 -0.164025 0.556405 6.73065 2.06677 6.28472 4.49276 8.66109 3.3804 9.24855 -4.93909 -0.336057 -2.37896 -0.84487 5.09214 0.170975
internal_count=6622 2445 4177 1151 967 812 3454 3121 256 146 1294 155 333 577 512 717 598 140 372 78 186 65 556 127 723 1433 1688 454 87 1147
shrinkage=0.01


Tree=29
num_leaves=31
num_cat=0
split_feature=80 8 44 12 71 86 86 52 14 77 89 41 28 80 89 26 60 84 89 86 21 48 2 14 45 51 16 23 58 79
split_gain=34426.7 10530.3 9677.32 4903.78 4722.17 4187.11 3360.22 4898.71 4066.39 4011.43 3311.69 2985.13 3314.7 2277.02 1974.17 1873.67 1842.62 1719.33 1601.41 1568.2 2385.59 1629.47 1491.41 1762.08 1468.71 1441.69 1401.67 1398.34 1355.38 1315.76
threshold=0.080284552845528476 0.074186991869918714 0.045731707317073184 0.86217948717948723 0.095528455284552866 0.35000000000000003 0.36428571428571438 0.75000000000000011 0.39285714285714296 0.77857142857142869 0.11178861788617889 0.76428571428571435 0.73611111111111116 0.041666666666666678 0.034552845528455299 0.10772357723577237 0.8369565217391306 0.70000000000000018 0.14430894308943096 0.49285714285714294 0.71153846153846156 0.83012820512820529 0.51470588235294212 0.43571428571428578 0.54411764705882359 0.80978260869565233 0.86250000000000016 0.75000000000000011 0.34090909090909099 0.45652173913043487
decision_type=2 2 2 2 2 2 2 2 2 2 2 2 2 2 2 2 2 2 2 2 2 2 2 2 2 2 2 2 2 2
left_child=2 18 13 4 16 10 7 -6 -9 -8 25 14 -13 -1 -7 -11 26 -17 27 21 -21 -16 -5 -24 -14 -4 -3 -2 -20 -23
right_child=1 3 5 22 6 11 9 8 -10 15 -12 12 24 -15 19 17 -18 -19 28 20 -22 29 23 -25 -26 -27 -28 -29 -30 -31
leaf_value=-0.057472939342579674 -0.0053491947368767435 0.12755437513347714 0.060257619749754666 -0.016918680280077217 0.074190113950573219 -0.048420665110362339 0.04428841691028871 0.28297712365786237 0.11190503134871975 0.07106690183800661 0.13291404236418505 0.078545673452890846 -0.022179775990095716 -0.029021887388618252 -0.028567100729908878 0.11061768637703998 0.02316202099386775 0.22684598731994629 0.083147498422198818 0.014852340954398229 -0.016381450147320342 0.064863684490323065 -0.025557099193334581 0.069417427669146228 0.023814602218425046 0.0062866427749723296 0.029719758149650364 0.029809647905848807 -0.0012276706912300805 -0.018613619059324266
leaf_count=525 726 32 56 136 142 188 445 24 33 57 24 65 149 606 822 35 427 20 45 352 801 35 30 56 130 426 27 134 33 41
internal_value=0 3.0222 -1.72022 4.69816 5.47193 -0.803905 7.03532 10.5625 18.3935 5.77517 1.82658 -1.31921 1.42342 -4.22286 -1.74058 11.1244 3.03999 15.2883 0.406407 -1.45629 -0.684607 -2.44711 0.369244 3.62868 -0.0748704 1.25571 8.27826 0.0129044 4.74503 1.98299
internal_count=6622 2402 4220 1464 1242 3089 756 199 57 557 506 2583 344 1131 2239 112 486 55 938 2051 1153 898 222 86 279 482 59 860 78 76
shrinkage=0.01


Tree=30
num_leaves=31
num_cat=0
split_feature=62 89 35 26 89 85 87 89 83 85 77 59 53 63 89 21 0 21 41 43 2 45 50 85 89 86 77 36 41 8
split_gain=33855.5 11822.5 8916.51 7108.18 4452.56 3316.41 3236.61 3121.9 3430.31 2439.15 2381.36 2170.66 1859.96 1859.72 1821.2 1806.63 1692.91 1593.47 1585.96 2320.22 1926.46 1745.05 1667.58 1453.28 2602.54 1369.08 1312.44 1436.43 2574.27 1235.12
threshold=0.082317073170731739 0.28252032520325215 0.041666666666666678 0.10772357723577237 0.070121951219512216 0.34090909090909099 0.72826086956521752 0.076219512195121977 0.78125000000000011 0.43181818181818193 0.3357142857142858 0.73571428571428588 0.029471544715447159 0.33823529411764702 0.034552845528455299 0.67307692307692313 0.68055555555555547 0.67307692307692313 0.83571428571428585 0.92500000000000016 0.30882352941176811 0.24999999999999992 0.42142857142857149 0.34090909090909099 0.14430894308943096 0.30714285714285722 0.86428571428571443 0.60294117647058831 0.62142857142857155 0.10772357723577237
decision_type=2 2 2 2 2 2 2 2 2 2 2 2 2 2 2 2 2 2 2 2 2 2 2 2 2 2 2 2 2 2
left_child=2 3 12 5 10 6 13 -5 9 18 29 -7 -1 -2 -12 -13 17 -8 20 -20 -9 -22 -23 24 -6 -14 27 -16 -29 -4
right_child=1 -3 4 7 23 11 16 8 -10 -11 14 15 25 -15 26 -17 -18 -19 19 -21 21 22 -24 -25 -26 -27 -28 28 -30 -31
leaf_value=-0.066271636111372378 0.04853435228977885 0.27419391532521692 0.0061888629559753005 0.014178498429647149 0.014413620604878843 -0.0048030323056103127 0.055015923251824764 -0.014449688376438232 0.16416076168869481 0.01056266754137716 -0.045975061014386615 0.087105909201502796 0.025490231485002571 0.16378924625260488 -0.023276538222391986 0.010840194625098531 -0.027308472896803104 0.019055473921268225 0.070720718265385243 0.20440665069222452 0.15194981668306434 0.087858485883971049 0.044578264401247514 -0.0030134431960850824 0.12539608512412417 -0.037808625733818019 0.026973888693433819 -0.027296063657850027 0.02574626560507158 0.085016228096051652
leaf_count=251 28 20 206 151 534 641 192 31 33 87 243 50 36 28 1338 82 53 344 37 20 23 150 219 677 22 672 66 184 182 22
internal_value=0 3.2177 -1.58889 2.99454 -0.843741 1.6771 3.35129 5.48207 6.5049 5.92805 -1.68349 0.280136 -4.28821 10.6162 -2.03042 3.97287 2.66058 3.19368 6.81107 11.7628 6.14381 6.74394 6.21719 0.682521 1.8805 -3.459 -1.67799 -1.84746 -0.0919823 1.3795
internal_count=6622 2189 4433 2169 3474 1418 645 751 600 567 2241 773 959 56 2013 132 589 536 480 57 423 392 369 1233 556 708 1770 1704 366 228
shrinkage=0.01


Tree=31
num_leaves=31
num_cat=0
split_feature=80 53 44 8 86 89 41 28 83 8 19 9 89 32 77 70 85 71 14 26 59 76 51 36 12 5 57 30 65 60
split_gain=33222.5 10222.1 9354.5 4531.41 4494.54 3214.86 3106.5 3585.26 2747.07 2525.2 2288.98 2280.62 2162.22 2151.86 3521.87 2758.9 1869.57 2079.79 1860.14 1847.54 1636.27 1628.48 1627.52 1556.09 1456.34 1385.7 2760.76 1326.92 1303.11 1233.44
threshold=0.080284552845528476 0.095528455284552866 0.041666666666666678 0.10772357723577237 0.35000000000000003 0.11178861788617889 0.76428571428571435 0.73611111111111116 0.78125000000000011 0.074186991869918714 0.84722222222222221 0.52777777777777768 0.034552845528455299 0.32142857142857145 0.25000000000000006 0.80434782608695665 0.25000000000000006 0.1158536585365854 0.37857142857142861 0.034552845528455299 0.8928571428571429 0.11363636363636365 0.80978260869565233 0.54411764705882359 0.86217948717948723 0.53571428571428581 0.5705128205128206 0.86217948717948723 0.54687500000000011 0.8369565217391306
decision_type=2 2 2 2 2 2 2 2 2 2 2 2 2 2 2 2 2 2 2 2 2 2 2 2 2 2 2 2 2 2
left_child=2 9 19 8 5 22 12 -8 16 -2 11 13 -6 -5 -15 -16 17 -3 -13 -1 -18 -14 -4 -9 29 -23 -27 -28 -19 -11
right_child=1 3 4 10 6 -7 7 23 -10 24 -12 18 21 14 15 -17 20 28 -20 -21 -22 25 -24 -25 -26 26 27 -29 -30 -31
leaf_value=-0.065129850024205696 -0.0026952804031075807 0.022150026554462771 0.062077239509350783 0.050006058898109655 -0.047748348122643947 0.13073112351819874 0.078480234732303547 -0.023069884448503119 0.12841782856484255 0.075558221545712706 0.021071337099258715 0.12060531327551281 0.03443546790746041 0.23063444669430072 0.078906167782325717 0.17999101992282604 0.017667199970203194 0.065204275137669326 0.040572191074628519 -0.035037548488161749 0.10405227325532748 -0.024696972477193959 0.0057511554315459691 0.022781495061451502 -0.0090737704404638807 0.034178199784435107 -0.004996165932420327 -0.029506826622671158 0.15562472498310465 0.026603979735025891
leaf_count=313 678 59 58 52 226 24 68 161 30 58 65 37 64 26 108 36 470 37 135 586 23 1084 444 137 103 132 557 366 28 457
internal_value=0 2.96887 -1.68986 5.20198 -0.915225 1.76645 -1.4199 1.29603 3.4971 1.06315 7.60515 8.51218 -1.82913 10.6299 12.3518 10.4177 3.04274 6.51363 5.77886 -4.55146 2.16973 -1.52694 1.2259 -0.199056 2.52521 -1.67566 -0.859795 -1.47155 10.4155 3.21173
internal_count=6622 2402 4220 1106 3321 526 2795 366 647 1296 459 394 2429 222 170 144 617 124 172 899 493 2203 502 298 618 2139 1055 923 65 515
shrinkage=0.01


Tree=32
num_leaves=31
num_cat=0
split_feature=71 8 44 3 68 86 86 89 71 73 85 2 66 2 80 17 59 78 70 38 5 19 5 21 68 17 76 57 5 71
split_gain=32647.8 9336.3 8237.11 4531.79 4521.44 4785.22 3644.63 3049.03 2904.08 4168.57 2431.78 2346.23 2214.34 2022.89 2092.88 1792.46 2006.98 1774.69 1717.38 1696.2 1696.15 2587.53 1633.66 4073.35 1760.45 1631.32 1610.89 1564.9 1525.94 1469.44
threshold=0.078252032520325226 0.086382113821138237 0.037601626016260173 0.86217948717948723 0.76428571428571435 0.36428571428571438 0.29285714285714287 0.045731707317073184 0.10365853658536588 0.76562500000000011 0.34090909090909099 0.39705882352941307 0.59333333333333338 0.30882352941176811 0.1158536585365854 0.045731707317073184 0.76428571428571435 0.8369565217391306 0.80434782608695665 0.54687500000000011 0.39285714285714296 0.79166666666666663 0.53571428571428581 0.71153846153846156 0.62142857142857155 0.066056910569105717 0.25000000000000006 0.5705128205128206 0.60714285714285732 0.025406504065040653
decision_type=2 2 2 2 2 2 2 2 2 2 2 2 2 2 2 2 2 2 2 2 2 2 2 2 2 2 2 2 2 2
left_child=2 10 29 4 5 8 12 -8 -3 -10 13 -6 -4 -2 18 -12 -17 -16 -15 -20 21 -14 -9 25 -25 -24 -7 -27 -13 -1
right_child=1 3 6 -5 11 26 7 22 9 -11 15 28 20 14 17 16 -18 -19 19 -21 -22 -23 23 24 -26 27 -28 -29 -30 -31
leaf_value=-0.074531655874829628 -0.026676725176664497 0.045922323752533308 -0.0081219049463314673 0.0042527756949319795 0.19074850454926492 0.064581157088462945 -0.03138508333166682 -0.016982974980496252 0.089088217052320645 0.22875481566557518 -0.037149493045666636 0.1333545706953321 0.042948339345554518 0.0090748926966457439 0.12716966727801732 -0.0022113947191233739 0.049746597540703999 0.044946014360302974 0.10848936975002289 0.015223818816817725 0.02167638385545247 0.17965124233067037 0.0036356661720644864 0.022884814762048893 -0.020089551168928545 0.082855807520560362 0.023452395748653907 0.025647922799013512 0.062147113370398688 -0.040112002732740806
leaf_count=159 65 110 147 184 28 122 757 1134 120 26 119 49 45 294 35 511 87 105 39 39 121 20 210 111 675 67 434 167 78 564
internal_value=0 2.90219 -1.69879 4.97413 5.83968 4.89494 -1.05631 -1.39184 8.47253 11.396 1.05922 10.7889 2.08848 2.58737 3.25451 -0.170552 0.534771 6.55019 2.0142 6.18566 4.38094 8.50108 -0.832525 -0.0343252 -1.40207 2.38694 3.24771 4.2028 8.96209 -4.76815
internal_count=6622 2445 4177 1151 967 812 3454 3121 256 146 1294 155 333 577 512 717 598 140 372 78 186 65 2364 1230 786 444 556 234 127 723
shrinkage=0.01


Tree=33
num_leaves=31
num_cat=0
split_feature=62 89 26 89 85 86 71 2 50 77 10 71 21 8 76 6 21 41 21 0 67 30 89 87 72 12 87 13 17 17
split_gain=32102.4 11469.2 8522.98 6790.96 4967.83 4058.56 3991.04 2832.09 2664.59 2462.51 3088.9 2358.34 2149.68 1957.83 1864.3 1599.8 1573.95 2216.79 2430.55 1875.95 1562.42 1524.68 1496.74 1480.56 2640.88 1479.66 1364.21 1242.7 2133.3 1208.25
threshold=0.082317073170731739 0.28252032520325215 0.045731707317073184 0.080284552845528476 0.43181818181818193 0.36428571428571438 0.070121951219512216 0.73529411764706165 0.76428571428571435 0.77857142857142869 0.70833333333333337 0.043699186991869927 0.60897435897435903 0.21747967479674804 0.25000000000000006 0.72826086956521752 0.86217948717948723 0.55000000000000016 0.74679487179487192 0.4583333333333332 0.25000000000000006 0.86217948717948723 0.11178861788617889 0.8369565217391306 0.33823529411764702 0.42948717948717952 0.72826086956521752 0.25000000000000006 0.10365853658536588 0.10772357723577237
decision_type=2 2 2 2 2 2 2 2 2 2 2 2 2 2 2 2 2 2 2 2 2 2 2 2 2 2 2 2 2 2
left_child=2 3 11 8 5 7 13 23 20 15 -11 -1 -10 16 22 29 17 19 25 -4 -2 27 -8 24 -5 -19 -17 -12 -29 -7
right_child=1 -3 6 4 -6 9 14 -9 12 10 21 -13 -14 -15 -16 26 -18 18 -20 -21 -22 -23 -24 -25 -26 -27 -28 28 -30 -31
leaf_value=-0.055784922433085742 0.029334378759537278 0.26970614269375803 -0.0035597914891864809 0.067988831658621088 0.0040038999276694612 0.034333404034376146 0.026594942973834683 0.19902262172475457 0.095723115568622369 0.15409231291005487 0.025221174782192386 -0.026781096696682299 0.013334170861376657 0.083654832229018206 0.0026266443987928486 0.097765892658520634 -0.032210942594322306 0.066370044784112417 -0.021824800301143907 -0.030453676857153868 -0.011355852003838764 -0.0083182488195598127 0.11121382037798563 0.062604171550318374 0.20634163650599394 0.010607567147982357 0.025150385491643251 0.057975636832416057 0.18345772574841976 0.14060883801916371
leaf_count=480 116 20 422 37 276 20 162 20 52 38 37 674 81 20 868 27 459 55 243 673 506 32 24 201 22 353 619 42 20 23
internal_value=0 3.13329 -1.54721 2.91349 4.20645 5.12953 -0.724625 8.43535 0.491973 4.05071 7.47138 -3.88451 4.55464 -1.48395 0.878315 3.21167 -1.57329 -1.1401 0.321259 -2.00891 -0.376732 5.1688 3.75135 7.55329 11.9578 1.81246 2.81854 7.1084 9.84537 9.11784
internal_count=6622 2189 4433 2169 1414 1138 3279 280 755 858 169 1154 133 2225 1054 689 2205 1746 651 1095 622 131 186 260 59 408 646 99 62 43
shrinkage=0.01


Tree=34
num_leaves=31
num_cat=0
split_feature=80 53 44 8 86 89 41 28 83 8 12 40 59 14 80 32 23 89 16 86 21 48 12 86 66 45 51 79 67 9
split_gain=31529.3 9733.87 8884.08 4328.81 3886.76 3090.54 2777.46 3119.63 2676.93 2406.34 2208.87 3005.54 2974.07 3200.18 2136.57 1917.3 1833.45 1818.79 1546.67 1487.51 2241.65 1583.79 1402.84 1402.83 1426.16 1386.63 1351.67 1284.12 1276.4 1253.77
threshold=0.080284552845528476 0.095528455284552866 0.045731707317073184 0.10772357723577237 0.35000000000000003 0.11178861788617889 0.76428571428571435 0.73611111111111116 0.78125000000000011 0.074186991869918714 0.86217948717948723 0.34090909090909099 0.79285714285714304 0.43571428571428578 0.041666666666666678 0.32142857142857145 0.8928571428571429 0.034552845528455299 0.57500000000000018 0.49285714285714294 0.71153846153846156 0.83012820512820529 0.86217948717948723 0.078571428571428584 0.71333333333333349 0.54411764705882359 0.80978260869565233 0.45652173913043487 0.25000000000000006 0.4583333333333332
decision_type=2 2 2 2 2 2 2 2 2 2 2 2 2 2 2 2 2 2 2 2 2 2 2 2 2 2 2 2 2 2
left_child=2 9 14 8 5 26 17 -8 16 -2 11 12 13 15 -1 -5 23 -6 -14 21 -21 -19 -11 24 -3 -9 -4 -23 -22 -15
right_child=1 3 4 10 6 -7 7 25 -10 22 -12 -13 18 29 -16 -17 -18 19 -20 20 28 27 -24 -25 -26 -27 -28 -29 -30 -31
leaf_value=-0.055207920063588593 -0.0026835751811771823 0.022708592832088474 0.058333633354465876 0.071938112865794782 -0.046481388630147315 0.12841504198188583 0.076197949780294524 -0.021551497313600256 0.12629629875843723 0.031336042961982773 0.018690933973318148 0.0534167953085255 0.12405938583612443 0.10315608981328132 -0.027648268332720272 0.18765917371685914 0.098816336718284423 -0.027671495436890722 0.24842455606535077 0.014565926676150412 0.010373256380032551 0.064531522583216427 -0.0090913768416469535 0.021048797408907284 0.14213067722320558 0.023139193813388165 0.0060746701681951478 -0.017936228219328859 -0.021820052275419787 0.03240381081295865
leaf_count=525 678 20 56 22 188 24 65 149 30 515 62 185 20 39 606 41 36 822 20 352 152 35 103 541 20 130 426 41 649 70
internal_value=0 2.89223 -1.64624 5.07135 -0.768284 1.7661 -1.26476 1.38075 3.40502 1.03258 7.42018 8.2871 10.8574 9.05117 -4.04412 14.7249 2.95649 -1.67122 18.6242 -1.39834 -0.646771 -2.36334 2.45981 2.5274 8.24196 -0.0727878 1.21463 2.00423 -1.5711 5.77188
internal_count=6622 2402 4220 1106 3089 506 2583 344 647 1296 459 397 212 172 1131 63 617 2239 40 2051 1153 898 618 581 40 279 482 76 801 109
shrinkage=0.01


Tree=35
num_leaves=31
num_cat=0
split_feature=62 89 53 17 85 89 89 2 86 73 32 2 80 17 6 41 47 89 89 87 87 14 77 69 10 5 50 71 36 26
split_gain=30949.9 11203.7 8275.33 6615.85 4295.59 3757.59 3374.52 2973.83 2212.12 4229.87 2759.11 1960.49 1944.12 1792.61 1694.72 1694.63 1694.32 1650.68 1554.91 1400.46 1390.7 1371.42 1356.15 1329.28 1978.91 1625.61 1298.39 1291.87 1050.08 1025.15
threshold=0.082317073170731739 0.28252032520325215 0.043699186991869927 0.082317073170731739 0.43181818181818193 0.070121951219512216 0.061991869918699198 0.30882352941176811 0.36428571428571438 0.76562500000000011 0.83571428571428585 0.45588235294118112 0.025406504065040653 0.049796747967479689 0.72826086956521752 0.82142857142857151 0.42187500000000006 0.080284552845528476 0.095528455284552866 0.8369565217391306 0.91847826086956541 0.56428571428571439 0.46428571428571436 0.8369565217391306 0.73611111111111116 0.56428571428571439 0.36428571428571438 0.070121951219512216 0.60294117647058831 0.045731707317073184
decision_type=2 2 2 2 2 2 2 2 2 2 2 2 2 2 2 2 2 2 2 2 2 2 2 2 2 2 2 2 2 2
left_child=2 3 12 15 5 -5 11 -7 9 18 14 28 -1 -8 -10 17 -12 -2 -9 21 22 -19 -13 24 -15 -26 -20 -25 -4 -14
right_child=1 -3 6 4 -6 7 13 8 10 -11 16 20 29 23 -16 -17 -18 19 26 -21 -22 -23 -24 27 25 -27 -28 -29 -30 -31
leaf_value=-0.070939830887868913 -0.011512471513639868 0.26636398382484916 -0.036288406655902265 0.011012815363066537 0.0044654113508660696 -0.0082318757052001149 -0.018594961999915539 0.034301420082338156 0.11385366351447171 0.19267929128474659 0.19554064761474726 0.098123728207179489 -0.045079843852713353 0.10330331025645137 0.042446764265692542 0.045124703578389526 0.081829084816731901 0.12105914468115027 0.055634452567185057 0.008325465916211184 -0.013211736241746621 0.029715688659451331 0.0067925696509579811 -0.0063379163542523452 0.080964164810795936 -0.00048091978025742069 0.11998076364963871 0.013927094226834491 0.0050084822244969183 -0.022864715971727914
leaf_count=173 377 20 572 175 223 56 352 64 36 36 20 21 420 32 433 114 38 22 52 379 896 65 72 686 31 117 79 581 69 411
internal_value=0 3.07653 -1.51918 2.85929 4.4112 5.30515 -0.779869 6.20894 6.72846 9.30875 5.59744 -1.82205 -4.04418 0.16441 4.79279 0.893854 12.104 0.404504 7.47013 1.66313 -0.939136 5.2814 2.74157 0.656749 3.19963 1.65785 9.44387 0.295488 -3.1843 -3.40926
internal_count=6622 2189 4433 2169 1212 989 3429 814 758 231 527 1630 1004 1799 469 957 58 843 195 466 989 87 93 1447 180 148 131 1267 641 831
shrinkage=0.01


Tree=36
num_leaves=31
num_cat=0
split_feature=80 8 44 12 71 86 86 52 14 77 89 41 28 89 26 26 60 84 76 51 86 66 36 2 14 16 5 57 35 30
split_gain=30383.1 9411.32 8587.77 4520.35 4223.59 4196.82 3050.47 4648.16 3961.41 3659.91 2996.26 2904.57 3375.82 2003.5 1750.42 1748.84 1734.22 1654.66 1567.36 1524.65 1501.68 1804.64 1468.74 1401.23 1719.62 1342.34 1317.65 2647.15 1258.12 1253.74
threshold=0.080284552845528476 0.074186991869918714 0.041666666666666678 0.86217948717948723 0.095528455284552866 0.35000000000000003 0.36428571428571438 0.75000000000000011 0.39285714285714296 0.77857142857142869 0.11178861788617889 0.76428571428571435 0.73611111111111116 0.034552845528455299 0.10772357723577237 0.034552845528455299 0.8369565217391306 0.70000000000000018 0.11363636363636365 0.80978260869565233 0.3357142857142858 0.76333333333333342 0.54411764705882359 0.51470588235294212 0.43571428571428578 0.86250000000000016 0.53571428571428581 0.5705128205128206 0.041666666666666678 0.86217948717948723
decision_type=2 2 2 2 2 2 2 2 2 2 2 2 2 2 2 2 2 2 2 2 2 2 2 2 2 2 2 2 2 2
left_child=2 20 15 4 16 10 7 -6 -9 -8 19 13 -13 -7 -11 -1 25 -16 -15 -4 21 -2 -14 -5 -25 -3 -20 -28 -22 -29
right_child=1 3 5 23 6 11 9 8 -10 14 -12 12 22 18 17 -17 -18 -19 26 -21 28 -23 -24 24 -26 -27 27 29 -30 -31
leaf_value=-0.06266264768159642 0.0082689800756434867 0.12329757514409721 0.06017467332554275 -0.017304759288809316 0.069436764569926854 -0.045927313797060505 0.041583905732834693 0.2740937021871408 0.10524417949106658 0.066705396938742251 0.12632998370875917 0.076224199914756943 -0.022339985681385361 0.034100069764535876 0.10432209036179951 -0.033385183313587738 0.021643401143016768 0.2183434634655714 -0.023865138765526945 0.005657779046057446 -0.032670430580427477 0.091837526677176359 0.022205863774475389 -0.026827147531012698 0.066996134256145784 0.027555928633168893 0.033720389908377196 -0.0047092106241458619 0.0037981492227304975 -0.028534449105217158
leaf_count=313 73 32 58 136 142 226 445 24 33 57 24 68 161 64 35 586 427 20 1084 444 109 40 137 30 56 27 132 557 716 366
internal_value=0 2.83917 -1.61604 4.42359 5.16649 -0.873824 6.64504 10.0057 17.6339 5.44438 1.71751 -1.3615 1.26468 -1.75721 10.5539 -4.35786 2.86652 14.5784 -1.46632 1.19565 0.366262 3.78508 -0.186085 0.267352 3.42671 7.94836 -1.61222 -0.81664 -0.102012 -1.41567
internal_count=6622 2402 4220 1464 1242 3321 756 199 57 557 526 2795 366 2429 112 899 486 55 2203 502 938 113 298 222 86 59 2139 1055 825 923
shrinkage=0.01


Tree=37
num_leaves=31
num_cat=0
split_feature=62 89 35 17 85 89 89 2 77 86 73 32 53 6 41 47 89 89 89 85 89 87 14 86 50 77 36 41 10 8
split_gain=29840 10925.4 8024.18 6381.84 4165.97 4007.12 3631.66 2905 2200.15 2128.56 4121.68 2673.37 1681.54 1660.36 1649.07 1648.01 1631.57 1594.22 1505.02 1369.93 2487.2 1364.83 1336.64 1266.89 1264.78 1248.98 1312.73 2360.27 1195.11 1161.34
threshold=0.082317073170731739 0.28252032520325215 0.041666666666666678 0.082317073170731739 0.43181818181818193 0.070121951219512216 0.070121951219512216 0.30882352941176811 0.3357142857142858 0.36428571428571438 0.76562500000000011 0.83571428571428585 0.029471544715447159 0.72826086956521752 0.82142857142857151 0.42187500000000006 0.034552845528455299 0.080284552845528476 0.095528455284552866 0.34090909090909099 0.14430894308943096 0.8369565217391306 0.56428571428571439 0.30714285714285722 0.36428571428571438 0.86428571428571443 0.60294117647058831 0.62142857142857155 0.79166666666666663 0.10772357723577237
decision_type=2 2 2 2 2 2 2 2 2 2 2 2 2 2 2 2 2 2 2 2 2 2 2 2 2 2 2 2 2 2
left_child=2 3 12 14 6 8 -5 -8 29 10 18 13 -1 -11 17 -13 -10 -2 -9 20 -7 22 -19 -14 -20 26 -18 -28 -27 -4
right_child=1 -3 5 4 -6 19 7 9 16 11 -12 15 23 -15 -16 -17 25 21 24 -21 -22 -23 -24 -25 -26 28 27 -29 -30 -31
leaf_value=-0.062763245120742897 -0.011356634846505578 0.26286309269070623 0.0062515021111924675 0.010780863607355527 0.0042617026404916172 0.013969168820721883 -0.0085084315808489925 0.033543885294348 -0.043446816892589252 0.1123680380731821 0.18974978913035656 0.19255674628913405 0.025154971939822041 0.041688724820250454 0.044456202930264303 0.080409721559599828 -0.022057143119974719 0.11939527015794407 0.05440994377749471 -0.002921381333892397 0.12246443919160151 0.0081020589066684093 0.029217600855116661 -0.035735638450423719 0.11791786071526099 0.07644253692456654 -0.025940856367916515 0.024848926368548154 -0.0096579942813045105 0.082688123990188947
leaf_count=251 377 20 206 175 223 534 56 64 243 36 36 20 36 433 114 38 1338 22 52 677 22 379 65 672 79 28 184 182 38 22
internal_value=0 3.02086 -1.49169 2.80634 4.33056 -0.784811 5.21092 6.09943 -1.58145 6.6129 9.144 5.50345 -4.05238 4.7114 0.875975 11.9081 -1.91492 0.393247 7.32904 0.663096 1.82621 1.63015 5.20211 -3.26395 9.27086 -1.58134 -1.74666 -0.0684735 2.68695 1.3627
